%YAML:1.0
---
opencv_ml_ann_mlp:
   format: 3
   layer_sizes: [ 21, 100, 100, 3 ]
   activation_function: SIGMOID_SYM
   f_param1: 6.6666666666666663e-01
   f_param2: 1.7159000000000000e+00
   min_val: -9.4999999999999996e-01
   max_val: 9.4999999999999996e-01
   min_val1: -9.7999999999999998e-01
   max_val1: 9.7999999999999998e-01
   training_params:
      train_method: BACKPROP
      dw_scale: 1.0000000000000001e-01
      moment_scale: 0.
      term_criteria:
         iterations: 10
   input_scale:
      - 9.9292020060710284e-01
      - -6.4688749734613969e-03
      - 9.4664762983299411e-01
      - -3.1303980501060824e-01
      - 8.3840198114191133e-01
      - -5.6526528777776530e-01
      - 7.0462832777779427e-01
      - -7.0022968584543677e-01
      - 5.9497581105406738e-01
      - -7.7889324733837750e-01
      - 5.5234257796835318e-01
      - -1.1020919075440401e+00
      - 4.9540468715401265e-01
      - -1.3187697554424105e+00
      - 5.7379456298347464e-01
      - -1.5308049982762779e+00
      - 6.0257258800765978e-01
      - -1.6079483806265007e+00
      - 6.5351335277584666e-01
      - -1.9577691631899907e+00
      - 5.9401684749938566e-01
      - -1.9849503632627175e+00
      - 6.6149709479341690e-01
      - -1.9988077357398275e+00
      - 6.0560738341532339e-01
      - -1.6295880303339809e+00
      - 5.6883873188754031e-01
      - -1.5118140752314362e+00
      - 4.9568998497625394e-01
      - -1.3132252806337970e+00
      - 5.5134994600727139e-01
      - -1.1065827733915667e+00
      - 5.9852620374762711e-01
      - -7.9919109166454749e-01
      - 7.0798401548152368e-01
      - -7.0909024037285218e-01
      - 8.3702857850794687e-01
      - -5.5066854617195038e-01
      - 9.3156194918402624e-01
      - -3.3273063939700659e-01
      - 1.0002539776273680e+00
      - 3.1868091944596576e-02
   output_scale:
      - 1.
      - 0.
      - 1.
      - 0.
      - 1.
      - 0.
   inv_output_scale:
      - 1.
      - 0.
      - 1.
      - 0.
      - 1.
      - 0.
   weights:
      -
         - -8.0299128092305183e-01
         - -5.6015227983890692e-01
         - -1.7213597471904463e-01
         - -3.2638410961865122e-01
         - -9.6269710629336869e-02
         - 6.0903356408236209e-01
         - -1.1186557098316216e-01
         - 1.3284591739778717e-01
         - 9.9324452532920415e-01
         - 1.1325813006434118e-01
         - -6.7898791255769153e-01
         - -3.0533697504212409e-01
         - -2.5928362599825572e-01
         - 2.1290376735688774e-01
         - -1.0449594915182686e-01
         - -2.8192115103569046e-02
         - 3.1459182671088237e-01
         - 7.3530228484731697e-01
         - -9.9945216607614087e-02
         - -7.0655333198666537e-01
         - -1.0777672749899203e-01
         - 3.6263186905116773e-03
         - -6.2006631416113911e-01
         - 5.2077325728938384e-01
         - 2.1174074649687882e-01
         - 8.2236928746405802e-01
         - 1.4619085594466516e-01
         - -3.5354811236494610e-01
         - 1.1775003526394524e-01
         - 3.3725231303000353e-01
         - 7.0381680617133735e-01
         - 1.0054518345890923e-01
         - 4.7222391958220933e-01
         - -1.5324140627764768e-01
         - 4.5533518889795177e-01
         - 9.9483514572233783e-02
         - 2.0281300334502353e-01
         - -1.9202225294471323e-01
         - -3.9678507815235908e-01
         - 1.9364419797260696e-01
         - 8.5047313919988751e-02
         - 5.8812280397044847e-01
         - 8.3422188472519554e-01
         - -2.4037377659530484e-01
         - -3.2348958799005734e-01
         - -3.3821849460488113e-01
         - 6.8746622012576253e-01
         - 4.8855644622998673e-01
         - 3.8995262430009614e-02
         - 1.4255978092821989e-01
         - -4.4609861042051979e-01
         - -3.2694836053169901e-01
         - -7.8650687219359405e-01
         - -2.4555709874460926e-01
         - 2.7887634983756304e-02
         - -3.0008363331128241e-01
         - -1.5154486285313271e-01
         - -1.8943116659800838e-01
         - -2.3583367671655719e-01
         - -5.8269496967627332e-01
         - 3.6982140680327402e-01
         - 2.1229579617396449e-01
         - 6.0867193907749986e-02
         - -4.5566242941779918e-02
         - 1.4450275268264076e-02
         - 3.8709832759552981e-01
         - 4.3136923530394067e-01
         - -4.1502367922934275e-01
         - -2.3658272888883577e-01
         - -3.0314989329267533e-01
         - 4.0312792912477989e-02
         - -3.5521552720558169e-01
         - 3.3755451696980754e-01
         - -6.3855354281086196e-01
         - -1.6217013509455661e-01
         - 6.1662585313779628e-01
         - 1.2771690842669034e-01
         - -2.4299413903367353e-01
         - 2.7985697904056339e-01
         - 5.5828387932132295e-01
         - -2.3925817554818166e-01
         - -3.2613170658772928e-01
         - 4.9274743519425795e-01
         - 8.0129235081366179e-01
         - -2.9470347571203886e-01
         - 5.2837164545016568e-01
         - 1.6194800388945860e-01
         - -1.0712102082309332e-02
         - 8.3943665011009749e-01
         - -2.4396691109204303e-02
         - 6.8343134463349720e-02
         - -1.4859569055717209e-01
         - 8.7913372650238811e-02
         - 5.2050459628858892e-01
         - -1.0012777473227766e-01
         - 1.4152747952127281e-01
         - -5.8388609691254562e-02
         - 8.2765356558087880e-02
         - 4.2448819230142082e-01
         - -1.2443646860507268e-01
         - -9.8591355136675385e-02
         - -4.0469399616941798e-01
         - -3.8165666944614296e-01
         - -3.0830901907330593e-01
         - 7.7194855161151354e-01
         - 3.3022867014030960e-01
         - 7.1013111362733028e-02
         - -3.8044611593261168e-01
         - 4.3619690277970913e-01
         - 1.2561480103061848e-01
         - -2.8308242675430745e-01
         - -4.5158325629825455e-02
         - -1.2078735293745041e-01
         - 3.3138495724956341e-01
         - -1.5398469700983777e-01
         - -2.4628980763280695e-01
         - 7.7435501352146918e-01
         - 3.6212859157762078e-01
         - -2.1470371868003030e-01
         - -3.0470486020249032e-01
         - -1.5406396415976031e-01
         - 6.0260386907222553e-02
         - -3.2580680103471660e-01
         - -8.7582294339898448e-02
         - -3.2903640931651074e-01
         - 2.4972700827778702e-01
         - 2.0570675536868963e-01
         - 1.6630706096589828e-02
         - 6.6337385145775352e-01
         - -3.9634752279609531e-01
         - 3.9830953412820475e-01
         - 3.8573861931535602e-01
         - 1.2461378370669410e-01
         - 4.6617865908190392e-01
         - -9.8404453611450490e-02
         - 1.4412198467532478e-01
         - 1.9559191483912197e-01
         - -3.9472244346756384e-02
         - -2.9834496014362694e-01
         - -6.5548819982449180e-01
         - -9.0123820688460476e-02
         - 4.2103434620982322e-01
         - 2.5235288229836755e-01
         - -3.2426004320085333e-01
         - -1.0089525710737945e-01
         - -3.8956923001265475e-01
         - 4.8731063971847538e-01
         - -6.2157212026351250e-01
         - -1.9068667980316761e-01
         - 1.4910060619546625e-01
         - -6.3273722108083674e-01
         - -7.5978969205684227e-02
         - -2.4414917825222146e-01
         - -1.3277250991605657e-01
         - 8.8441871967908245e-02
         - -5.0120031942971377e-01
         - -4.6746361332465192e-01
         - 4.0641649492779552e-01
         - -4.7057398151657864e-01
         - -3.5111152389007208e-02
         - 4.8766374888628294e-01
         - 4.6571041430741872e-01
         - 4.7685867222153906e-02
         - -3.4906520434306310e-01
         - -2.4996978607915327e-01
         - 2.5298901659775863e-01
         - 3.0523816683727850e-01
         - -2.3549095995168587e-01
         - -5.1520368954394311e-02
         - -4.2301523933914142e-01
         - -9.0862649358833078e-02
         - -4.4186309197258633e-01
         - 2.6101563366684299e-01
         - 5.0007898098823622e-01
         - 2.0838902760699024e-01
         - -5.9151364758664338e-01
         - -7.1180782473019921e-01
         - -1.4607720688781700e-01
         - 2.5794087284667289e-01
         - 1.9322987764988798e-02
         - -3.4706163949564628e-01
         - 1.5838455966341508e-01
         - 3.8804222039786890e-01
         - 3.2693728439586778e-01
         - -2.3859857742376994e-01
         - 4.4130757181067165e-01
         - 6.8674495363823573e-01
         - 2.4178923143344985e-01
         - 1.4353792122584511e-01
         - 6.7412310098841510e-01
         - 1.6762487359514414e-01
         - -3.2127006998844015e-01
         - -3.0718057292626938e-01
         - -3.8753320239388206e-01
         - -3.1074619643674817e-01
         - -5.4739392700976774e-01
         - 3.5940378716593863e-01
         - 4.1104042799608737e-01
         - 4.7109995346509881e-01
         - 8.3360844945465817e-01
         - -6.7366599615450873e-01
         - -1.0288447960872551e+00
         - 7.8386139744559624e-01
         - -3.6301557782777305e-01
         - -7.9202791660666350e-01
         - 9.1855241565745327e-01
         - 9.3162499774486141e-01
         - -7.5228734358094984e-01
         - 5.7957416901753572e-02
         - 4.6067083627470912e-01
         - 2.8952752637110579e-01
         - 1.0347759862651931e+00
         - -6.7527298589167950e-01
         - 8.9017191059422274e-01
         - 2.4250707877393313e-01
         - 4.5611335493846183e-01
         - 8.4679910301411154e-01
         - 7.0305265870611122e-01
         - 7.2842555757592897e-01
         - 6.8391616009983436e-01
         - 5.0500104995253103e-01
         - 7.3599864948884791e-02
         - -1.1365141786396842e+00
         - 1.2687114031584164e+00
         - 2.9693559326164481e-01
         - 4.8986166219862781e-01
         - 5.0720268042061117e-03
         - -5.7467753608308658e-01
         - -2.2589947438075705e-01
         - -9.4278975367862738e-01
         - 5.6212703251582152e-01
         - -2.5758584865138501e-01
         - 5.3701354103584154e-01
         - -9.3606621938804679e-01
         - 1.1449561969871946e+00
         - 3.9788209167125238e-01
         - -2.2763757911525476e-01
         - -3.4613892950825370e-01
         - -1.1394430290046398e+00
         - 8.9639161011474489e-01
         - 1.2298806240501650e+00
         - 7.0230583368204369e-01
         - 7.4249489869053908e-01
         - -9.8575870653188469e-01
         - -6.4828086009493080e-01
         - -1.1712491775465206e+00
         - 6.3665774321133028e-01
         - -1.0135941995239619e+00
         - 7.9647609388876350e-01
         - -2.4229518883541321e-01
         - 6.0861745552938074e-01
         - -1.0932637529519739e-03
         - -7.0232754807091968e-01
         - 1.9711401964192649e-01
         - -3.1150650349017822e-01
         - 9.1723149171262675e-01
         - 3.0916333701824628e-01
         - -1.4190906660157634e-01
         - 3.2845576351373290e-01
         - -1.1916985894462617e+00
         - -2.7823114555590828e-01
         - 9.2658805638939390e-01
         - 1.1348833674384167e+00
         - 1.9994663296016169e-01
         - 3.6876020013429422e-01
         - 4.1925207963697103e-01
         - 6.3691891937177647e-01
         - -1.2334751575989138e+00
         - -8.7466485484060871e-02
         - 3.3328434113938599e-01
         - 4.4650728194620737e-01
         - 2.7719317544204319e-01
         - -1.5761492431643337e-01
         - -8.9158976059929651e-01
         - -3.8249172203905363e-01
         - -7.7510133228957623e-01
         - 9.8024110844881351e-01
         - 1.6910723548106546e-01
         - 4.3385808701640893e-01
         - 1.1040099623425363e+00
         - -1.0441080550601878e+00
         - 9.3871142269093388e-01
         - 1.2077999108411654e+00
         - 7.8017537541685222e-01
         - -3.1310388795771632e-01
         - 1.1672932378584748e+00
         - -1.5327132653280945e-01
         - -7.4778163663385377e-01
         - 9.5804820321655493e-01
         - 5.4590751949822536e-01
         - 9.4476600898573337e-01
         - -1.1300829786482507e+00
         - 2.5081704371481539e-01
         - 6.8012217699489308e-01
         - 1.6023171651535184e-01
         - 4.4782256037680990e-01
         - -3.2689580297037485e-01
         - 7.0073218792922598e-01
         - -7.9931744071058075e-01
         - 4.8381517052463366e-02
         - -7.5730887407547032e-01
         - -8.1451194480716649e-01
         - 2.8108597860618950e-01
         - -8.4164008591333350e-01
         - -1.1082916945368416e-01
         - 8.1450252727169214e-01
         - 9.4127218963119463e-01
         - -9.2663553547014743e-01
         - 8.9144774152886619e-01
         - 6.1961665584891679e-01
         - -3.4391183902819905e-01
         - 7.7285944040463783e-01
         - -7.2177770585956302e-01
         - 8.3207333205515799e-01
         - 2.8608351778249319e-01
         - 7.1190654133278264e-01
         - 8.8768999334244558e-01
         - 6.4236809738866696e-01
         - 5.6124066388921101e-01
         - -5.0453706032675649e-01
         - 7.4790244583833954e-01
         - 4.0785670383705053e-01
         - -7.7440267099454330e-01
         - 7.3847961878993174e-01
         - 6.5379345159600188e-01
         - 6.0330679015980004e-01
         - 6.4566650354588861e-01
         - -6.1619205795830378e-01
         - -3.6969380981031766e-02
         - -7.3620831452077640e-01
         - 8.0885778386802187e-01
         - 8.5731309162730918e-02
         - 4.3928750702659036e-01
         - -4.0289714662771120e-01
         - 7.1117726917064417e-01
         - 8.2102311373440484e-01
         - -3.2258158600706405e-01
         - -6.2559067831684112e-01
         - -6.8286393069295381e-01
         - 7.0272283560262838e-01
         - 5.0613605673687012e-01
         - 4.8074871167593319e-01
         - 5.7042824942928305e-01
         - -6.3932093479371943e-01
         - -7.7168032055516822e-01
         - -6.9145211445711396e-01
         - 8.1178284229793773e-01
         - -6.0779778421642250e-01
         - 6.2711598604111840e-01
         - -8.9990922417861760e-02
         - -5.4686348125951256e-01
         - -3.3654964469623155e-01
         - -6.1811928629288848e-01
         - 2.0014688248328485e-01
         - -7.5152311553483875e-01
         - -3.7496499630295876e-01
         - 3.9506487978995856e-02
         - -7.0909248048357632e-02
         - -1.5209559877395115e-01
         - -7.1802372080191879e-01
         - -1.2584127023481026e-01
         - 7.2134893790700794e-01
         - 7.3047601518905003e-01
         - 4.2830729586712224e-01
         - 5.9183677040781590e-01
         - 7.0031742299292532e-01
         - 6.9117987177949958e-01
         - -6.8748186795673449e-01
         - -5.5353715398569636e-01
         - 4.2992734718984815e-01
         - 6.3402215999011535e-01
         - 3.8712997230558521e-01
         - -3.2683951655984769e-02
         - -6.4557932700662735e-01
         - -3.9775599253031041e-01
         - -6.8840745346907040e-01
         - 5.1109739269022604e-02
         - 1.4809923796921376e-01
         - 7.2312496429244688e-01
         - 7.4763429155067829e-01
         - -6.6004521910253255e-01
         - 8.2031191905721679e-01
         - 7.8506558118461511e-01
         - 6.6837527750605974e-01
         - -6.0727523583831955e-01
         - 7.1321829186033248e-01
         - -2.6671910461345157e-02
         - -7.0758147408320082e-01
         - 5.1574590218768435e-01
         - 7.1950950032324579e-01
         - 8.9574764369621152e-01
         - -6.3578656185736493e-01
         - 4.7439686696007144e-01
         - 7.3606114508783771e-01
         - -3.8573697247020772e-01
         - 5.2475964531564467e-01
         - -5.0001269438943363e-01
         - 8.1169787141332816e-01
         - 3.3411048508464736e-01
         - 3.1609710545469000e-01
         - -4.3640317876894896e-01
         - -6.8455450967237130e-01
         - 2.9054333204522176e-01
         - -1.9325282597749938e-01
         - -1.3229113507454382e-01
         - 5.6801944023709228e-01
         - 7.1608755964819082e-01
         - -6.9074655316254008e-01
         - 2.6280664627702804e-01
         - 5.7340047392567139e-01
         - -3.0861359711309572e-01
         - 5.0136509066420998e-01
         - -7.5673788842429446e-01
         - 7.2631801393611539e-01
         - 5.6518358985420514e-01
         - 3.1816503262562024e-01
         - 6.6252971845925768e-01
         - 3.5455561603728780e-01
         - 6.0478409228280350e-01
         - -4.7819153786451091e-01
         - 4.5144360258075411e-01
         - -2.6680343651817739e-01
         - -7.4549158783420710e-01
         - 4.1533107931272428e-01
         - 2.5339919149719164e-01
         - -1.1681949121906039e-01
         - -3.2358928596099334e-01
         - -5.0679438715748104e-01
         - -9.9922499250186994e-02
         - -7.1468893639254405e-01
         - -5.7243656060181947e-02
         - -3.2856211338482814e-02
         - 6.3781403428468175e-01
         - -1.7415833258757979e-01
         - 6.0261402896690697e-01
         - 3.4594665461753110e-01
         - -4.8705664654471581e-01
         - -5.2066286321941524e-01
         - -6.8441188609232773e-01
         - 2.6005793102794866e-01
         - 5.6443062840359293e-01
         - 4.9869193516222821e-01
         - 4.6807885368229535e-01
         - -5.4159998605650905e-01
         - -4.0614227673890435e-01
         - -6.8183832348338413e-01
         - 2.0545713870044055e-01
         - -5.8665826778944186e-01
         - 5.3375798329733037e-01
         - -4.8151485012220341e-01
         - -5.0294994812990468e-01
         - 3.9084159446219274e-01
         - -5.6657568638618594e-01
         - 4.7666666047617445e-01
         - -4.0070037163048339e-01
         - -7.2015409373042361e-01
         - 3.1578266408981742e-01
         - 2.0595692467626062e-02
         - 4.9097034112073040e-01
         - -4.4752607564245322e-01
         - -5.9742389946776830e-01
         - 5.7017954419923411e-01
         - 6.1165944889550317e-01
         - 2.9163673027065740e-01
         - 3.6901314833942128e-01
         - 2.2319372855494535e-01
         - 5.3818860808775781e-01
         - -6.2073693765579341e-01
         - 3.0312747938905538e-01
         - 4.5557947966417262e-01
         - 4.1808363884758770e-01
         - 4.0152253308673802e-01
         - -4.9837326977717139e-01
         - -4.6812724562431135e-01
         - -1.2498767207762825e-01
         - -7.6389871088365102e-01
         - 6.9338644877802169e-02
         - 4.6577803252645855e-01
         - 4.2843323244298676e-01
         - 6.2700003286001982e-01
         - -6.9895621272699560e-01
         - 5.6598700853714712e-01
         - 7.4264764967230046e-01
         - 3.8090320235065944e-01
         - 3.0420526486702187e-01
         - 9.1434807920147876e-01
         - -2.6331162407651224e-02
         - -6.5469689774783535e-01
         - 3.3962956625228236e-01
         - 5.6872788832402565e-01
         - 7.6201862947476595e-01
         - -6.7061569081522598e-01
         - 2.1396475888431002e-01
         - 4.5933215514580555e-01
         - 3.3662861202138561e-01
         - -8.3675408153267558e-02
         - -3.1923278360920032e-01
         - 8.5572607497731679e-01
         - 6.9417781859929240e-01
         - 7.5614573656794970e-02
         - -1.0784870673669465e-01
         - -8.5164560066907002e-01
         - 3.5518266093002582e-01
         - -5.2820765322305993e-02
         - -3.4647374623223037e-01
         - 5.3265200616605102e-01
         - 8.4181045082924089e-01
         - -1.1707111442139666e+00
         - 1.5503052986775654e+00
         - 7.7069807108682897e-01
         - -1.4195790973145670e+00
         - 8.0748299004339563e-01
         - -2.6723176287242684e-01
         - 1.0121216089975691e+00
         - 8.8606505971496197e-01
         - 4.2128822006619476e-01
         - 9.9631148742713360e-01
         - 1.2918620867127983e-01
         - 5.2269411667087018e-01
         - -1.3325558428439233e+00
         - 7.2112725600592820e-01
         - -4.8458284568621335e-01
         - -8.4624130719816604e-01
         - 5.4368669676692238e-01
         - 3.3868286944983783e-01
         - -2.5333961051394169e-02
         - -3.7829790065313790e-01
         - -2.6344139830346763e-01
         - -2.0895217203017558e-01
         - -8.4489940328726809e-01
         - -1.0586920404642837e-01
         - -3.7025029845927065e-01
         - 2.9727850654653593e-01
         - -3.2872067005537753e-01
         - 8.3888290832848267e-01
         - 6.6741581674561290e-01
         - -8.0569882634268108e-01
         - -7.8770998350966392e-01
         - -9.0978442906040569e-01
         - 4.7859702455221795e-02
         - 7.4417917420938762e-01
         - 3.2432149795012161e-01
         - 2.4735654144401567e-01
         - -8.4658726913549964e-01
         - -7.7990652817123085e-01
         - -1.0504622549776075e+00
         - 1.4417845218668235e-01
         - -1.0453098915610313e+00
         - 3.8093720689793809e-01
         - -8.6555487256209618e-01
         - -8.6838017445562821e-01
         - 6.1836442246892553e-01
         - -1.2789130886660971e-01
         - 6.3859738723218107e-01
         - -4.7319622137388456e-01
         - -1.3454932728680518e+00
         - 5.7095253904473586e-01
         - -9.9944420927793515e-02
         - 4.8882521465331563e-01
         - -5.1742707684211853e-01
         - -7.8806474331065257e-01
         - 8.2990441957253569e-01
         - 9.6448790020012154e-01
         - 4.8737048616604212e-01
         - 7.6288775417765409e-01
         - 3.9803167867887297e-02
         - 1.2945874367744642e-01
         - -8.0959171018055043e-01
         - 4.2423786265107899e-01
         - 6.9653192965156685e-01
         - 6.7690653310667104e-01
         - 5.9321220761426507e-01
         - -1.0077669127756295e+00
         - -8.5393885984819659e-02
         - -1.3379488503288514e-01
         - -1.3418415229673828e+00
         - -6.7140134119788841e-01
         - 9.2132162313642574e-01
         - 6.7631275468691421e-01
         - 9.0452619287626990e-01
         - -7.4188781337402387e-01
         - 7.3647855120742201e-01
         - 8.8240885694036808e-01
         - 2.1913406883727787e-01
         - 2.9809124938961368e-01
         - 7.7069555234537956e-01
         - -3.5001543864875577e-02
         - -4.4932517749186229e-01
         - 3.5717561278267151e-01
         - 1.1600072319948542e+00
         - 1.0273759497114014e+00
         - -1.0536171793528415e+00
         - 5.0051149892751690e-01
         - -1.0142633991058210e-01
         - 4.6926722401193116e-01
         - 3.1080830013395691e-02
         - -4.3703042591396563e-01
         - 9.5769476610863491e-01
         - 8.1599029284271352e-01
         - 2.5355598989177891e-01
         - 8.4116820190965780e-01
         - -7.7355860239352858e-01
         - 3.9424540839391931e-01
         - 7.4388098977684269e-01
         - -6.6374136548908536e-01
         - 8.9310331190324554e-01
         - 6.9731574281711706e-01
         - -7.4332727345948590e-01
         - -3.3180593836222641e-02
         - 1.0656033374789871e+00
         - -1.8833295104500564e-01
         - 7.3360497905467315e-01
         - -2.6269851436895719e-01
         - 7.3441920377149217e-01
         - 1.0495308581072194e+00
         - 9.8294284898998396e-01
         - -9.2996652717530756e-02
         - -3.7095012781911230e-01
         - 5.2448020966303677e-01
         - -5.2002673053718351e-01
         - 1.0687199391493070e+00
         - -1.0099676676909741e+00
         - -8.1811504978175498e-01
         - 9.1435596027267463e-01
         - 1.0124614706127990e+00
         - -9.3730768273609699e-01
         - -1.1469662073517588e+00
         - 1.1395145054814400e-01
         - -1.1513322113712721e+00
         - -3.1460478678896520e-01
         - -9.9275992790451684e-01
         - -1.0991801201554041e+00
         - 2.2374013710562546e-01
         - -6.3948977235313309e-01
         - 1.0796710599874504e+00
         - 1.0596151535820526e+00
         - -1.1770028512017279e+00
         - -1.0934264424821085e+00
         - -9.3832597928653616e-01
         - 1.7351513320065318e-01
         - 1.0221512920142806e+00
         - 5.5070730030016390e-02
         - -5.0860239575957300e-01
         - -9.4132057163375560e-01
         - -8.0981340028831839e-01
         - -9.0471508882629093e-01
         - -7.5908765142715795e-01
         - -4.3002046693434232e-01
         - 4.9973527997005374e-01
         - -1.0922915721667417e+00
         - -1.2462663090495565e-02
         - 1.0800787869362591e+00
         - 2.7946562992969343e-01
         - 1.1950870017063093e+00
         - -9.1761836979905753e-01
         - -5.3812459924439415e-01
         - 1.3145283876283245e+00
         - -9.4788387786008421e-01
         - 1.2873100424229706e+00
         - -9.6364976356932297e-01
         - -1.1902852168517541e+00
         - 5.5509147154426586e-01
         - 8.9306441340173404e-01
         - 1.2791088328812688e+00
         - 1.2501824808305599e+00
         - -7.5385593653467375e-01
         - -2.9481166898621547e-01
         - -7.9239747970154939e-01
         - 1.0894440179089000e+00
         - 1.3524774405044506e+00
         - 1.0730671389837119e+00
         - 1.2778057256971747e+00
         - -1.2259534585858720e+00
         - 5.2479839045322357e-02
         - -8.1621372768438405e-01
         - -1.8487700630244225e-01
         - 5.7679484328164166e-01
         - 1.3257921796621903e+00
         - 8.7191611894978294e-01
         - 1.0365961437220093e+00
         - -9.3802364642778813e-01
         - 6.5311275396775814e-01
         - 7.7706888349569081e-01
         - -6.0244807218896812e-01
         - 1.0338203439319593e+00
         - 8.3167715160280342e-01
         - -1.1224815908981987e+00
         - -5.6701165426073097e-01
         - 9.0372456446753180e-01
         - 9.2863364198938744e-02
         - 7.1038019757619753e-01
         - -9.4148595699907700e-01
         - 1.0997472458722706e+00
         - -1.1841291571195513e-01
         - 1.3941931903220974e+00
         - 8.1066142156627607e-01
         - -1.2415284175859431e+00
         - 7.8312385774950377e-01
         - 8.0646353761733916e-02
         - -9.8163828267537878e-01
         - 4.5506019575985862e-01
         - -6.3460175433851396e-01
         - -4.4123808547474119e-01
         - 2.8706307400764175e-01
         - 5.3493996175567260e-01
         - 4.9156832339641482e-01
         - -4.0496190513701118e-02
         - -4.3253494823113414e-01
         - 5.1665821927200595e-01
         - 4.2278037808665619e-01
         - -5.2236491581001321e-01
         - 2.7364129649407437e-01
         - 5.5068588726328915e-01
         - 6.4435365648665610e-01
         - 5.4787409196518844e-01
         - 5.2426560058453608e-01
         - 1.7339864083512085e-01
         - -3.5575448615662442e-01
         - -4.6462264426860916e-01
         - -5.5338151487199405e-01
         - 5.3341388327288519e-01
         - -3.9165281334653024e-01
         - -7.1178191428406423e-01
         - 2.4082002136773165e-01
         - 4.2708393421125912e-01
         - -2.6202133032506764e-01
         - -1.6937884600490777e-01
         - 5.0805655276310313e-01
         - -3.1446904524686264e-01
         - -4.7403589780975769e-01
         - -3.0514613316019468e-01
         - -3.6738481891553415e-01
         - -5.6844898157746160e-01
         - 5.3318902466227514e-01
         - 2.4140420802341372e-01
         - 5.2224168164785034e-01
         - -4.0599460165676693e-01
         - -4.8319312649005819e-01
         - -4.4780365094359331e-01
         - -7.6009485885826078e-01
         - 2.2587608028753001e-01
         - -3.7071810753103973e-01
         - -6.7797438486986439e-01
         - -1.4696716060077114e-01
         - -5.8911135328185504e-01
         - -4.2083297812003168e-01
         - -2.7538462529372532e-01
         - -1.1940514037584944e-01
         - -4.7081150915538911e-01
         - -4.4011900174561874e-01
         - -7.5602482413049810e-01
         - 2.4042717803203054e-01
         - 7.2716123312422054e-01
         - 4.8601569646419246e-01
         - -5.7320594684989756e-01
         - -7.4884848221177736e-01
         - 4.2735931133927840e-01
         - -3.0590089713856305e-01
         - 3.3604504816236547e-01
         - -4.3704331166996646e-01
         - -5.0780707010484505e-01
         - 5.9503090518390633e-01
         - 1.8995264696431974e-01
         - 3.7949761774999058e-01
         - 4.0637360940277367e-01
         - -3.1372341334075526e-01
         - -4.7024829666394558e-01
         - -5.4588426579765426e-01
         - 2.3789447768554872e-01
         - 3.6683669932139218e-01
         - 4.3353085041308703e-01
         - 3.6369618506454848e-01
         - -4.0859457539949628e-01
         - 6.7512051967906672e-01
         - -4.4026774396372337e-01
         - -3.9590380389592467e-01
         - 1.4933573101996231e-01
         - 4.2963550955516699e-01
         - 6.6889170842450740e-01
         - 3.0668946831093408e-01
         - -2.4588976158963316e-01
         - 1.2380334540454609e-01
         - 4.2729831711571437e-01
         - -4.2785885413541780e-01
         - 2.2494168570583387e-01
         - 6.6455159345465764e-01
         - -4.2141143354502064e-01
         - 3.5630790808085089e-01
         - 5.3448533023799105e-01
         - 2.7630462266286532e-01
         - 4.7084865930544445e-01
         - -3.2526685740962502e-01
         - 3.8921109269486009e-01
         - -5.6967855497437192e-01
         - 3.2149843367640724e-01
         - 3.2210110405866399e-01
         - -3.4723501377935673e-01
         - 6.4157195265019373e-01
         - 5.7800101850204133e-01
         - -3.9919733978485716e-01
         - 1.1830943440861335e+00
         - -1.3335340812347873e-01
         - -5.5929056302856839e-01
         - 1.0349683022968379e+00
         - 4.7487648168078744e-01
         - 2.5968584624005323e-02
         - -3.2868200157739080e-01
         - -1.1183019901240199e-01
         - -2.8964530480899500e-02
         - 4.7777885838163114e-01
         - -2.7580174827791220e-02
         - -3.1061673351740349e-01
         - 5.6816641548909352e-01
         - 1.0265271869190542e-02
         - 8.6767891506108497e-01
         - 4.2449578939830218e-01
         - -1.0262205488001025e-01
         - -8.7281667474387081e-01
         - -5.5868713312641782e-01
         - -2.4578532679470017e-01
         - 4.3207324804153469e-01
         - -1.1044880015965637e+00
         - -1.4314712602216398e-01
         - -4.6507307073563861e-02
         - 5.4522597198198275e-01
         - -1.3520084122734564e+00
         - -1.1209221227873869e+00
         - 9.8778972591040382e-01
         - -9.1855941203339830e-01
         - 2.7898137823445479e-01
         - -1.3643984473492636e+00
         - -7.8645040562477120e-01
         - -8.2269685936058823e-01
         - 5.7733041243836580e-01
         - 1.2474339326671623e-02
         - 4.3372675704793284e-01
         - -7.8594025414185342e-01
         - -4.7081245342540806e-01
         - -6.5748523859351482e-02
         - -1.1056042925829899e+00
         - -1.9779315781089282e-01
         - -6.8208162478048706e-01
         - -1.0610286330791936e+00
         - -3.4312251626667054e-02
         - -1.8726184853476743e-01
         - -1.6071782058753772e-01
         - -1.2576644901940512e+00
         - 3.1937318921399210e-01
         - -5.3226198380962608e-01
         - -9.1645544154670155e-01
         - -2.6292143941663782e-02
         - 1.1965910476328259e+00
         - 1.0546209165844651e+00
         - 9.7998205952944539e-01
         - -4.3340642026227538e-01
         - -6.9297186515521170e-01
         - 1.1209772848528252e+00
         - -7.7162025148338664e-01
         - 1.1377529576245251e+00
         - 1.2768736753543145e-01
         - -9.0159553671180792e-01
         - 1.3178358743050325e-01
         - 1.2785591885794839e-01
         - 8.5801358471269051e-01
         - 8.1889192108324282e-01
         - -1.0233797075839213e+00
         - -1.0318101018782579e+00
         - -1.0710425324090000e-01
         - 1.3025576833227577e+00
         - 9.9162048591336271e-01
         - 5.5509422254453089e-01
         - 9.5625120802720509e-01
         - -9.6439184720178150e-01
         - 1.2612835130126596e+00
         - -3.8106802852351623e-01
         - 3.9722853587269408e-01
         - -1.4654848640311940e-01
         - 1.0617182733766988e+00
         - 2.7265760568918329e-01
         - 2.6704007217381084e-02
         - -2.4736429997189422e-02
         - -3.6879525458189666e-01
         - 5.5645013147639463e-02
         - -1.0211271885641811e+00
         - 1.2092025840928877e+00
         - 2.1407280809210058e-01
         - -7.1509252355189468e-01
         - 5.8431005274481540e-01
         - 1.3827106275683190e-02
         - -5.6567231956530373e-01
         - -5.3338083367574098e-02
         - -1.3442206577016066e-01
         - 7.0380165203700606e-01
         - -1.2644687124485836e+00
         - 1.1862546681985802e+00
         - 4.2305432281931182e-01
         - -8.2545528752646891e-01
         - -6.5207867121187202e-02
         - 3.2173962026825975e-01
         - -7.0714889796216651e-01
         - 1.5879873133989024e+00
         - 2.4182129657877516e-01
         - -1.3496868883228883e+00
         - 1.0457420059210334e+00
         - 1.4955443084219548e+00
         - -1.8794128187505227e-01
         - -1.4151381363483175e+00
         - 4.5232458682329135e-01
         - -8.8504860047433775e-01
         - 2.2909519687014823e-01
         - 5.7560198313621713e-01
         - -1.3902484173460385e+00
         - 1.4651523483099840e+00
         - -1.3853577597760763e-03
         - 3.5985577345525044e-01
         - 1.1788510507914451e-01
         - -1.1188653289744870e+00
         - -1.5600234696390667e+00
         - -1.6812650475951392e+00
         - 2.7717970199684627e-01
         - 3.2239609197577773e-01
         - -4.9684384691201083e-01
         - 1.3305270728243906e-01
         - -3.2715025406918330e-01
         - 1.5080922253191625e-01
         - -1.1103742978336202e+00
         - -7.8449935427690320e-01
         - 1.6674454250793098e+00
         - -5.3220479698917278e-01
         - 5.7332599155966324e-01
         - -1.3214939997568551e+00
         - -7.0659791298059282e-01
         - -2.2404290524635337e+00
         - 1.3545899011373361e+00
         - -6.9223742941574484e-01
         - 3.1267562992330439e-01
         - -5.5104902858724458e-01
         - -2.1009490945661372e-01
         - 4.2018298122369058e-01
         - -1.1913777619908197e+00
         - -1.1445819782625493e+00
         - -1.6196290637546453e+00
         - -1.6148954508323801e+00
         - 7.1440706318247282e-01
         - 2.8965926708030464e-02
         - 6.3414046372399258e-01
         - -1.3771874911932465e+00
         - 1.0713843656577544e+00
         - -1.6095471861283566e+00
         - -3.9504365478450498e-01
         - 3.1403376437962510e-02
         - 5.1754263234378539e-01
         - 2.0221563471595401e+00
         - 6.3409730621363825e-01
         - -3.0106597845969396e-01
         - 1.7717642324425305e-02
         - 6.8594100589738627e-01
         - -6.6800407565924891e-01
         - 7.1252580827923206e-01
         - 2.6549145363743631e-01
         - -6.0333230419945805e-01
         - -1.9258354276711992e-01
         - -8.9286304429047803e-01
         - 5.1651190291189408e-01
         - 2.9856037760823295e-01
         - -1.0427727288102613e+00
         - -1.4823194675998201e+00
         - 4.6245904621247153e-01
         - 7.0171977969696353e-01
         - 5.8204911561659867e-01
         - 4.8977842720702852e-01
         - 5.3417046344125618e-01
         - -4.9733396851608319e-01
         - 1.4784375501614802e+00
         - -5.2146645603790120e-01
         - 7.8022541149955993e-01
         - 2.7521052505992566e-01
         - 5.6330505169897505e-01
         - 3.2834290536674543e-01
         - -4.9271906082379369e-01
         - 6.5586525461264877e-01
         - -1.2140919153865901e+00
         - -2.9760898600740210e-01
         - -1.6046236342036537e+00
         - 8.6643430664941756e-01
         - -3.8749645415409767e-01
         - -4.8025234341923062e-01
         - 1.8099262026333935e+00
         - -7.5849398590629807e-02
         - -7.9224144207787783e-01
         - -4.8877460301105546e-01
         - 8.7224588473326303e-01
         - 3.7293660488238545e-01
         - -1.3492025212445704e+00
         - 7.8424716953276397e-01
         - 1.6707188308266566e-01
         - -4.6731843070263551e-01
         - -1.7292415634929126e-01
         - 3.1071543326348089e-01
         - -6.5556249407121736e-01
         - 1.5923070817699501e+00
         - 6.0133187998557491e-01
         - -1.9655269656323351e+00
         - 1.3751613385125023e+00
         - 1.9897190630351926e+00
         - -6.9009870519973293e-01
         - -1.7169767576369219e+00
         - 3.8608172490084486e-01
         - -2.3467071729551977e-02
         - 3.8677525320181527e-01
         - -3.3730494589941741e-02
         - -1.6341886922525044e+00
         - 1.6351562888895541e+00
         - -3.6769917650231004e-01
         - 7.3119308767522329e-01
         - 3.6163147176754096e-01
         - -1.0450058108414266e+00
         - -1.6012995402407606e+00
         - -1.9266985294621557e+00
         - -3.2815043877049060e-01
         - 4.0913731771500295e-01
         - -9.5488771590592736e-01
         - 5.7018135150650529e-01
         - -8.1659612697683792e-01
         - 4.4421442033251063e-01
         - -1.4138672539251114e+00
         - -1.0508356235594678e+00
         - 1.7416053901546451e+00
         - -7.4448639784688286e-01
         - 8.9046569302028844e-01
         - -1.4638054021596780e+00
         - -7.2432331083291901e-01
         - -1.9951236381839383e+00
         - 1.8916936748633260e+00
         - -1.1013550511622461e+00
         - 1.9355957740619376e-01
         - -5.7907338970532463e-01
         - -1.9707482390341072e-01
         - 7.8724046925779179e-01
         - -1.6290879712078619e+00
         - -1.4467611543662253e+00
         - -1.6489589765177148e+00
         - -1.8249897527543140e+00
         - 1.2002180144198054e+00
         - 4.0110717135334109e-02
         - 1.0204792915522605e+00
         - -1.3753290616295757e+00
         - 1.2256411675125014e+00
         - -1.6941624179527830e+00
         - -6.7299867044860373e-01
         - -4.1480160974160707e-01
         - 1.0424233317303311e+00
         - 1.8349470009072593e+00
         - 8.0951918736061967e-01
         - -3.5607309169905599e-01
         - -5.7416800609676955e-01
         - 9.4200032166258041e-01
         - -6.7197673510141509e-01
         - 9.1989955108693866e-01
         - 4.9766495097530927e-01
         - -8.3634302238951808e-01
         - -6.1792785855077703e-01
         - -1.2229811772727597e+00
         - 5.4176325825431815e-01
         - 5.8319742801430008e-01
         - -1.2043297412120320e+00
         - -1.4989790984647087e+00
         - 8.3467214934123013e-01
         - 1.0874734308325762e+00
         - 8.7546114932210906e-01
         - 3.4273939787140256e-01
         - 8.4850410304634705e-01
         - -7.2090014447793760e-01
         - 1.9162618385783616e+00
         - -4.0461177847342727e-01
         - 6.4083189190546153e-01
         - -1.3807826044517457e-01
         - 9.3569320769966879e-01
         - 1.1367410174550306e-01
         - -1.0684230271875264e+00
         - 9.2402306098520604e-01
         - -1.5465515681888136e+00
         - -5.9102224070072207e-01
         - -1.5944589385898176e+00
         - 1.2618392660776854e+00
         - -6.3825018076247386e-01
         - -6.8375961785654338e-01
         - 1.8735365555055141e+00
         - -4.4048279850275934e-01
         - -2.0985953250063941e-01
         - -7.1680155882264740e-01
         - 1.0690851489059590e+00
         - 4.2803553794982102e-01
         - -1.7020898218183911e+00
         - 9.5075159623838290e-01
         - 5.0255598915738275e-01
         - -5.5653174872992006e-01
         - -2.4218846046936185e-01
         - 6.1550228578908306e-01
         - -6.7693601143923687e-01
         - 1.9655058068132156e+00
         - 5.4270614889987800e-01
         - -1.3882391963909650e+00
         - 1.5478087445761579e+00
         - 1.3115851240770813e+00
         - -7.7037708860230558e-01
         - -1.6135728992973208e+00
         - 1.7603407224042558e-01
         - 3.7107996491783973e-01
         - 2.5402333515113440e-01
         - -4.3580352951562928e-01
         - -1.3315967024550226e+00
         - 1.5791188958141034e+00
         - -5.4097968882049582e-02
         - 5.7729222489665233e-01
         - 2.4328550901992582e-01
         - -1.4046863664224589e+00
         - -1.7200479195186646e+00
         - -1.4726959388122702e+00
         - -5.9954209814059933e-01
         - 1.4624459950045993e-01
         - -1.1822913416354446e+00
         - 4.6909689865386500e-01
         - -7.2141621379843612e-01
         - 2.9725381731628731e-01
         - -1.8025451711109828e+00
         - -1.2138508524002116e+00
         - 1.6784525083939859e+00
         - -6.0868297283275719e-01
         - 7.4599930534754966e-01
         - -1.9929316990624952e+00
         - -3.0672714745230428e-01
         - -1.8002090452825483e+00
         - 1.5062759652865838e+00
         - -9.6035038332526435e-01
         - 8.5821005327260474e-02
         - -4.7285619812783047e-01
         - -2.5653540374465555e-01
         - 7.1573043626422217e-01
         - -1.4546128727227909e+00
         - -1.2526723493222804e+00
         - -1.4585561430402070e+00
         - -1.9184829735639040e+00
         - 9.7118502302931742e-01
         - -7.5843050026902656e-02
         - 7.3135819545361136e-01
         - -1.9552456305012187e+00
         - 1.2925686245235433e+00
         - -1.6058754880843253e+00
         - -5.6311927596946754e-01
         - -3.0879104877099295e-01
         - 1.2413665402939247e+00
         - 1.9409209452517899e+00
         - 3.8252277255763240e-01
         - -2.1895928294755987e-01
         - -8.8588133954069714e-01
         - 6.3313998488185963e-01
         - -3.0174758311849958e-01
         - 8.1906308037786391e-01
         - 4.7051860884044139e-01
         - -7.1656605909537097e-01
         - -4.7781104459057522e-01
         - -1.1862353933961347e+00
         - 5.0241259714048847e-01
         - 5.4683992860415687e-01
         - -1.6424008587698871e+00
         - -1.5551087357781139e+00
         - 7.3861248457156259e-01
         - 1.5075850319564448e+00
         - 6.1850357450718441e-01
         - 2.4824908008335692e-01
         - 5.5645764077637849e-01
         - -7.4909329726730456e-01
         - 1.7871824301815684e+00
         - 5.8139878451124824e-02
         - 6.6668384400646996e-01
         - -4.1204263527510721e-01
         - 7.4862518707070957e-01
         - 9.4983916435312163e-02
         - -9.5080175079968066e-01
         - 8.0748337897826561e-01
         - -1.4594916861650453e+00
         - -3.4498733822282496e-01
         - -1.7770287226972694e+00
         - 1.6633620300889480e+00
         - -6.1820699934532364e-01
         - -3.5192088143400563e-01
         - 1.4714716985752656e+00
         - -4.7252535458801187e-01
         - 1.1821176866078559e-01
         - -5.7388650213852466e-01
         - 9.4530627645447540e-01
         - 3.5882923362725522e-01
         - -1.7115892917413964e+00
         - 9.1881937640552791e-01
         - 2.8765081907711591e-02
         - -5.3495549875980730e-01
         - -7.2336621875451659e-02
         - 4.1496153712608363e-01
         - -3.8583207544556447e-01
         - 4.0752818448085226e-01
         - 1.2172715218865426e+00
         - -6.3063205603516448e-01
         - 5.6973519977446696e-01
         - 7.1778675273546788e-01
         - -9.5541057824865205e-01
         - -6.6232625805614087e-01
         - 9.7326211997880141e-01
         - 2.5283949754098523e-01
         - -9.1892620852494566e-01
         - -3.6430369145237262e-01
         - -9.9263041858135870e-01
         - 5.8453990810535528e-01
         - -1.2721331911199409e+00
         - -3.7733716210848645e-01
         - -6.3609431976721742e-01
         - -2.4372421961055682e-01
         - -3.7882439589275735e-01
         - -6.3302097985998995e-01
         - -2.4259168627734490e-01
         - -7.7950632686407306e-01
         - -3.4900284483323712e-01
         - 1.2719735554638207e+00
         - -1.1291193584846968e+00
         - -8.8095902597108622e-01
         - -4.9303297282347897e-01
         - -2.2507967317333483e-01
         - 5.5645574423239597e-01
         - 5.5973388788586964e-01
         - 8.0365877737747582e-01
         - -5.2263998518017474e-01
         - 1.7815465747610540e-01
         - -6.3648423783162178e-01
         - 5.2346240934679111e-01
         - -1.0996789383544359e+00
         - -9.4655581939448974e-01
         - 5.4291252610286522e-01
         - 1.0277467166706342e+00
         - 1.3001977303102368e+00
         - -3.9312083338483117e-01
         - -9.6944570644354100e-01
         - -3.9917919847807792e-01
         - -5.5246631035648697e-01
         - 1.1445094378957767e+00
         - 1.0788907460147710e+00
         - 1.0916527059919572e+00
         - -4.5456605565851727e-01
         - 8.5108733609297227e-01
         - -6.2055236393224411e-01
         - 4.3740601462428869e-01
         - -2.6820768068391088e-01
         - 2.5872171727124110e-01
         - 6.3567022834682696e-01
         - -4.4655752612509964e-01
         - 8.8803077701938382e-01
         - -3.4901693296197028e-01
         - -4.4023442366218690e-01
         - 3.3715785222700240e-01
         - -2.7447806155120208e-01
         - 1.3217181551642183e+00
         - 4.4296105152020898e-01
         - -1.0710332316205482e+00
         - -9.7506611983519720e-01
         - -6.3400401352030200e-01
         - -5.6589081194464064e-01
         - -4.0869478737226778e-01
         - -3.9955379229285315e-01
         - 1.0397297666490304e+00
         - 3.1861346817369157e-01
         - -5.5589406089081417e-01
         - -7.9131070729584985e-01
         - -5.8993535578888301e-01
         - 3.3812492040447928e-01
         - 5.8799661175384588e-01
         - 5.9508286669181998e-01
         - 5.1505484451563999e-01
         - -9.4744878368648833e-01
         - -2.9493055945838870e-01
         - -1.0562221793595585e+00
         - -1.0947414676108447e+00
         - 1.0364109315550505e+00
         - -9.5169813121186442e-01
         - -1.2275810175473709e+00
         - -4.2992154874026683e-01
         - 4.2269222088074665e-01
         - -1.0458143509699414e+00
         - 4.4254349499690843e-01
         - 6.7785946074681946e-01
         - -1.3219393969149991e+00
         - -3.5255765692574464e-01
         - -1.0238497696116060e+00
         - 1.1249285253548131e+00
         - -6.8564826411677526e-01
         - -5.9690173370553634e-01
         - -1.5055895876682621e-01
         - -7.5966840181574036e-01
         - 6.8668758158429177e-01
         - -1.1339432615422749e+00
         - 3.5667347205207611e-01
         - 4.5262174656181131e-01
         - 8.2021564027362770e-01
         - 9.1982260050721687e-01
         - -9.8615645287617615e-01
         - 8.1338957708410775e-01
         - 1.1143040564182323e+00
         - -7.8674662259236683e-01
         - -6.6918892251487427e-01
         - 6.2228028376333888e-01
         - 8.9777220561288940e-01
         - -6.6481842270171732e-01
         - -9.7554371923564243e-01
         - -6.8774598227070771e-01
         - 7.1726615461046450e-01
         - -1.0053277790952031e+00
         - -3.0958707435841137e-01
         - -7.9675675286862702e-01
         - -3.8203758610085431e-01
         - -6.2025781712717043e-01
         - -8.0898214730516482e-01
         - -1.0365670429893421e+00
         - -8.6547223096557369e-01
         - -3.7324671639022916e-01
         - 9.6981986774229978e-01
         - -1.1066169771122154e+00
         - -1.0317113741206607e+00
         - -6.2177440732287848e-01
         - 1.0713976539341549e-02
         - 9.2236081155325578e-01
         - 7.6021037476186759e-01
         - 6.1192205422581447e-01
         - -6.7750129580995599e-01
         - 5.7183517747202517e-01
         - -8.1638447044290763e-01
         - 9.4083060985117339e-01
         - -9.8710483303379681e-01
         - -8.0938921290107302e-01
         - 5.6334350979015757e-01
         - 7.9987510569031339e-01
         - 9.0390099677956792e-01
         - -1.2991026698448123e+00
         - -8.6187469582186527e-01
         - -6.2689433401329175e-01
         - -1.2415279319205299e+00
         - 9.2333332886196329e-01
         - 1.0503440516260110e+00
         - 9.3818029337692055e-01
         - -5.5010507415446697e-01
         - 4.6418492950925888e-01
         - -7.3329010779332060e-01
         - 3.0598775667530848e-01
         - -7.6877783259236387e-01
         - 2.1925209923879382e-01
         - 8.4794337107214368e-01
         - -5.4120548141959413e-01
         - 9.9555259776305460e-01
         - -1.2735045514738819e+00
         - -4.8936112178352087e-01
         - 7.4721994697567551e-01
         - -4.7406529714609663e-01
         - 1.1309309809605061e+00
         - 4.8945602275919836e-01
         - -9.2269250616485787e-01
         - -7.6057271924527292e-01
         - -7.7142912347912762e-01
         - -5.6956099892566669e-01
         - -6.0631390874401192e-01
         - -7.4635207335579301e-01
         - 9.4931190970279189e-01
         - 3.8408400159423323e-01
         - -6.3089867493117313e-01
         - -6.6521240793395231e-01
         - -7.9491916937874940e-01
         - 3.6163529496346425e-01
         - 1.7436498064609498e+00
         - 1.0079440947666709e+00
         - 4.0782587006110493e-01
         - -1.2500581847789833e+00
         - -4.2067741758262989e-01
         - -8.7775561333478103e-01
         - -1.0470589829287480e+00
         - 9.2061247002187852e-01
         - -6.3986320861065915e-01
         - -1.0317616931789246e+00
         - -5.1489182631425812e-01
         - 6.1769554580983110e-01
         - -8.5112704499116354e-01
         - 9.0598178379896799e-01
         - 7.3635429964165444e-01
         - -1.3159100916037099e+00
         - 1.8220405196345615e-01
         - -9.7821182543015706e-01
         - 8.9585772471405956e-01
         - -8.2261933915443475e-01
         - -1.5272570118416369e+00
         - -2.0225284296891469e-01
         - -1.0012747022608142e+00
         - 7.4264466719989897e-01
         - -6.6664712980692364e-01
         - 8.9122734078167953e-01
         - 7.5606223634918546e-01
         - -5.7056742277884442e-01
         - 5.7231677088124344e-01
         - 1.8685041078563996e-01
         - -6.5852454246336556e-01
         - 8.4996586889054537e-02
         - -6.7711350904055734e-01
         - -1.0167793055050318e-02
         - 2.7627139996918587e-01
         - 5.2368096926694707e-01
         - -7.3530183690813211e-01
         - -3.7181382922028483e-01
         - 4.4177033461935411e-02
         - -3.4510993172203752e-01
         - -6.1606977580917821e-01
         - -8.1732768063322103e-01
         - -9.4315501614010744e-01
         - 2.2268454366529081e-01
         - 5.6004730760277088e-01
         - 2.7753305451723526e-01
         - -3.5684191335949411e-01
         - -9.6659833780982929e-01
         - 6.5849488570124592e-01
         - 7.5707024132851275e-01
         - -7.2115984506257302e-01
         - -9.7976722458946497e-01
         - 7.8259011870466222e-01
         - 8.7619365899652724e-01
         - -4.5661455275651297e-01
         - 1.1043857726161792e+00
         - -5.4260077849964956e-02
         - 6.0907003830947171e-01
         - 1.0028749778652428e+00
         - 4.1135761537491244e-01
         - -6.6845891543490764e-03
         - -4.5019591695424926e-01
         - -7.7815474104305249e-01
         - 1.0333277353852590e+00
         - 8.2133086996587479e-01
         - 5.9037159818133778e-01
         - 1.6203341727851806e-02
         - -2.2166859909968620e-01
         - 6.0872834576379709e-01
         - 4.7163602782395120e-01
         - 3.1279222868668194e-01
         - 8.4607305071173644e-01
         - 1.9074595828074223e-01
         - 6.4889129539508539e-01
         - -1.1170428378786541e-01
         - 1.5549652750951101e-01
         - 8.9743328688966362e-01
         - -4.2458120984828790e-01
         - -6.8010529548705534e-01
         - -4.5532522996173264e-01
         - -9.0281782137619870e-01
         - 9.8770589072460235e-01
         - -3.8727181799759924e-01
         - -9.1101076837098660e-01
         - 1.1079784163412307e+00
         - -1.0121154755900377e+00
         - 8.8307999709104434e-01
         - 8.3513369188566933e-01
         - -4.9659858840858762e-01
         - -1.7009349978146898e-01
         - -1.0768289146419574e+00
         - -1.0100354836620491e+00
         - 7.0663712144694013e-01
         - 3.6397339238697118e-01
         - 5.8012831924994712e-01
         - -7.0631741447623997e-01
         - -8.9218812006338521e-01
         - -9.8787111330353472e-01
         - -1.0612734833507103e+00
         - 7.6934249139512356e-01
         - 2.1986719515742905e-02
         - 1.0376027645895778e+00
         - -3.2720332538485852e-01
         - -9.3004218027583740e-01
         - -8.9447962310557094e-01
         - -7.8032646512005543e-01
         - -5.2941984233190209e-01
         - 5.1477769080462510e-01
         - -1.4732516219609434e-02
         - -5.9111137373595635e-01
         - 5.7103301972882958e-01
         - -7.5406755514234869e-01
         - -5.5574675175544297e-01
         - 9.9376339153510707e-01
         - -2.3618124882554409e-01
         - -9.5899748653073369e-01
         - 3.4018893344489048e-01
         - -3.2386496972537338e-01
         - 1.2708408718373790e-01
         - -9.7111649928681354e-01
         - 7.4691492219626301e-02
         - -8.9648132563841709e-01
         - -1.0619721020059498e+00
         - 1.0315569360681069e+00
         - -4.6722312941934507e-01
         - 3.3778998151119022e-01
         - 1.3035524125034883e+00
         - -1.2751274586064601e-01
         - 6.0249177393962883e-01
         - 6.0554300216622749e-03
         - -3.9935441288227363e-01
         - -8.0478521281757934e-02
         - -5.3952153280987525e-01
         - -1.1768516650020713e-01
         - 3.1401211626241082e-01
         - 3.8127774936433834e-01
         - -7.2435093892086355e-01
         - -3.4508578996743883e-01
         - -2.8292608250191109e-01
         - 5.8535806245290974e-03
         - -5.9234054335592690e-01
         - -8.0431883679149618e-01
         - -6.8901575255628944e-01
         - 4.9539160520494105e-02
         - 2.0588781847125676e-01
         - -4.0399316828711443e-03
         - -2.2056709442840139e-01
         - -6.9418564716914311e-01
         - 5.0241937723144703e-01
         - 4.2795439765704862e-01
         - -5.9461351244118044e-01
         - -9.6371204528159493e-01
         - 4.5363386159120778e-01
         - 7.9583466857966112e-01
         - 7.1382741984853004e-02
         - 1.1534470975476283e+00
         - 1.3817184449161124e-01
         - 3.8677922697019684e-01
         - 9.6529099055156453e-01
         - 1.2695706005518129e-01
         - 4.2081668344186800e-02
         - -2.9582009604876996e-01
         - -6.4204294577518772e-01
         - 8.4554664750248643e-01
         - 7.2513101092060772e-01
         - 5.3710560044426037e-01
         - -9.5266389022239370e-02
         - -2.9197057660333053e-01
         - 2.0154000972073946e-01
         - 2.2687012917997712e-02
         - 3.8772988071744147e-01
         - 6.7917761417095013e-01
         - 4.4083518099145647e-01
         - 3.4471547729122243e-01
         - 5.2035555540781091e-02
         - -7.0903094706793138e-02
         - 8.5583056966791282e-01
         - -1.1097911291601915e-01
         - -6.7909345058768800e-01
         - -1.0263470630914071e-01
         - -9.7011452897856798e-01
         - 7.6452918096104672e-01
         - 6.6166069558707769e-02
         - -1.1413859902957810e+00
         - 1.1321655019740611e+00
         - -1.0454372070795273e+00
         - 5.2678251881440252e-01
         - 9.7265259179204788e-01
         - -4.8342992246618038e-01
         - -2.1950172112305971e-01
         - -9.2657003570210583e-01
         - -8.4347325975601350e-01
         - 4.2939273540335776e-01
         - 2.6286374766719602e-02
         - 4.0056804058812795e-01
         - -5.8780482011746971e-01
         - -1.0864564139313142e+00
         - -7.7543083296225468e-01
         - -1.1173976770165226e+00
         - 9.5172503740195935e-01
         - 1.8787700313877506e-01
         - 8.1407769538217556e-01
         - -1.6773085429795633e-02
         - -7.7011611781461231e-01
         - -9.6592908598902461e-01
         - -7.9473530242083579e-01
         - -2.4254986404834614e-01
         - 4.8595959822344520e-01
         - -3.9196100628468683e-01
         - -6.3136101957128621e-01
         - 6.3081023883873044e-02
         - -5.7170175029892611e-01
         - -4.2847127080475289e-01
         - 1.1553793580068468e+00
         - -4.7182588658275185e-03
         - -5.7789754053108067e-01
         - 2.8704707296507942e-01
         - -3.9838037790373076e-01
         - 2.3637722454892807e-01
         - -9.9860436838717215e-01
         - -2.2744962243930134e-01
         - -1.0708102117602092e+00
         - -1.0331677312645953e+00
         - 1.0133084818737974e+00
         - -6.0387912922290421e-01
         - 1.7463089796687006e-01
         - 1.2182645803522261e+00
         - -1.0618601828313401e+00
         - 4.9943540416397880e-01
         - 2.8766259273809736e-01
         - -7.7635582167215578e-01
         - -1.0674774025738461e-01
         - -4.4666704178603461e-01
         - 1.4425919070980975e-01
         - 5.4075592007900508e-01
         - 5.5418157110138888e-01
         - -1.1176485705841062e+00
         - -3.8817422208531749e-01
         - -1.9218251094155039e-01
         - -6.3616608232927085e-01
         - -5.3008973678657811e-01
         - -1.0480812571176321e+00
         - -9.8976989702682205e-01
         - 2.8704640159087852e-01
         - 9.0346628151472419e-01
         - 5.3834488554790383e-01
         - 8.0031370242731881e-02
         - -9.8454947828784634e-01
         - 8.5330140524012088e-01
         - 3.8102365168523789e-01
         - -4.1750590451934455e-01
         - -1.3394558915032682e+00
         - 1.0417719438684032e+00
         - 1.1044824583041577e+00
         - -7.3054845188902462e-01
         - 1.2991060309543940e+00
         - 3.9008466470166464e-01
         - 1.0191041884614389e+00
         - 1.1969792940386428e+00
         - 8.8354010796427096e-01
         - -9.2736047578736783e-02
         - -3.0583504124406236e-01
         - -1.1164903246679891e+00
         - 1.0836696288281891e+00
         - 1.0446209959035921e+00
         - 3.5700504761214452e-01
         - 2.1015240848674333e-01
         - -2.5310735758831682e-01
         - 8.3435619424240304e-01
         - 8.4392533447052198e-01
         - 2.3884573666043918e-01
         - 9.7072097568659033e-01
         - 2.8636591178012333e-01
         - 1.0417701909033374e+00
         - -5.8787325507447197e-02
         - 4.6862255097520128e-01
         - 1.0636080029387913e+00
         - -4.2985736485856452e-01
         - -9.3319763455769911e-01
         - -9.8153750934208872e-01
         - -1.0156678209465997e+00
         - 1.2687177896704385e+00
         - 2.6178845586821403e-01
         - -9.9635066720588217e-01
         - 1.3120557759770928e+00
         - -1.0732155051414425e+00
         - 4.0456461216535256e-01
         - 1.0359273128600079e+00
         - -5.0924454126263741e-01
         - -1.5751164529618666e-01
         - -1.2469803001980539e+00
         - -1.2011989290082030e+00
         - 8.9225884477681427e-01
         - 7.2211495281348859e-01
         - 4.4890210087547205e-01
         - -9.7043541946177347e-01
         - -1.1653116614665517e+00
         - -1.1590142662510741e+00
         - -1.1172117498686118e+00
         - 9.6979737274490496e-01
         - -5.1881405111737844e-01
         - 1.3196546029898406e+00
         - 6.0110090004281344e-02
         - -1.0276296696052785e+00
         - -9.9487670013564744e-01
         - -1.0977956568370562e+00
         - -3.3645503155359946e-01
         - 3.0224498959077195e-01
         - -1.4256219290907488e-01
         - -3.7925384090389197e-01
         - 8.6819846783425070e-01
         - -9.2181279766282931e-01
         - -3.5189808895204627e-01
         - 1.3362343228103755e+00
         - -5.1790148755097887e-01
         - -5.9806419053924498e-01
         - -2.0280372916246101e-01
         - -4.5278323394163594e-01
         - 1.5370131325600736e-01
         - -1.3624822810314414e+00
         - 6.3118161295080555e-01
         - -1.0166521771073838e+00
         - -1.4366121190901755e+00
         - 1.2404144136064894e+00
         - -6.1003526994286861e-01
         - 3.2284800397805008e-01
         - 1.2371650547339597e+00
         - -1.2945722042070620e+00
         - 6.2392498038470579e-01
         - 3.3079362355793768e-01
         - -1.0326811989730309e+00
         - -5.7148104023159629e-01
         - -3.8585485365820565e-01
         - 7.4086957087521707e-02
         - 6.5063453579900321e-01
         - -5.9647897365421410e-01
         - -7.3866691973546117e-01
         - 4.9120112928522280e-01
         - -1.3202686101143637e-01
         - -5.3855153084354901e-01
         - -5.7462144354949696e-01
         - -1.1446770532481014e+00
         - -8.7256847379269109e-01
         - -4.2157106318506263e-02
         - 1.0405035279125181e+00
         - 5.1353151957120080e-01
         - 5.7210250510391647e-01
         - -7.8893145315715196e-01
         - 1.1161780913747150e+00
         - 4.2901809922362405e-01
         - -4.7199835795110323e-01
         - -8.2594037725792602e-01
         - 1.2545530704671894e+00
         - 1.0663863170964600e+00
         - -1.0078854070388352e+00
         - 1.0915980966576051e+00
         - 4.0288699233839931e-01
         - 1.4250623197913885e+00
         - 8.2844900304547642e-01
         - 1.0987716223393702e+00
         - -3.4855104848112201e-01
         - -2.6256860594272702e-01
         - -7.7017335956968425e-01
         - 1.0238670170688646e+00
         - 7.7883261461602404e-01
         - 3.4497593193527532e-01
         - 3.6586940275723218e-01
         - -3.4062377931682974e-01
         - 8.1028051984040972e-01
         - 1.2447747109308283e+00
         - 3.7398325603481913e-01
         - 6.4730200308174557e-01
         - 3.5915623855814582e-01
         - 1.0908057058026890e+00
         - 1.4902135302319255e-01
         - 3.4538728974336746e-01
         - 1.1471566835445954e+00
         - 2.5373725392660346e-01
         - -1.2324457472018213e+00
         - -1.3238563238654053e+00
         - -9.7757659982006129e-01
         - 8.5739511427009352e-01
         - 6.0572322118527866e-01
         - -1.1131511921822894e+00
         - 9.2745732875263687e-01
         - -1.2419739051847738e+00
         - 4.6070606444807893e-01
         - 1.1232239459645610e+00
         - -6.5191510406540010e-01
         - -4.2755875538803806e-01
         - -9.8685898943043526e-01
         - -1.0452135694097959e+00
         - 9.2243041994595087e-01
         - 9.1769169629670144e-01
         - 5.7133185697197220e-01
         - -1.2460067657502494e+00
         - -1.1786034349662049e+00
         - -7.0734721846484006e-01
         - -1.0949121694469199e+00
         - 1.0994410865003470e+00
         - -7.7430651141581286e-01
         - 7.8934196159492021e-01
         - 6.9497218267472859e-03
         - -4.0338495319596340e-01
         - -1.1862763700135937e+00
         - -5.7862458129041683e-01
         - -3.6108444243821036e-01
         - 4.3190542281204819e-01
         - -1.8569313852876887e-01
         - -6.3474686724573481e-01
         - 1.2567193896612017e+00
         - -1.3250941902714461e+00
         - -3.5329999568014769e-01
         - 1.0672952425309585e+00
         - -4.4523228559366529e-01
         - -5.5043234202922375e-01
         - -2.2623821654878931e-01
         - -4.2172444084095140e-01
         - 2.6195249284469468e-01
         - -9.9685010655830764e-01
         - 5.5835853093599064e-01
         - -1.2724615239578878e+00
         - -8.3978745532366594e-01
         - 1.0340194139567189e+00
         - -6.1206780605506117e-01
         - -3.4225857418758704e-01
         - 9.3965783227836608e-01
         - -6.7569515130955146e-02
         - 1.6703918364954240e-01
         - -2.6020714041769699e-01
         - -3.1264518705756661e-01
         - 3.5339887485042026e-01
         - -2.0489439010962451e-01
         - -1.8296217739314757e-01
         - 1.8312629672004224e-01
         - 5.0928069875373660e-01
         - -4.8755960002105198e-01
         - -2.7766503270671022e-01
         - -2.6816397856007423e-01
         - 5.5377374032785011e-02
         - -2.9233782782494883e-01
         - -4.2818323135304837e-01
         - -1.5701193246766709e-01
         - -5.1586724499578307e-01
         - -1.3345108149634893e-01
         - -3.7261317851520687e-01
         - -7.7904745173565715e-01
         - -4.0237404144163014e-01
         - 4.4116849253871143e-01
         - 1.5238341988204385e-01
         - -5.2758435802756909e-01
         - 1.0412092096586147e-02
         - 1.8218472458191839e-01
         - 5.7761367852186041e-01
         - 3.8705156063963181e-01
         - 2.1012058680787529e-01
         - 1.3099325945391530e-01
         - 3.2713691364355052e-01
         - 2.4815377938406491e-01
         - -1.7087099666045102e-01
         - 3.0641117633348935e-01
         - -4.5662787427406487e-01
         - -4.2245518710815544e-01
         - 4.4261838088219402e-01
         - 1.3968873704072404e-01
         - 3.3900736525370645e-01
         - -2.4527113716595264e-01
         - -6.0778088189158486e-01
         - -2.5910388391425465e-01
         - -2.2785806659925598e-01
         - 5.1687278603605702e-01
         - 2.8381272547356945e-01
         - 5.0148357622663342e-01
         - 1.8121655314753884e-01
         - 6.0953468794824750e-01
         - -1.4056332996955606e-01
         - 3.7001797308407991e-01
         - -6.6289960962380756e-01
         - -6.0402993063739452e-01
         - -1.6536093640077177e-02
         - -4.2682017389569293e-01
         - 2.1005461223432048e-01
         - -1.1953453776424332e+00
         - -2.1571159668032311e-01
         - 2.5151253048007344e-01
         - -4.0689935947811062e-01
         - 6.2847206264425082e-01
         - 5.2303040598374251e-01
         - -1.3474607194300223e-01
         - -4.3706344276556786e-01
         - -1.5396096652794464e-01
         - -3.3305794455572324e-01
         - 2.6724585270694856e-01
         - 6.7776547895009004e-02
         - 2.8991167500451509e-01
         - -5.9223201711219653e-01
         - -4.2467016658901596e-01
         - -2.3684388055569633e-01
         - -1.9354053107840302e-01
         - 5.0250888906362756e-01
         - 6.1208582403346035e-01
         - 1.4174045045214947e-01
         - 5.8606175465617094e-01
         - -1.0233965462196521e+00
         - -2.8293735854575747e-01
         - -3.7334237615068144e-01
         - -5.2018611064954201e-01
         - 2.6151166655044999e-01
         - -1.7817286189925122e-01
         - -3.8031418781812815e-01
         - 5.5367404545649326e-02
         - -4.6049488790021526e-01
         - -2.5297146253679581e-01
         - 5.1137970772711164e-03
         - 2.0469846823019344e-01
         - -7.8257135155541790e-01
         - -2.4705334176330299e-01
         - -3.5564431374042771e-01
         - 4.9450221399740446e-01
         - -2.3781216076732156e-01
         - -2.5999211564105168e-01
         - -4.6070256342202631e-01
         - 1.2558027793202939e-01
         - 1.5204844556158206e-01
         - -2.4256097591503151e-01
         - 4.9664303562853246e-01
         - 3.4715566072286846e-02
         - 3.1541215111346904e-01
         - -2.7546220765747875e-01
         - -5.0553837615897219e-02
         - 3.3173924752767418e-02
         - 2.6168352980261744e-01
         - 8.6848542077829164e-03
         - 4.2254583484974789e-01
         - -3.2487942944484310e-01
         - 3.3865798615031978e-01
         - -2.8504517913425459e-01
         - -2.8535642911406889e-01
         - 4.8398200648961576e-01
         - 3.2927550336880329e-02
         - 5.2369773360993313e-02
         - 2.1369003917645923e-01
         - 1.0499413015337175e-03
         - 8.7215612426565156e-02
         - 2.3080827302427279e-02
         - -1.7092502292786510e-01
         - -8.6234417381705375e-01
         - -1.5588841021296085e-01
         - -4.0641793968413858e-01
         - -3.3855383378063475e-01
         - 5.8799153781897665e-02
         - -9.7375142077371760e-02
         - -1.8092388135751636e-01
         - -3.5265976349136957e-01
         - 4.1224483024851344e-01
         - 1.0959721727360179e-01
         - -3.8563245412660729e-01
         - -8.0574878508529305e-02
         - -1.1208383261288112e-01
         - -2.7439178344061255e-01
         - 1.6251992701826787e-02
         - 1.3729816496552621e-01
         - -8.3727546396070426e-02
         - -7.7148963637223081e-02
         - -4.3707331332625138e-02
         - -1.4240906546309057e-01
         - -6.8346680492832568e-01
         - 1.8903330676135238e-01
         - 2.2620118761129243e-01
         - -1.7215688364570753e-01
         - -4.2244815504639899e-01
         - 5.8590140874097210e-02
         - -4.1958374578608715e-01
         - 9.5134150290455050e-02
         - -5.5445037964830590e-01
         - -2.0637328572710173e-01
         - -2.1648836132865690e-01
         - -3.6529044421781326e-01
         - 6.5206054203009967e-01
         - 8.2329109083617791e-02
         - 2.2582159480491285e-01
         - 1.2323064830278788e-01
         - -9.4197062129619069e-01
         - 1.0792864221147740e-01
         - -2.5308453311067103e-01
         - 1.8902172587463814e-01
         - -1.3980341917039113e-01
         - -2.1979685260811049e-01
         - -4.7488603413890269e-04
         - 4.6481081543219033e-01
         - 2.7154920487114370e-01
         - 5.9613329692843081e-02
         - 6.5336472415768565e-02
         - -8.2936401193139428e-02
         - -2.0986093989110793e-01
         - 3.7295853362340797e-01
         - 1.9461780786742786e-01
         - -8.9127826690423240e-02
         - 7.7783403890723232e-02
         - -3.1231195189949323e-01
         - 9.3627305415452500e-01
         - 6.1274279125645606e-02
         - -3.9917899710375809e-01
         - -4.1665359814060093e-01
         - 3.5352976290576621e-01
         - -1.7725339248327879e-01
         - 3.3325771579441521e-01
         - -2.1669016854050399e-01
         - 4.9372716715045833e-01
         - 2.1249616432686913e-01
         - 1.0527272772109216e-02
         - 1.8185617711449581e-01
         - 2.8695384006780972e-01
         - 6.9733699752895062e-02
         - 2.4021412183107291e-01
         - 3.3608601683095790e-02
         - 4.8942744429255358e-01
         - 2.7165926964562920e-01
         - -4.9757787198737380e-01
         - -3.2789896543938019e-02
         - -8.3274381930427144e-01
         - 3.2257027280018707e-01
         - -1.2465590245425362e-01
         - -1.6850224127023222e-01
         - 4.9554119491765102e-02
         - 3.5026702815004324e-01
         - -3.8490818957445772e-01
         - 2.6551301471850436e-01
         - 3.0333038620100006e-01
         - -2.7882096670531720e-01
         - 5.2658411700846827e-02
         - 4.5505694180933121e-01
         - -7.2656575398737499e-03
         - 1.2972817394265396e-01
         - -5.5062727457831737e-02
         - -5.8804199876984742e-01
         - -2.8069075538600730e-01
         - 4.2615836968325033e-01
         - -1.1300292335673300e-01
         - -6.5821129478102550e-02
         - -2.7081043677870448e-01
         - -5.4140824950458888e-01
         - -7.2378642262526927e-01
         - -1.3322179448756263e-01
         - -3.0319081175020385e-01
         - -1.4126917772507924e-01
         - 4.5794910207309225e-01
         - -6.7739562243286711e-01
         - 3.5239889645501155e-01
         - 1.5124565410370350e-01
         - -3.8919962092407789e-01
         - -8.7984600453191031e-01
         - -1.9542296461800071e-01
         - 3.2254217924037820e-01
         - 3.5578161185524437e-01
         - 6.2857469621312234e-01
         - 3.1810321301429682e-02
         - -1.4534642134856490e-01
         - 3.1980693425756485e-01
         - -4.1474942926107833e-01
         - -8.4997298230884057e-03
         - -2.5972919238391667e-01
         - -4.6463724556800684e-01
         - 4.1264237479558535e-01
         - 4.2319853829946119e-01
         - 4.3096781383421595e-01
         - -2.9801283013089797e-01
         - -4.4338442743403028e-01
         - -2.3107879127647665e-01
         - -1.7851033879343711e-01
         - 2.1204297225966257e-01
         - 5.6280057503540015e-01
         - 4.1612399990512428e-01
         - -1.1260979991805059e-01
         - 2.5278860471040593e-01
         - -4.0111646724133469e-02
         - 3.5452232240552628e-01
         - 2.3242965185355574e-01
         - -3.2405119139029925e-01
         - 3.6246934695256511e-01
         - -2.8487515914128131e-01
         - 5.7525943133308510e-01
         - 5.8482826606733129e-01
         - -5.9016810851447199e-01
         - 5.0737002559290534e-01
         - -5.4083718426374516e-01
         - 3.2262415188319121e-01
         - 4.4988890769888268e-01
         - -2.1750471744205283e-01
         - -1.9010145589685970e-01
         - -5.9530941984753938e-01
         - -6.2501154123434810e-01
         - -6.1051142784821065e-02
         - -1.4331306746726905e-01
         - 3.7845942392603255e-01
         - -1.6051420681381132e-01
         - -5.8687097347095152e-01
         - -3.3991068555141979e-01
         - -6.2434022779160070e-01
         - 4.1457084046497972e-01
         - 1.5289947294282324e-01
         - 2.2093721917121434e-01
         - 3.6489698512965206e-02
         - 4.8493839967373067e-02
         - -4.1527836685822606e-01
         - -4.1910469056573585e-01
         - -2.9769590581156435e-01
         - 4.1944274085944228e-02
         - -7.6966658206494551e-02
         - -3.1864198504941560e-01
         - -1.9571644387681372e-01
         - -5.5488857857328149e-02
         - -2.8491303375697330e-01
         - 4.8767096951604316e-01
         - 1.6419889782206665e-01
         - -5.1315578155282246e-02
         - -1.5016473861465518e-01
         - -1.7721568849597849e-01
         - 4.1526401011410707e-01
         - -5.4759962402191009e-01
         - -4.9777497097287744e-02
         - -5.7920877673985827e-01
         - -7.5750424664316673e-01
         - 7.3914773896184061e-01
         - -2.7688577144147680e-01
         - -1.1319609911222277e-01
         - 1.4651780168673745e-01
         - -1.0365968510344257e+00
         - -1.1295737561657286e+00
         - 1.4554323991610920e+00
         - -9.6355751288248981e-01
         - -2.0658320504604339e+00
         - 1.3039650219770491e+00
         - 3.7387574282217458e-02
         - 9.7492924219552746e-01
         - -5.2524680890739264e+00
         - -9.2553656711077445e-02
         - 4.2027387235929785e+00
         - 3.0655635373784118e-01
         - -4.0208522634255106e-01
         - 1.8238355315954119e-01
         - -5.7561568545735953e-01
         - 6.1025629268997561e-01
         - -2.1810093508894814e+00
         - 2.8953747839996341e-01
         - 8.4603846723648113e-01
         - 4.6107383126208621e+00
         - 3.3018606283782348e-01
         - 1.3596374138429783e+00
         - -1.1659992859627779e+00
         - 1.5291386039707016e+00
         - 1.3722799637136507e+00
         - 7.1639210796944852e-01
         - 5.6717630336244973e-01
         - -9.4771805204136050e-01
         - -1.3761711105589580e+00
         - 6.1425952959231078e-01
         - 8.3893243459683542e-01
         - -4.3989819240256040e-01
         - 5.5565298021185927e-01
         - -1.5024285771799410e+00
         - 1.1862247487182525e+00
         - 3.4569330574128015e-01
         - -1.1322467542231748e-01
         - -5.5322293835767899e-01
         - -1.1917482334199663e+00
         - 1.9988860314704822e+00
         - 1.0542938093182057e+00
         - -1.8153467648207108e-01
         - 1.2399713766848512e+00
         - -8.1296142408261451e-01
         - -4.9257442719844019e-01
         - -6.6841175894460791e-01
         - 2.5609968553099999e-01
         - 7.0262565787129694e-01
         - 9.1593354734621624e-01
         - 7.7155854738717489e-01
         - 4.1220757660425509e+00
         - -1.2816790289105711e+00
         - -7.0458274123533127e-01
         - -8.5301831150985677e-02
         - -7.5773740772075271e-01
         - 4.4134029147741876e+00
         - 1.9688847861308006e-01
         - -1.4030893707487802e+00
         - -1.0886731077888223e-01
         - -1.8938479125433467e+00
         - 4.8818962379132841e-01
         - 6.1752241895966520e-01
         - 5.0645806759268741e-01
         - 6.7187204376106102e-01
         - 2.5471634214271927e-01
         - 6.4147999654379195e-01
         - 8.0476591332346603e-01
         - -9.8749751127835217e-01
         - -1.2567779512545398e+00
         - 2.1012056239336291e-01
         - 3.6800676661347514e-01
         - 4.8927117426955841e-01
         - 8.9710765741871512e-01
         - -2.6129340890477222e+00
         - -1.4473509038674919e+00
         - 1.8057872436472753e+00
         - 2.5772139527872033e+00
         - -4.5668808058260046e-01
         - 6.6468971105827845e-01
         - 1.2044211074013105e+00
         - -1.0814704996613949e+00
         - 5.3498262035994903e-01
         - 1.1757359404088414e+00
         - 5.5673693674315095e-01
         - -1.0981228019601219e+00
         - 7.8006099851558419e-01
         - -1.4407581912374812e+00
         - -8.2092507591297270e-01
         - 2.2668159592365988e+00
         - -2.6816997012214907e+00
         - 4.9390018576054501e-01
         - -4.8690540737497101e-01
         - 1.0580752789712464e+00
         - 2.2350376276981452e+00
         - -4.0284209475198485e-01
         - 1.7019972355578443e+00
         - -1.1092404645213845e+00
         - -7.2173299197299301e-01
         - -3.2697702344216637e+00
         - -2.1143474203974550e+00
      -
         - 3.4960330243830273e-01
         - 7.8190880302047558e-02
         - -3.8769151399930846e-01
         - 1.0830991595673144e-01
         - -5.4008700522944220e-01
         - -1.1539880464660848e-01
         - 5.5778956539330071e-01
         - 1.9870862325732977e-01
         - -1.7061202192697050e-02
         - -4.1317322460784789e-01
         - 4.8867603353433087e-01
         - -8.5443742851310248e-02
         - 1.3909877767882994e-01
         - 3.1717385151262073e-01
         - 7.5564206930652744e-02
         - 3.4204169096027620e-01
         - -8.6869155597200653e-02
         - -1.1314529730846151e-02
         - -1.9988535968945886e-01
         - -3.0417562067048898e-01
         - 6.1439288727370678e-01
         - 2.5944208984955808e-01
         - -1.7877312535745737e-01
         - 6.7037999500092071e-01
         - 4.3582822439040031e-01
         - -4.0469328017582812e-01
         - 5.5539422509812329e-02
         - 4.0079714518240689e-01
         - -1.3012888029207414e-01
         - -2.9127053893482802e-01
         - -5.7494193617282319e-01
         - 2.5668229596282233e-02
         - -5.2274573132141643e-02
         - 2.1663805730320398e-01
         - 2.8560886814533332e-01
         - 6.5270395705812431e-02
         - -5.2911190898785354e-01
         - 6.3388242878067635e-01
         - 2.6614110076238495e-01
         - 1.8910543878028827e-01
         - -2.1318090168994436e-01
         - -3.6650433969978463e-01
         - 1.0360193434134023e-01
         - 2.1662962242355499e-01
         - 7.7093381050315365e-02
         - -2.4141296098719997e-01
         - 1.1017413447787514e-01
         - -2.0601917212025797e-01
         - 8.0512315176895666e-02
         - 5.1135231141872495e-01
         - 4.6403749534669353e-01
         - -1.9974489419440911e-01
         - 2.1719409205410181e-01
         - -1.5156768665020875e-01
         - -4.8884673405807560e-01
         - -1.2875900072257870e-01
         - -4.7906996325143592e-01
         - 2.6381617147706710e-01
         - 1.5456689121275796e-01
         - 9.2572564831969375e-03
         - -3.5157989110432070e-01
         - 5.8579793534145892e-02
         - 2.0795253744985470e-01
         - 2.3689455947628943e-01
         - -9.9175457846699150e-02
         - 5.3809099812227890e-01
         - -6.9510299830150737e-02
         - 3.4392512015553950e-01
         - -1.0107016201345921e-01
         - -9.0514174885507837e-02
         - 7.0394574177374061e-02
         - 1.0249337229135681e-01
         - -1.0747194373519207e-01
         - 1.7876924037666969e-01
         - 4.2569227759195437e-02
         - -4.9638747913723502e-01
         - 5.7076384806906535e-02
         - -2.5735749505743410e-01
         - 4.1636920282123691e-01
         - -1.1524037206740778e-01
         - 7.5704517550427855e-02
         - -1.7172784316889833e-01
         - -1.3870700579713716e-01
         - -1.3769945788985768e-01
         - -1.8468767821988410e-01
         - 1.4197844968535137e-01
         - 2.2942763714395367e-01
         - -1.0166063205871582e-01
         - 2.3892414642469220e-01
         - 6.5099457949598732e-02
         - 4.4006948904014753e-01
         - 9.4471240148689253e-02
         - -7.9285862462501144e-01
         - -2.8736340472746391e-01
         - -1.0525084932710449e-01
         - -8.2426174403216743e-02
         - 1.8685317277146626e-01
         - 7.6515132229919944e-02
         - 3.3975428457627832e-01
         - 2.9516897638207716e-02
         - -9.7319922109041251e-02
         - -3.2246237024925306e-01
         - 1.1562081519207520e-01
         - -2.6757444140417480e-01
         - -1.6114649966004316e-01
         - 3.2955627998147929e-01
         - -1.4797836678960588e-01
         - 3.3076589284685615e-01
         - -2.8519192578111152e-01
         - -5.4201754280294293e-02
         - 5.0040712211900824e-02
         - 3.4508994469142745e-01
         - 3.1213280574228791e-01
         - -1.1457333222432638e-01
         - -2.1613984230365549e-01
         - -8.3826941821336848e-02
         - 2.1450884275324983e-01
         - 3.9554177059954210e-01
         - -4.9598376037392516e-01
         - 2.2221180289723122e-01
         - 1.4768166429324814e-01
         - -7.6674202101244052e-02
         - 1.1164812587066962e-01
         - 8.1277004264339855e-02
         - 1.1076488578895113e-01
         - 1.3417924666627776e-01
         - -3.0557190210891100e-01
         - 5.9591070894572190e-02
         - -4.6828578895858541e-01
         - -8.4953938648132804e-02
         - -4.7872080490176654e-02
         - 7.3972689480797257e-02
         - -1.9488113345538710e-02
         - 4.4000648406005299e-01
         - -6.9825422748556765e-01
         - -2.2584612653861236e-01
         - -1.1630506977149625e-01
         - -2.3844980885692957e-01
         - -9.6490202180190762e-02
         - -2.9386198031091754e-01
         - -4.1288964082205670e-01
         - -1.9716276518083481e-01
         - -1.2995689981878641e-01
         - -1.5809316864098646e-01
         - -8.4545452013793550e-03
         - -1.5189866687479150e-01
         - 3.9015058917311640e-01
         - -2.8595596801366296e-01
         - 4.0020873341555951e-01
         - 1.1325037055633279e-01
         - 1.2735313083528774e-01
         - 1.3263289593512087e-01
         - -1.6084822886955283e-01
         - -3.8569659918794674e-01
         - -1.1368064406941182e-01
         - 3.8374243468303015e-01
         - 5.8368945870430754e-02
         - 5.3719996107342216e-03
         - 3.9974900826450471e-01
         - 5.1896592386711393e-01
         - -7.6460182718079042e-02
         - -2.9608965413164540e-01
         - -1.1627920955358972e-01
         - -6.3490181257962047e-02
         - -4.4657910957751118e-01
         - -2.1169923249671196e-01
         - 1.5050279791123322e-01
         - -7.7924233911947305e-02
         - -3.2570256946477655e-01
         - 2.1398743987820762e-01
         - 4.5180475732240993e-01
         - -1.3186751957113735e-01
         - -4.3394911756139470e-01
         - -1.8074950792889041e-01
         - -2.5977522662195318e-01
         - -2.9509632499015082e-01
         - 3.7027686527764786e-01
         - -1.7501673019913358e-01
         - 1.0433262038326276e-01
         - 3.0862634815022005e-01
         - -6.6502930647662814e-02
         - 5.6185493280408380e-02
         - 3.0468285132616890e-01
         - -4.3447224597143325e-01
         - -4.2677522419036623e-01
         - 1.1451224207883111e-01
         - 3.8053774860396422e-01
         - 2.2077721698882935e-01
         - -5.0167573029601030e-02
         - 5.0128419032689331e-01
         - -3.0944143132235097e-01
         - -1.5360211020901396e-01
         - 1.3476230495896266e-01
         - 1.1022208676885137e-01
         - 2.2251387969682693e-01
         - 1.9984291767889206e-01
         - -2.0218178851143853e-01
         - -3.4857879172568507e-01
         - -3.4305712547696948e-01
         - 1.8961638693378938e-01
         - -4.7926094032388011e-02
         - 6.4964324387127889e-02
         - 5.7720085991100192e-02
         - 2.7468311229000759e-03
         - 4.3853827845827442e-01
         - -1.5635348977116059e-01
         - -2.4777894683208387e-01
         - -3.0624847425393947e-01
         - 2.1727920382320942e-01
         - 1.6152677763933476e-01
         - -2.5974464117747287e-01
         - -4.2279010629097467e-02
         - -2.9724626731022508e-01
         - -1.9177601819564133e-01
         - 7.8329186121100139e-02
         - -6.9620179086163067e-02
         - -5.4947516952123257e-02
         - -1.7021481135267835e-01
         - 3.2587095904128760e-01
         - 1.4336943192336993e-01
         - -5.5342134863698889e-01
         - -1.1537299017032876e-02
         - 3.7456710922455635e-03
         - -2.5720945899057773e-01
         - -4.0658125501510822e-01
         - 4.2347255209071089e-01
         - 1.3822912673803509e-01
         - -3.6572948622676560e-01
         - 2.8949238581254522e-01
         - 4.0792728298112174e-01
         - 5.3789879728099355e-01
         - -3.6393041491452011e-01
         - 1.7459768020457400e-01
         - -4.4855457915253039e-01
         - -1.7146235723058498e-02
         - 3.4501268254456534e-02
         - 4.5203515408468120e-01
         - -2.4294027474558538e-01
         - -1.1863789649657698e-01
         - 1.6267081180569706e-01
         - 3.2065466340166582e-01
         - 6.1774740530350192e-01
         - 4.6529072045045361e-02
         - -2.0118100743838768e-02
         - -3.5299792394240187e-01
         - 4.5313054831825211e-01
         - -2.0314644167145357e-01
         - 3.6713417378389196e-01
         - -2.4549134924185559e-01
         - -4.9856893810358344e-01
         - -2.5850716743805857e-01
         - -1.9652081758604077e-02
         - -5.9116501771249337e-02
         - 2.5273441664132973e-01
         - 2.0909170115985740e-01
         - -2.3419943716752950e-01
         - 1.7617336669327102e-01
         - -6.7166114666268803e-02
         - -3.1372181275270272e-01
         - -1.7772041478314182e-01
         - 1.5358966812263974e-01
         - 5.0380717202418678e-02
         - 2.0151665732545451e-02
         - -5.9113384367202981e-02
         - 2.6606486389944428e-01
         - -2.5578469914658170e-01
         - -5.6644301362594691e-02
         - -1.5138200918722433e-01
         - 2.0927262724713927e-01
         - 1.0711997200948330e-02
         - -1.2837862584164678e-01
         - 1.5963776489963579e-02
         - 2.3867916741962036e-01
         - 2.7664231283202950e-03
         - 8.9382254724351046e-02
         - 5.9017274905227368e-01
         - -2.0210559368051059e-01
         - 5.2578108593159201e-01
         - -2.8034243330189390e-01
         - -7.6037367181208848e-02
         - -2.7120191933711435e-01
         - 3.1939617113735962e-02
         - 2.3390171473200986e-04
         - 4.1838902872802797e-01
         - 3.7242521694818853e-01
         - 2.6055780022860724e-02
         - -2.6247598799467159e-01
         - -1.2369475160203550e-02
         - -9.6704277798151758e-02
         - -1.7114659541374733e-01
         - -2.3640459734420510e-01
         - 7.5195496085562249e-03
         - 3.1102850054307202e-01
         - 1.7871378300494334e-01
         - -1.1288619903539765e-01
         - -3.0921517852352500e-02
         - -6.6467248483237693e-02
         - 5.2423561809544085e-02
         - -2.4556917679875506e-01
         - -1.4757921218999298e-01
         - 2.7110894062438939e-01
         - 1.3518908707810586e-02
         - -2.9837651312005981e-01
         - 1.2977387814862687e-01
         - -4.9889076684437939e-01
         - -1.1069459990732730e-01
         - 4.0774819890282249e-01
         - 8.9914713968758261e-02
         - -6.2953686516720439e-02
         - -3.5385901167343820e-01
         - 4.5496864753578259e-01
         - -5.5564155520876776e-02
         - 4.5761971041173619e-02
         - 4.0077470124162307e-01
         - 1.1075782186323008e-01
         - 2.5788581570932589e-01
         - -1.1867234242285736e-01
         - -5.1467081337207357e-02
         - -1.5959555085941390e-01
         - -2.8983779126262171e-01
         - 5.3631465224212216e-01
         - 2.6078469088032258e-01
         - -1.5552261966467118e-01
         - 5.8916456488960167e-01
         - 3.5490871350642478e-01
         - -4.1191190534087019e-01
         - 8.5219955530430019e-02
         - 3.5047331508042401e-01
         - -1.2037350390062547e-01
         - -2.0877123402052442e-01
         - -4.9091610047569467e-01
         - 1.0710186123338019e-02
         - -7.5855719870438973e-02
         - 1.9933460364667083e-01
         - 2.9151618777328769e-01
         - 1.0347515887529547e-01
         - -4.8435239021484666e-01
         - 4.1734609201692985e-01
         - 3.2465445444900592e-01
         - 8.2383128190310975e-02
         - -1.0961989100089543e-01
         - -2.8738428442619102e-01
         - 7.7502830202679118e-02
         - 1.8049474959442482e-01
         - 1.6061903636853642e-01
         - -2.2399421126789709e-01
         - 1.2521991089128934e-01
         - -1.6031961713479659e-01
         - 5.9081113044732937e-02
         - 4.4364683595504201e-01
         - 3.5787750636547166e-01
         - -1.5458570375216191e-01
         - 2.1862173497129855e-01
         - -1.7037338549091538e-01
         - -4.2598444601243945e-01
         - -1.3601887165242227e-01
         - -3.7935304837045852e-01
         - 1.8194340220765998e-01
         - 1.0280797228025028e-01
         - -3.3572558206617011e-02
         - -3.1185992834724047e-01
         - 6.4882279257024097e-02
         - 1.5486409197437753e-01
         - 2.1226124133031282e-01
         - -4.2670862872455396e-02
         - 4.0262201338214587e-01
         - -3.9605118058386186e-02
         - 3.1388864167659691e-01
         - -6.1345781098983067e-02
         - -1.2673116504892917e-01
         - 3.8747938564071251e-02
         - 9.5018755819630971e-02
         - -7.3296267015400596e-02
         - 1.8960332913202918e-01
         - 1.8908632417627868e-02
         - -5.3630825826066963e-01
         - 6.5287431294065446e-02
         - -2.3542695119563151e-01
         - 3.3409904756575876e-01
         - -7.7983153050518048e-02
         - 1.2794382037429555e-01
         - -1.9720323121628680e-01
         - -1.6286312198224739e-01
         - -1.1313324522086053e-01
         - -1.8040197274720532e-01
         - 1.4800583283101332e-01
         - 1.8031833745352485e-01
         - -1.0846205230550977e-01
         - 2.5063204137023276e-01
         - -3.0171517267853287e-02
         - 3.3079012226066878e-01
         - 9.3817214957821346e-02
         - -5.4753410818146975e-01
         - -3.4343851401728448e-01
         - -1.4397244986580227e-01
         - -8.3001598605466159e-02
         - 2.1077782427200895e-01
         - 1.1370070289493903e-01
         - 2.0463696586355992e-01
         - 1.5923106086498062e-02
         - 7.5016481269002636e-02
         - -2.8915643009507580e-02
         - -8.1802766709954192e-02
         - -7.5576096343771909e-02
         - -4.7158197626044296e-01
         - 2.2073095619536498e-01
         - 2.6807827757866542e-01
         - 3.9467335921926178e-01
         - -1.7261179766580467e-01
         - -1.7694126854032149e-01
         - 1.7726000195753408e-01
         - 3.9130115832824761e-02
         - 4.0927201269489122e-01
         - 1.2068459033638709e-01
         - -7.9705540246990086e-02
         - 1.0077025294913329e-01
         - 7.0412971244201081e-02
         - 1.8062439865679830e-01
         - -3.7716454044790881e-01
         - -1.5168861956492058e-01
         - 5.2422539112015465e-01
         - -2.3069445647405252e-02
         - -1.3007316890596818e-02
         - 1.4167262690347629e-01
         - 4.4898889477806075e-01
         - -4.7612484528385285e-01
         - -2.0190239531920626e-01
         - 3.4546095920376491e-01
         - -2.6274533881239787e-01
         - -4.5943732970441742e-01
         - -5.3917096376206075e-01
         - 4.4682732740047471e-01
         - -2.7665778157075366e-01
         - 4.4058987937388283e-01
         - -1.7453012614127992e-02
         - -7.7828543753438992e-02
         - -4.2717831150185476e-01
         - 3.3079734314791603e-01
         - 1.9313486982612076e-02
         - -2.3487765003731728e-01
         - -4.3121934681638013e-01
         - -7.2150042546481785e-01
         - -3.7984378950533339e-02
         - 2.7380769379751448e-02
         - 5.0633073761418435e-01
         - -4.8755962319161489e-01
         - 2.0620168901462410e-01
         - -3.1999186789374129e-01
         - 3.3491816543770891e-01
         - 5.5064114292475241e-01
         - 3.1463478672267403e-01
         - -1.5502401868358514e-02
         - 1.0300168134908329e-02
         - -2.2921619081345940e-01
         - -1.6418435994999767e-01
         - 2.3990144459000959e-01
         - -2.1360369983750846e-01
         - -3.9256664789454346e-02
         - 3.4164737238162651e-01
         - 2.7157666718624773e-01
         - -1.7445906295371783e-01
         - -3.8032282410734732e-02
         - 4.2478646347599708e-02
         - 7.6838036333447143e-02
         - -4.1205948841084861e-01
         - 2.8654856650918564e-01
         - 6.8829330406214972e-02
         - 1.4308674723923001e-01
         - -2.6769370561633066e-01
         - 3.1271514082203355e-02
         - 1.1642499125884460e-01
         - -1.9278093540703988e-02
         - -3.0861178573039821e-01
         - 3.6191729299595229e-02
         - -5.2532638488913409e-02
         - -6.1264899611659362e-01
         - 2.6157619416295175e-01
         - -5.7261327889512248e-01
         - 2.7341145875004169e-01
         - 5.6671789106998743e-02
         - 3.9963665276463528e-01
         - 1.6615777637481434e-02
         - 6.7424072899253742e-02
         - -4.4436549127375941e-01
         - -3.7397914295924961e-01
         - -1.6736000496675491e-01
         - 2.4017084269890759e-01
         - 1.0335742523377239e-01
         - 1.3061453326288527e-01
         - 2.2207701503491142e-01
         - 3.2433025212990518e-01
         - -4.1111831239726615e-02
         - -3.7429298480127832e-01
         - -1.0022321400227148e-01
         - 2.3548675250672785e-01
         - 3.3577473980877161e-02
         - -1.6620264148538021e-02
         - -1.4731089540242712e-01
         - 2.9482006534932514e-01
         - 1.1342283684368994e-01
         - 1.5566072367265874e-02
         - 2.6904067822296623e-01
         - -3.6095022474015435e-02
         - 1.7297843345676842e-01
         - 2.5161976858117241e-01
         - -2.7136962633004846e-01
         - 7.0603386628260920e-02
         - -3.8960607833589705e-01
         - 2.0092998110116325e-01
         - 1.0495437453174522e-01
         - -6.8471379002136193e-02
         - -2.5918434621063469e-01
         - -3.4999313581874286e-01
         - 3.8314062344009830e-02
         - 1.1906968594620276e-01
         - 1.9508110223566816e-02
         - -8.4114480779102788e-02
         - -3.6050893242214677e-01
         - 4.4071712524002438e-01
         - -1.4318452134158569e-01
         - -1.9395634907091852e-01
         - 7.9340661652793604e-02
         - -5.9620740430630398e-02
         - -6.5535458057883078e-02
         - -1.6394315211172455e-01
         - -1.1419664688609626e-01
         - 2.6843350001348143e-01
         - -6.1007073100819813e-02
         - 4.3071784791517714e-01
         - 1.1831001480470388e-01
         - 1.3038179648574563e-01
         - -9.6978498009026332e-02
         - 6.2111270664192801e-02
         - -4.4830107736787150e-01
         - 6.4025553248101608e-01
         - 1.5712654895833530e-01
         - 1.5666001160940948e-01
         - 1.6084348095410220e-01
         - 1.2817327987904345e-02
         - 3.5672206000319862e-01
         - 4.3217152110915041e-01
         - 2.3408560847184176e-01
         - 1.2316514201532744e-01
         - 9.1100579175238353e-02
         - -1.0924158394045094e-01
         - 1.7279458154086089e-01
         - -3.3792871351205250e-01
         - 2.6827748554124725e-01
         - -4.9237679580342675e-01
         - -1.2847792185930473e-01
         - -1.8040194600095089e-01
         - -7.4496320102982377e-02
         - 5.2901957996760840e-02
         - 3.4900306411395360e-01
         - 1.2014117689220724e-01
         - -3.4903507801499095e-01
         - 6.0192258970110301e-03
         - 6.4164532113732006e-02
         - -3.7138808723129973e-01
         - -4.6519014586276691e-01
         - 1.1807964285509930e-01
         - 2.5629293945922416e-01
         - 5.5870793338905329e-02
         - -1.5420040831052279e-02
         - 5.2876099836058388e-01
         - 2.1827569973306143e-01
         - -1.3842417485795538e-01
         - -3.3816276669947423e-02
         - 2.3088731708189206e-01
         - -2.3931535919865160e-01
         - -4.2441064234891779e-01
         - 9.4874961383704937e-02
         - 3.7724895988963564e-01
         - 9.9654954729601314e-02
         - 2.1645920145579040e-01
         - 4.3507297880106671e-01
         - -3.8983995935322185e-01
         - 2.2412736012130482e-01
         - -1.3435583597322653e-01
         - -2.5628963116446646e-01
         - 4.0306079179207768e-02
         - -1.8047152589377419e-02
         - -2.4837885686831832e-01
         - 4.1745066670019232e-01
         - 4.4524048905869962e-01
         - -4.3953483201923424e-02
         - -3.7140397253264301e-01
         - -1.6286791970811826e-01
         - -1.1555059540608842e-02
         - -4.7174579323464921e-01
         - 2.4479864783151975e-01
         - 1.5384183827560224e-01
         - -6.7630287494211738e-02
         - -7.1556733442750112e-02
         - -2.8422046405859913e-01
         - -1.4861101589484918e-01
         - 1.1229223148003266e-01
         - 2.8620473138564811e-01
         - 2.9458645442157666e-01
         - -1.1663350796492303e-01
         - -6.0155763398841426e-02
         - 7.9524739996050267e-02
         - 8.1201441794301610e-02
         - -1.1005768299668400e-02
         - 3.0808501467380445e-01
         - -1.2056896251926714e-01
         - -2.2402428886146086e-01
         - -3.2211160470667477e-01
         - 3.3019267014097375e-01
         - 2.0810114600091384e-01
         - -4.0440942177646083e-01
         - -5.4685170024509143e-02
         - -2.9893549111965478e-01
         - -1.6550821408076163e-01
         - 7.9549786131236949e-02
         - -8.5050452681962513e-02
         - -9.0407424207525289e-02
         - -3.7263042037332095e-01
         - 3.1632215863357072e-01
         - -1.7421888388931633e-02
         - -4.2702567666353836e-01
         - -1.9426222513740604e-01
         - 1.7910750822728441e-02
         - -3.8320760369661738e-01
         - -3.4851087241643902e-01
         - 3.5651517395045623e-01
         - 1.0465393623899581e-01
         - -3.5290816129661456e-01
         - 6.0711553303786081e-01
         - 2.3852101657828911e-01
         - 4.4590322586750963e-01
         - -8.2947854480836913e-02
         - -2.0561178036030606e-01
         - -6.5275959483007695e-01
         - 3.9759901583535512e-01
         - 1.8321580846299968e-02
         - 4.4150018723760748e-01
         - -1.2518551868745656e-01
         - -1.2680466161017906e-01
