%YAML:1.0
---
opencv_ml_ann_mlp:
   format: 3
   layer_sizes: [ 21, 100, 100, 3 ]
   activation_function: SIGMOID_SYM
   f_param1: 6.6666666666666663e-01
   f_param2: 1.7159000000000000e+00
   min_val: -9.4999999999999996e-01
   max_val: 9.4999999999999996e-01
   min_val1: -9.7999999999999998e-01
   max_val1: 9.7999999999999998e-01
   training_params:
      train_method: RPROP
      dw0: 1.
      dw_plus: 1.2000000000000000e+00
      dw_minus: 5.0000000000000000e-01
      dw_min: 0.
      dw_max: 50.
      term_criteria:
         iterations: 10
   input_scale:
      - 9.9292020060710284e-01
      - -6.4688749734613969e-03
      - 9.4664762983299411e-01
      - -3.1303980501060824e-01
      - 8.3840198114191133e-01
      - -5.6526528777776530e-01
      - 7.0462832777779427e-01
      - -7.0022968584543677e-01
      - 5.9497581105406738e-01
      - -7.7889324733837750e-01
      - 5.5234257796835318e-01
      - -1.1020919075440401e+00
      - 4.9540468715401265e-01
      - -1.3187697554424105e+00
      - 5.7379456298347464e-01
      - -1.5308049982762779e+00
      - 6.0257258800765978e-01
      - -1.6079483806265007e+00
      - 6.5351335277584666e-01
      - -1.9577691631899907e+00
      - 5.9401684749938566e-01
      - -1.9849503632627175e+00
      - 6.6149709479341690e-01
      - -1.9988077357398275e+00
      - 6.0560738341532339e-01
      - -1.6295880303339809e+00
      - 5.6883873188754031e-01
      - -1.5118140752314362e+00
      - 4.9568998497625394e-01
      - -1.3132252806337970e+00
      - 5.5134994600727139e-01
      - -1.1065827733915667e+00
      - 5.9852620374762711e-01
      - -7.9919109166454749e-01
      - 7.0798401548152368e-01
      - -7.0909024037285218e-01
      - 8.3702857850794687e-01
      - -5.5066854617195038e-01
      - 9.3156194918402624e-01
      - -3.3273063939700659e-01
      - 1.0002539776273680e+00
      - 3.1868091944596576e-02
   output_scale:
      - 1.
      - 0.
      - 1.
      - 0.
      - 1.
      - 0.
   inv_output_scale:
      - 1.
      - 0.
      - 1.
      - 0.
      - 1.
      - 0.
   weights:
      -
         - -2.6818971501778415e+00
         - -2.0133585131982401e-01
         - -4.3110408603609667e+00
         - -5.5557326666649871e+00
         - -2.3644325785622100e+00
         - 4.5010181125788917e-01
         - 2.0643624114328927e+00
         - 5.8082212793702626e-02
         - -4.0520397787862594e-01
         - 4.7949229832439286e+00
         - 2.5341257071221635e+00
         - 1.8618165248408523e+01
         - -6.6299232666385854e-01
         - 3.4486850993712483e+00
         - -1.3084833826250031e+00
         - -2.3378802684686795e+00
         - 2.2363437466275599e-01
         - -2.2861367122796881e+00
         - -3.4094911186385124e+00
         - 1.1881885665771270e+00
         - -9.4957662326793422e+00
         - -8.6414146212516041e-01
         - -6.7686304063222922e+00
         - 2.3070738556594339e+00
         - 2.0602647452059153e-01
         - -1.7791896014245165e-01
         - -1.3874834673298733e+00
         - -5.5599129191651055e+00
         - -7.4563401117513500e-02
         - -2.9779271162715659e+00
         - 6.2427040992520733e-01
         - 3.4364427000946178e+00
         - 3.4855322347429807e+00
         - -4.3888891206773306e-01
         - -6.8282640524118110e-01
         - 1.7161709453927272e+00
         - -1.3275814950765781e+00
         - -1.1810127750155488e+00
         - 7.8321361686471136e-01
         - 1.7238287950644033e+00
         - 1.8210034095081391e+00
         - 1.4023835947560364e+00
         - 5.6573455091932594e+00
         - -1.3248774073399266e+01
         - -7.5607744596257165e+00
         - 1.1427617399110521e+00
         - -4.8843747697767466e+00
         - -4.0022998869556154e+00
         - 8.7521226342420171e+00
         - -5.2606173412096471e+00
         - 2.3987169112246960e+00
         - 2.1323639773115030e-01
         - -8.6472715780411458e-01
         - 3.8881777420176995e+00
         - -6.6304941278180041e-01
         - -4.7305432907152287e+00
         - 3.0669498981679211e-01
         - 2.1451317518853363e+00
         - 1.9630860700661359e+00
         - 2.4819999377295976e+00
         - -2.1471962674045280e+00
         - 2.4138212200449365e+00
         - 1.5914635653616577e-01
         - -3.1668128674633520e+00
         - 6.9376233107084795e-01
         - -3.5360734800114813e-01
         - -6.5482117722103583e-01
         - -3.8097380481118537e-01
         - 9.6966164763263896e-01
         - 5.9672443572274536e-01
         - 1.8015634369408204e+00
         - -1.8581285895458648e+00
         - -1.6227841904196301e+00
         - 1.5284009165805428e+00
         - 1.4549514156459536e-01
         - -4.2208410405602148e+00
         - -2.1886217531835110e+00
         - -3.1256714543379971e+00
         - 4.5124590777223977e-01
         - 5.4381348735325918e+00
         - -2.3082905870606356e+00
         - 2.8464220957088036e+00
         - 4.1933042775839968e-01
         - 3.4605933983322599e+00
         - -6.0399350216295069e+00
         - 3.2196265922336913e+00
         - -2.7284911153983202e+00
         - -2.2470093837602736e+00
         - 1.0241899262505587e+00
         - 3.8464235956299642e-01
         - 3.1493072480299356e+00
         - -1.7982744563759658e+00
         - 1.7015321363927067e+00
         - 4.0639979650192437e+00
         - -5.3933303992664217e-01
         - 2.2887382431962617e+00
         - -2.3536330678211068e-01
         - -2.3811727972730954e+00
         - 1.0139652217848760e+00
         - 1.4181780054220190e+00
         - 1.6168075412643059e+00
         - -4.9941397035746542e+00
         - -4.5607756257436333e-01
         - 3.2961372873429875e+00
         - 8.8040570801857687e-01
         - 1.7355555238740781e+00
         - -8.6626648372043533e+00
         - 4.8163515440521341e+00
         - 4.3611735840851129e-01
         - -1.0751163039642764e+00
         - 2.6234853099351890e-01
         - -2.5647059204878642e+00
         - -2.7212677603244551e-01
         - -1.9388304285639564e+00
         - -2.1330124966139001e+00
         - 5.4056657228234617e-01
         - 7.9626182321109440e-01
         - -2.6592016187404477e-02
         - -8.6116039586632803e-02
         - 1.6445742583629845e+00
         - 2.0080935765545558e+00
         - 2.7917729247475909e+00
         - -1.3703573943505494e+00
         - -4.2147395824956488e+00
         - 2.5767341915638853e+00
         - 9.0870969668741230e-01
         - 2.4347700441974451e+00
         - 3.6610998999574107e-01
         - 9.0630962248956792e-01
         - 5.4184408060608460e+00
         - -2.2507079715156175e+00
         - -5.3236064767534286e+00
         - -4.6356087750824920e-01
         - -1.0992897732470642e+01
         - 5.3742260811325995e+00
         - -6.5801405405804738e+00
         - 2.0134365414939053e+00
         - 8.6533766299106796e-01
         - -6.4478132606221727e-01
         - -2.0597944822726539e+00
         - -8.8118160406498691e-01
         - -4.7480843023700275e-01
         - -1.8586640357526235e+01
         - 1.1554545940767094e+00
         - 1.0071562691605416e+00
         - 1.9176163985757582e+00
         - 2.0374737987972140e+00
         - 1.4330258761806514e+00
         - 1.1318565237111609e+00
         - -5.6302885180046172e+00
         - -2.3774973838160082e-01
         - 4.5482339136540179e-02
         - -4.1225068240329392e+00
         - -2.3729489465438974e-01
         - 1.7202349536075627e+00
         - -2.4201390606036370e+00
         - -8.1850030351735548e+00
         - -1.2984898018051346e+01
         - 2.5927554620234034e+01
         - -6.1009409890272925e-02
         - 1.7725805481611989e+00
         - -6.7299952828502647e+00
         - 6.9330635999446599e+00
         - -1.0807065185210796e+00
         - -9.2443386553702389e-01
         - 1.2436195709676190e+00
         - 2.6777677802941882e+00
         - -5.1952820675517568e+00
         - -1.2650510888115725e+00
         - 5.5104982637911276e-02
         - 2.0120582028001159e+00
         - 1.0670548775049953e+01
         - -6.7380475603050627e+00
         - -2.2894656726363394e+00
         - 2.2747487586731765e+00
         - 2.4904893213798390e-01
         - 2.3850221078233216e+00
         - 1.0543092582510449e-01
         - 1.7044284102983855e+00
         - -1.2310717571124505e+00
         - 9.8448348329493882e+00
         - 5.0250615232701064e+00
         - 6.0144889188334016e-01
         - 9.5354796040698198e-01
         - -4.1489901109439167e+00
         - -4.4816190017137112e+00
         - -1.6037559496592246e-03
         - 3.3445931320439923e+00
         - 1.1014767685838263e+01
         - 6.1681055311477084e-01
         - -2.1189046028051226e-01
         - -4.9572876555308216e+00
         - 6.5957986121934820e-01
         - -2.0572373427027926e+00
         - 3.6286724893436739e-01
         - -2.9261555327774769e-01
         - -4.9307325560480040e+00
         - -1.4682485929674082e+01
         - -9.9731829024629709e-02
         - -5.4521735689501000e-02
         - 1.2883689495535020e+00
         - -1.7641684716952730e+00
         - 2.8763761140368094e+00
         - 2.3894280813432189e+00
         - 1.3277478800713605e+00
         - 5.5825171139624530e-01
         - -2.7390515554975523e+00
         - 2.1775966988364068e+00
         - 2.7417660477564256e+00
         - 3.5161415075214980e-01
         - 2.3849587790716233e+00
         - 1.0821319994197606e-01
         - 1.1368135754964925e-02
         - -1.3221900910529929e+00
         - 1.9749732775173838e+00
         - 6.0263338586650683e-01
         - 3.7306719638313965e+00
         - 1.1648717173256951e+00
         - 2.1942243807633748e+00
         - 3.2863287649438799e+00
         - 1.9580346862582396e+00
         - 4.0315997722246859e+00
         - 8.0241506501568194e-01
         - -8.1315084587117659e-01
         - 1.1254397831453560e+00
         - 1.5259858333654190e+00
         - 3.3828994428918229e+00
         - 7.0577283920218148e-01
         - 1.7358308252589902e+00
         - 1.7834653457111243e+00
         - 3.8920322864963475e-01
         - 3.1787121749134445e-01
         - -4.5235594764612130e-01
         - -4.1859797313260372e-01
         - 1.4198890484884881e+00
         - -7.8247916453914004e-02
         - 2.5597620880923633e+00
         - 3.2461701595497967e+00
         - 3.5649496493593245e+00
         - -1.1580003983088014e+00
         - -5.8756661550771905e-01
         - 3.2579256799822236e+00
         - 1.1619022677137352e+00
         - 9.5094894643541272e-01
         - -5.1005359693679153e-01
         - -3.4512321530848350e-01
         - 1.6831840734611232e+00
         - 1.2592937608263693e-01
         - 9.7818731736632525e-01
         - -1.9025901839630670e+00
         - -2.1342378072029087e+00
         - -6.1248848184965532e-01
         - 7.6841842148308281e-01
         - -2.2528447484757841e+00
         - -8.6090032174504305e-01
         - -9.3583523066117280e+00
         - -1.6781312443180249e-01
         - -4.0316928517831991e+00
         - 1.7182709283995392e+00
         - -3.1472170525398280e+00
         - 2.7127542517099359e+00
         - -8.7435372363160360e-02
         - 1.5736287593662883e+00
         - -2.8140511641232357e-01
         - 5.1964137819196177e-01
         - 1.9811939184618901e+00
         - 7.1316915342051546e-01
         - -8.0192973866499673e-01
         - -3.1938786647476541e-02
         - -8.5532564427626678e-01
         - 3.1764561317565860e+00
         - 1.4259805006785511e+00
         - -4.5070954266690642e+00
         - 4.7897822676455259e-02
         - 1.1792179002321317e+00
         - 8.7374932976008566e+00
         - 8.0118849096529277e-01
         - 8.4692876373765706e+00
         - 1.4563669920568287e+00
         - -4.4138343145687065e-01
         - -5.4672708783926971e-01
         - -1.6625590059483706e+00
         - -1.2862682118118758e+00
         - 1.5938472560543180e+00
         - -2.5927279806650576e+00
         - 1.1656319973753243e-02
         - 1.2234137560885452e+00
         - 3.1321986122049242e-02
         - 9.1987996160077778e-01
         - 5.0267508524774343e+00
         - 5.7301656871848150e-01
         - -2.2152424961345174e+00
         - -3.6884066164562257e-01
         - -7.5151305082584265e+00
         - 4.0234239288405860e+00
         - 2.7181902198668362e-01
         - -2.1100777795574532e+00
         - -9.3818640894122058e+00
         - -1.4896202562132185e-01
         - 1.0443941550736588e+00
         - -8.2410249334492103e-01
         - 2.6100993944323325e-01
         - 7.5637657019243049e-02
         - 2.8006915074949488e+00
         - -3.3505248100688123e-01
         - 7.6000308973974162e+00
         - -3.0878383002945764e-01
         - 6.7629699627946840e+00
         - 2.6211063011358751e+00
         - 1.4988087387012412e+00
         - -1.9951209878477405e-01
         - 6.5329405253208372e-01
         - 1.2211782978598129e+00
         - -3.4305465087340603e-01
         - 6.2192058571126783e+00
         - -1.2860840566305192e+00
         - 2.4194626655019347e+00
         - 1.0039528109352600e+00
         - -3.5509024469391677e+00
         - -2.6037602087851610e+00
         - 8.6733266514136986e-01
         - -4.0413927568963182e-01
         - -2.5045893105588704e+00
         - -5.2434618059853078e-01
         - 2.0701931836460412e+00
         - 2.0551013827782612e+00
         - 3.6939890919668295e-01
         - 1.1695283673473229e+00
         - -1.0204251863073929e-01
         - -6.2533527147687440e-01
         - 6.8064390725116053e-01
         - 2.5315911144417163e+00
         - -4.2797372117799132e-02
         - -1.8404891411315423e+00
         - 4.0784022332526497e+00
         - 1.3742350698101441e-01
         - 2.5756119729902722e+00
         - 5.5711475895931439e-01
         - -7.5418262892165899e-01
         - 1.3762130678047590e+00
         - -1.2922233234119154e-01
         - 4.1311352911072807e-01
         - -1.4453658168700390e-01
         - -4.5659498611628296e-02
         - 2.3447789937700070e-01
         - -4.4990005809686924e+00
         - -5.2347724612869797e+00
         - -1.7075268804578210e+00
         - 5.7968023610510553e+00
         - -1.6740524157757211e+00
         - -1.1264758650959821e+00
         - -1.3032770909730897e+00
         - -2.9800945406565211e+00
         - -2.3517542128131819e+00
         - 1.1213793965664542e+00
         - -1.7343277332340792e+00
         - -2.1686857627264969e-01
         - -3.3289426233945134e+00
         - 5.2236366454208261e-01
         - -1.2656717511513005e-01
         - 2.0581219344108828e+00
         - 6.4325964438005234e-01
         - 2.3195945056131047e+00
         - -2.1847675257473260e+00
         - -1.8359714960082820e+00
         - 6.6002075416211181e-01
         - 1.5392170551177853e+00
         - -2.2750237505062527e+00
         - 1.1528079003938937e-01
         - -1.6155755027417373e+00
         - 3.3166186973397815e-01
         - -2.2738179858971632e+00
         - -1.7608806820521656e+00
         - 1.7701572959237510e+00
         - 2.8733147916678647e-01
         - 6.8478600919783550e-01
         - -4.5522954487590117e-01
         - 1.0782851608148976e+00
         - 6.4904985928674623e+00
         - 1.3952592093747276e+00
         - -1.3066845590860421e+00
         - 6.3696761403085256e-01
         - 1.4966771376241454e+00
         - 5.3985014510604790e-01
         - -7.1813877192440423e-01
         - 1.7213191379444153e+00
         - 5.1039182837598496e-01
         - 3.4479310561370302e+00
         - 1.8343714231592751e+00
         - -9.0736260107385225e-03
         - 5.0113841460042403e+00
         - 1.2797336918493252e+00
         - -5.2666095160183319e+00
         - -3.5287631110599196e+00
         - 3.4328513186518439e+00
         - -4.4411180177007537e-01
         - -5.1034068541092148e-01
         - -1.5628370414847494e+00
         - -8.3850190372022904e-04
         - -5.0236025011294172e-01
         - -5.2835175972545798e+00
         - -7.9534025176927303e-01
         - -7.5506420362329463e-01
         - 1.7901173136054656e+00
         - -2.8679210716692816e-01
         - 8.7171077202554912e+00
         - -2.0548575150868866e+00
         - 6.4465409898286874e-01
         - 6.7679071705524345e+00
         - 6.1368282515261177e-02
         - -9.4197002111115768e-01
         - -2.5288913449032813e-01
         - -3.5565459431220847e-01
         - -2.7451683362776893e+00
         - 4.1325595291826183e+00
         - 1.3515153349665030e+00
         - 3.6815789548512545e-01
         - -3.6174512537918974e-01
         - 3.4580183500799011e-01
         - 1.2392473372161021e+00
         - 1.0885753019385982e-01
         - -1.3204626315342649e+00
         - -5.4337299424755940e+00
         - -6.6292231703645871e-02
         - 5.7520561688748089e+00
         - 6.4385474600572434e-01
         - 2.6888403295297170e-01
         - 1.5685779292807411e+00
         - 2.9200538484394110e+00
         - -7.4196242600899576e-01
         - -4.9187768716590763e-01
         - 3.9172700870468620e+00
         - -4.5036361804037961e-01
         - -2.5969707621342764e-01
         - 1.8489149700150909e+00
         - -7.0978111383770859e-01
         - 3.6402969152034270e+00
         - -3.7774147528890439e-01
         - -1.8704735630661360e+00
         - -8.8961139484014806e-01
         - 3.7533872388748879e-01
         - -4.2664654906381649e-01
         - -1.9446241022625887e-01
         - 6.1768421042845789e-01
         - -1.1569647236139233e-01
         - 2.2547374835200129e-01
         - 3.4369923666731879e+00
         - -2.3848768851446467e+00
         - 1.2259047131575147e+00
         - 3.6455338776803212e+00
         - -3.3516180023254645e+00
         - -3.1737136078330264e+00
         - -1.9626997802868986e+00
         - -1.1264411543715376e+00
         - 1.4744649759237265e+00
         - -2.5930905528766623e+00
         - 1.6990794822389654e+00
         - 1.4219545536796594e+00
         - 1.0472183981442371e+00
         - -1.2274651390636033e+00
         - 8.2409335980532250e-01
         - -2.7164801115534343e-01
         - -1.3667861400105337e+00
         - -3.4111316189786600e+00
         - -5.1053392593669455e-01
         - 1.8463625639937287e+00
         - -1.5671823343931650e+00
         - -8.4722685128247732e-01
         - -1.0002636749321969e+00
         - -2.3281624328051738e+00
         - 8.6617648572986710e+00
         - 2.7629846075045794e+00
         - -1.1913169259262304e+00
         - -3.3966449025074104e+00
         - -7.2900458596158313e-01
         - 1.3154865561224931e+00
         - 8.6960121299400317e-01
         - 1.7101095590147339e+00
         - 1.4561375083481209e+00
         - -5.7897680158174858e-01
         - -2.9735173571640905e-01
         - 7.6368340500351339e-01
         - 1.5747635864584000e-01
         - 1.3191791469168175e+00
         - -3.2714648622168796e+00
         - 2.0027893565896946e+00
         - -2.8218129896772054e-02
         - 1.8634208336943960e+00
         - 2.2489932305713785e+00
         - 1.7402273307003155e+00
         - 3.4167466025328714e+00
         - -1.8416705669899753e+00
         - -4.2191563382565143e+00
         - -1.3484198351326337e+00
         - 1.6718337511152619e+00
         - -6.6179050946075083e-02
         - -2.8598745093317710e+00
         - -6.2132387825708058e-01
         - 8.1130695580570944e-01
         - 1.6579663718415247e+00
         - 3.1305339563954311e+00
         - -2.0303749666004411e+00
         - -1.1057081576903269e+00
         - -3.4428857941592259e+00
         - -4.5290941201664898e+00
         - 6.3018771369488369e-01
         - -9.5672781139305774e-02
         - 2.6896605785316132e+00
         - -1.0424061471603521e-01
         - 1.4654638093005853e-01
         - -7.1692422105951947e-01
         - 4.5423208459148856e-01
         - -2.1725664664053523e+00
         - -5.1650786834115336e-01
         - 2.5781784518810817e+00
         - 7.8872626085088160e-01
         - 5.1574342830833171e+00
         - 2.7732116734867668e-02
         - 2.0434613277772153e+00
         - 2.3643394235383708e+00
         - 1.6570522888792034e+00
         - -6.2956967426266136e-02
         - -2.4806475263986343e+00
         - -7.5914327924373692e-01
         - 2.0221129831840146e+00
         - 2.1996095576274262e+00
         - 2.4187051243645097e-01
         - -6.7611743660266510e-01
         - 4.6685216718837479e+00
         - -6.5303515691478065e-01
         - -1.7899536733387154e+00
         - -1.8557793616448484e-01
         - 2.4971142375295269e-01
         - -7.4890096563427981e+00
         - 4.7331480048894026e+00
         - -7.2640666672883117e-02
         - -2.8073744578095581e+00
         - -4.5856031783121667e+00
         - -2.2857919421518345e+00
         - -1.8667238716249382e-02
         - -8.5346964128076586e-01
         - -6.4029969289074318e-01
         - -7.4686774824131108e-02
         - 5.9848638165106172e-01
         - -1.5055130607125324e+00
         - -4.5453532101834320e+00
         - -8.3484155728687959e-01
         - -2.6022721351562605e+00
         - -1.7067671122634382e+00
         - -2.2272914796174215e+00
         - 2.0087774316462199e+00
         - -2.5575232177147118e+00
         - -3.3637860643727997e+00
         - -9.9136475580223493e-01
         - 1.8038364938719147e+00
         - 1.7190880242206439e+00
         - 4.2710566129813268e+00
         - 5.5786207275871769e-01
         - 1.4481017945911978e-01
         - -2.1640130322128925e+00
         - 7.8100278006069646e-01
         - -1.3434028926345065e-01
         - 8.7210260992343045e+00
         - -3.7138972952036373e+00
         - -1.7069848265530490e+00
         - 7.0445639999098706e+00
         - 7.3448292463196285e-02
         - -4.1635649872821006e+00
         - -3.7620175649004534e-01
         - -3.4993234580481736e+00
         - 2.6104965876476021e+00
         - -8.7300120929876590e-01
         - 2.3880545706285554e+00
         - -2.3274311370924767e+00
         - 4.4918840060087772e+00
         - -2.6087607165198023e+00
         - -4.6764360288089435e-01
         - 1.9360734914307662e-01
         - -1.0341079541686482e-01
         - 4.9090275205714407e-02
         - -2.6710206705408135e-03
         - 3.3148778369871539e+00
         - 9.5218473079390851e+00
         - 2.6198252001189646e+00
         - -2.1554297615445215e+00
         - -1.4392677907088953e+00
         - -4.4637668831931796e+00
         - -9.8477677240493833e-03
         - 4.7328904026967873e+00
         - -3.8209249977112636e-01
         - 3.7439498542664085e-01
         - -1.3596408893475704e+00
         - -2.8893113260680021e+00
         - -4.1083251065505380e+00
         - 1.1205923420246946e+00
         - -1.0343283252957638e+00
         - -3.3555883247465661e+00
         - -8.2785877116310747e-01
         - 1.5041548695304368e+00
         - 5.9163179201189409e-01
         - -1.2982637436810132e+00
         - -1.4518313375085306e+00
         - -1.1961355489031242e+00
         - 1.7520062563680754e+00
         - -2.3288229378337100e+00
         - 4.8700161806253117e+00
         - 6.6018928387215803e-01
         - 1.7210915558310922e+00
         - -1.9899193073577377e+00
         - -6.0687959894306576e-01
         - -3.9019910381980627e-01
         - 2.4987217989800614e-01
         - -1.1351185120503582e-01
         - -2.9582150505442151e-01
         - 7.3581998348482038e+00
         - -6.0803729128891897e+00
         - 2.6372338703065585e+00
         - -3.2951756215432790e+00
         - 3.7410268338957708e-01
         - 3.8111034204772232e-01
         - 1.6300178365648690e-01
         - 1.9577366898820747e-01
         - 3.4452961662086246e-01
         - -3.8367647699040963e-01
         - 2.5212826056402227e+00
         - 1.0982196343658062e+00
         - -4.9348455560294818e-01
         - 6.2805495709586073e-02
         - 1.0972676623060078e+00
         - -6.4648600996460936e-01
         - 2.2088475263046452e+00
         - 8.2334345867234005e-01
         - 3.8377836593110465e-01
         - -8.1804676131464511e+00
         - 1.1533015065815029e+00
         - -2.5671099939245119e+00
         - -7.9308359195532319e-01
         - -1.8368482764389304e+00
         - -5.3035486343319693e-01
         - -3.4185679144812747e-01
         - -3.3263878970523175e-01
         - 6.8803312904395120e-02
         - -2.8687998562082845e-01
         - -1.9334260102955178e-02
         - -1.0664185833504014e+00
         - -1.1388668918441267e+00
         - -8.5054187907850165e-01
         - -3.0267709926266589e-01
         - 1.8772584990909391e-01
         - -3.9438543876044618e-01
         - 1.8587807222511954e+00
         - -1.1859266577407013e+00
         - -2.3920544321681567e+00
         - 4.0797800565917752e+00
         - 1.4646523136394860e+00
         - -4.0597481405624669e-01
         - 1.7787246050224272e+00
         - 1.7476615314504076e+00
         - 1.7080327864759672e+00
         - -3.7664338286834065e-01
         - 2.1202238127158033e+00
         - 6.4799210719921202e-02
         - 8.7507308257162180e+00
         - 1.4599064319277480e-01
         - -8.4090622402864168e-01
         - -2.5560123181131877e-01
         - 3.2182694819317126e-01
         - -6.7586148391296472e+00
         - -1.0016250640498801e+00
         - -1.1052162630467324e+00
         - 4.1601564550515879e-01
         - -3.1954694191457195e-01
         - -1.9632525861849150e+00
         - -2.2789458382620506e-01
         - 3.2747195725982308e+00
         - 1.7164669280896763e+00
         - -4.1893459877604666e-01
         - 2.2866802874358845e+00
         - 3.0641588311857415e-01
         - 2.3066632209754245e-02
         - 3.4319063804094985e-01
         - 9.2603924002881743e-01
         - 1.0660300271216608e+01
         - 2.8195210542857185e-01
         - -3.3456557933923610e+00
         - 2.2094292195261760e+00
         - -4.1387217970046910e+00
         - 5.4695142702444759e+00
         - 2.2724166375485950e+00
         - -1.3110251840987419e+00
         - 1.5264380631056613e+00
         - -3.4913536911688436e-01
         - -3.1122362929855041e-01
         - -2.6262718262664340e+00
         - -9.1292101874630494e-02
         - -1.1162119639071089e+00
         - -9.6755383686220309e-01
         - -4.1836439072275411e-01
         - -1.9928199328058387e+00
         - 1.3106848200935861e-01
         - 1.1061851423698734e+00
         - -9.1967540681074489e-01
         - -5.9974860568424648e-01
         - 4.1860900740647473e+00
         - 1.3118359052664350e+00
         - 7.0735341234574900e-01
         - 2.4073653772346288e+00
         - 6.3566278113516206e-01
         - -1.1974504339104111e+00
         - 5.1389636624160353e+00
         - -1.2257170524699861e+01
         - 1.8613723914784592e+00
         - -1.3674127884961824e+00
         - -2.2640921536984449e+00
         - 2.4063495385677611e+00
         - -1.3180874451438918e+00
         - -7.6017258762220241e-01
         - -4.2253193515699339e+00
         - -1.2316290757446735e+00
         - -3.6420216119693349e-01
         - 1.9225470076369535e+00
         - 1.2753118185140611e+00
         - 1.4857175797521252e+00
         - -9.1843553075234696e-01
         - -1.3973731214830072e+00
         - 1.5286723251868453e+00
         - -2.2345909415361227e+00
         - -1.1360433313518650e+00
         - 1.7194643260627198e+00
         - 3.5544472734788424e-01
         - -1.4431520567380599e-01
         - -1.9098354286735693e+00
         - -3.9869824303624968e-01
         - 3.7368558681262209e-02
         - 1.0348030566711319e+00
         - -2.4679729378785082e+00
         - -3.8756425735886219e-01
         - 1.3954823461656782e+00
         - -2.3201263706630719e+00
         - -3.8785700855092392e-01
         - -2.2181990998456824e-01
         - -2.9758948400175145e-01
         - -9.5515067792527930e-01
         - 2.0287598822380546e+00
         - -2.2445616051830437e+00
         - 2.4388470146862100e+00
         - -3.6450810603359884e+00
         - 1.7404752621243957e-01
         - 1.0533729349002598e+00
         - 4.0927942355144742e-01
         - 2.5151358080007158e-01
         - -5.5774465861930533e+00
         - 6.7790317098613107e-01
         - 4.4817918804871653e+00
         - 5.3585813073575062e-01
         - 1.1690189278888212e+00
         - 4.2849741007908371e+00
         - -1.0065089721411073e+00
         - -4.7919116489910196e-01
         - -3.1235776937553145e-01
         - 3.9748608216664962e+00
         - 5.6894788198913981e-01
         - -6.6756617201252777e-01
         - 6.1589915261789541e+00
         - -6.4206348614022346e+00
         - 1.1081565281614711e+00
         - -1.5391947827743970e+00
         - -4.2827165306209949e+00
         - -2.0338961944100156e+00
         - -7.5267072449831476e+00
         - -4.7967916734511229e-01
         - 1.3143634375459295e-01
         - -4.4631188604775831e+00
         - -1.5589012628752532e+00
         - 3.6726379347547540e+00
         - 2.2081351183866320e+00
         - -1.9676090040370069e+00
         - 5.1970629110970434e-01
         - -6.4704492125481194e-01
         - -3.3534384002092557e+00
         - -4.7999734703465213e-01
         - -1.2920066300822213e+00
         - -9.6475460821942116e-01
         - 3.3778373322487290e+00
         - -2.7070709219258715e+00
         - 1.1432769198452286e+00
         - -6.3438990541174667e-01
         - 3.1668482162076237e+00
         - 8.1368653149754167e-02
         - -1.2032529097832403e+00
         - -5.1738948350697866e-01
         - -6.1146804276317224e-01
         - -6.2036905572713144e+00
         - -1.3359107438999525e+00
         - -1.3031953292795513e+00
         - -5.3700646277428132e-01
         - 1.5221843030502649e+00
         - -2.1372481831308665e+00
         - 4.0065121901805805e+00
         - -5.8627886408789842e-01
         - 1.5864781202918751e-01
         - 8.1323748621857850e-01
         - -1.3158167232067659e+00
         - 1.0429747986212487e-01
         - -2.6987052012260300e+00
         - -1.3709082373902555e+00
         - -1.7065940240548185e+00
         - -1.8011757058841389e+00
         - -8.3567465089373405e-01
         - -8.9797637350336912e-01
         - -5.7641545083098382e+00
         - 6.4026874728793082e-01
         - 4.5711732016931137e+00
         - -2.5029316816411740e-03
         - 9.2251716241484683e-01
         - -2.9054407691078969e+00
         - -3.9879688332721059e+00
         - 3.6995081369223928e+00
         - -2.5049326586437819e+00
         - -2.1888008910484507e+00
         - 6.6544881794614719e-01
         - -6.5382008113667645e-01
         - 2.3937385216890075e+00
         - 1.7285819736964201e+00
         - -1.4718515047925407e+00
         - 3.3152941080783429e+00
         - -2.2647299402241354e+00
         - -2.4044395336125906e+00
         - -4.2267248067543886e+00
         - 3.3071575842829271e+00
         - -2.5042889669379083e+00
         - -6.7652241417645724e+00
         - -3.6894883125148978e+00
         - -4.1207214730067415e-02
         - -1.2548976238679163e-02
         - 7.4942358954139332e-01
         - -3.7422636126074393e-01
         - -4.8928919001342330e-01
         - 6.8697128909301037e+00
         - -4.1631304021918627e+00
         - -2.7053644601772149e+00
         - -5.4658452640214552e+00
         - -1.6147792326661512e+00
         - 1.7331957609295467e+00
         - 7.4915077954435194e-01
         - 9.3642425097887960e-01
         - -1.0719345410815139e+01
         - 1.5302446102733711e+00
         - -4.4846936224617631e+00
         - -2.2391897968863889e-01
         - 9.8933941677445592e-01
         - -2.2641719212604094e+00
         - -2.1978978845960873e-01
         - -1.3467941588518260e+00
         - 2.0075981579906990e+00
         - 1.4538376007201823e-01
         - 1.1958951502365753e+00
         - -5.3160109646294895e+00
         - -1.2396302088981490e+00
         - 3.2005885738467286e+00
         - 1.7741094900475853e+00
         - -3.1863771751825452e+00
         - -7.5543036825786536e-01
         - -3.8050285349225998e-01
         - -4.3439359825922375e-01
         - 9.2725027659706249e-02
         - -7.2321199345675757e-01
         - 1.2975556686649132e+00
         - 1.7888014630795488e+00
         - -3.0681271038610936e-01
         - -2.9224289068700511e+00
         - -2.9909960073898262e-01
         - -1.2358464591394491e+00
         - 3.6418800949593448e+00
         - 6.5860775534517249e+00
         - 2.2226273081203018e+00
         - -9.4353415092503085e-02
         - -4.1842636633337840e+00
         - 2.2402333782043626e-01
         - -1.7692433676323622e+00
         - -1.2685948036192896e+00
         - -1.4076696922318006e+00
         - -8.4251022333445325e-01
         - 6.2169800267324549e-02
         - -2.4227121070589447e-01
         - 1.8498347268411410e+00
         - -2.9449417934568234e-01
         - 4.2717128126412895e-01
         - 8.3720215062763859e-01
         - -1.7968852165206961e+00
         - -3.5330014482009848e+00
         - 5.1784031475944428e+00
         - -2.2068058546320160e+00
         - -5.5026700302551590e-01
         - 3.4127149653588895e+00
         - -1.6320590213035965e-01
         - 9.0788821057553898e-02
         - -1.8526392011381161e+00
         - 1.3350807039541328e+00
         - -2.2665369459087610e+00
         - -4.7103584586320302e-01
         - 8.1711299818464109e+00
         - -1.6084833580668551e-01
         - 7.7590836490620374e+00
         - -1.3297710966197471e+00
         - -6.2971179947151157e-01
         - -2.9523915403444700e-01
         - -4.0220548573684027e+00
         - 9.3748729962980004e-01
         - 5.4828198811707480e+00
         - -1.4985142254601080e+00
         - -2.4187033303856229e-01
         - 3.9637179908501103e+00
         - 1.4157318900703677e+00
         - -1.0479365821841742e+00
         - -4.8431985494016967e+00
         - -7.8580338150154816e-01
         - 4.3760044084664118e+00
         - -7.4212298662176970e+00
         - -2.9622226071335960e+00
         - -3.7224257545062911e-01
         - -6.1820264735807529e+00
         - 2.1689080368338436e+00
         - 7.5908886102712669e+00
         - -8.2387783898953337e+00
         - -1.6995792855185652e+00
         - -7.1687219540306879e-01
         - 6.2065308922108828e+00
         - -1.8438699958451155e+00
         - 5.3717728233029796e+00
         - -2.6044477049805700e+01
         - -9.3885615596309098e+00
         - -5.7481811381402288e+00
         - 5.6451847879097130e+00
         - -7.1321611369256388e-01
         - 8.3535708731074865e-01
         - -8.7417151819205552e-01
         - 7.7779287392810588e+00
         - 4.7820099043795885e+00
         - -6.6745568095303236e+00
         - -9.2004557356947714e-01
         - 5.3914551404560751e-01
         - -3.0338847940956510e+00
         - 5.3551069996024658e-02
         - 1.7779343460009218e+00
         - 1.8302889103464790e+00
         - -4.1150683060646172e+00
         - 1.0808396205968310e-01
         - 2.7067112614936173e-01
         - -2.4956746970939192e-01
         - 7.5020580595406694e-01
         - -3.3019515907154218e+00
         - 1.2261668875858789e+00
         - 1.4643576852087295e-01
         - -4.3165143365617087e-01
         - 2.0252100798061282e-01
         - -3.6830447960299861e-01
         - -1.4824553309176425e+00
         - -3.9731716568573172e-01
         - 8.6243269913466420e+00
         - 5.7817890884566370e-01
         - -4.8162766934407024e+00
         - -2.5599503609051246e+00
         - -4.6867592958756621e+00
         - -1.0882949546111591e+00
         - 6.6843777095020029e-01
         - -4.5413297341977277e+00
         - 6.4877048177038821e-01
         - 9.6855216027725610e-01
         - -3.2890331687094156e+00
         - -4.7970384162483815e-01
         - -7.5957880722060356e+00
         - -2.4853447912578930e-01
         - 2.9956895306539280e+00
         - 2.3793076302476228e+00
         - -4.6438523754268524e-01
         - -3.5893309043292998e-01
         - -8.6748490536786116e-01
         - -6.0392887390015648e+00
         - -1.6257276723633018e+00
         - 6.4661195501915514e-01
         - -1.2861370883056278e+01
         - -3.5250968852775211e+00
         - 1.4622544823151118e+01
         - -3.1536429615232273e+00
         - 1.1969390017245674e+00
         - -8.9366764253852793e-01
         - -1.2963976892159809e-01
         - 4.9438745790595051e-01
         - -6.9060704328350608e+00
         - -4.6056621801154183e+00
         - 5.2730723851455998e+00
         - -5.5785447929893621e+00
         - -2.8424564134477874e+00
         - -2.1728618427973467e+00
         - 1.4541123022570894e+00
         - 8.5972970063508818e+00
         - -1.1111121626367622e+00
         - 2.4056638080843111e+00
         - 2.1004528333178407e-01
         - 6.3529451835124073e-01
         - 5.5277556381663597e+00
         - -9.4438571569109522e-02
         - -3.1226679750742381e-01
         - 1.3585223851056094e+00
         - -2.1903365724382581e-01
         - -2.9930563835477502e+00
         - -4.2806145356585024e+00
         - -2.3702058145861558e+00
         - -1.5324757988261768e+00
         - 2.6483069237466732e+00
         - 4.5271826980857488e-01
         - 1.6530134801408671e+01
         - -1.2059050180942892e+00
         - -2.1148217269703373e+00
         - -4.5006898506640907e+00
         - -2.9712158957657593e+00
         - 2.8136751789517249e+00
         - -6.7534439374272219e+00
         - -1.3680060361483743e+00
         - 1.4510866151754526e-01
         - -1.2156810863847721e+01
         - 1.7845020006232956e-01
         - 7.5256104782927813e-01
         - -7.5204525790911552e+00
         - -1.2153005123984422e+00
         - -6.2325779406432424e+00
         - 1.8734725292250706e-01
         - -1.0772605164293303e+00
         - 4.9946989741886432e+00
         - -1.2370170286520827e+00
         - -2.2793419968689181e+00
         - -5.4379032118351613e+00
         - 4.7778668734041432e+00
         - -2.4831773004617066e+00
         - 6.3673573111146442e-01
         - -1.2985691660851297e+00
         - 1.8080424762909386e+00
         - 5.4245972775060416e+00
         - -8.6501242809786905e-01
         - -4.1198109584480480e-01
         - -4.7031347181430339e-01
         - -1.6037923289491141e+00
         - 2.2464556569557226e-01
         - 8.9574711660650819e-01
         - 9.9899519800788532e+00
         - -2.7008352639817375e+00
         - 4.9237800557898070e-01
         - -4.8927757255000548e-01
         - 6.6865009349906703e+00
         - 3.9627236035175983e-01
         - 1.9894907495639309e+00
         - 6.6817655508992972e+00
         - -7.1181821911654536e-02
         - 1.5117701230239051e+00
         - 3.5873003542868720e-01
         - -3.9730161798000809e+00
         - 1.4843965108199322e-01
         - -3.7976411772900576e-01
         - 1.4251593334806709e+00
         - -3.2621940763210495e+00
         - -7.0973847387158013e+00
         - -4.8032074060940948e+00
         - -4.9021851516698813e+00
         - 2.8329228225784536e-01
         - 1.8128881332712266e+00
         - -8.6988121976450152e+00
         - 2.2793294091930818e+00
         - 1.8399840794189981e+00
         - 1.1440300207815577e+00
         - -6.4331488941096693e-01
         - -1.6599561763173702e+00
         - 6.0418818827492282e-01
         - 2.2576084564150274e+00
         - -8.9505268635856861e-01
         - 1.1538694906598035e+00
         - 1.1579302765843444e+00
         - -4.2462732731673096e+00
         - -5.4710402601834183e+00
         - -7.1245239710790920e-01
         - 1.2656839669977653e+00
         - -3.3908382718276595e+00
         - -1.0114124697702184e+01
         - 9.2857922354787839e+00
         - 3.4284659641533821e-02
         - 1.8516195688166606e+00
         - 6.3985743258877992e-01
         - 2.0180441261473714e-01
         - -3.5877524140806552e+00
         - -9.4417512120785219e-01
         - -9.8559694301159473e-01
         - 2.4176199794017683e+00
         - -3.6364319991596581e+00
         - 1.6766790284741653e+00
         - -2.0370815160826510e+00
         - 1.4834936444287381e+00
         - 1.4725018387021775e+01
         - -2.9478154904416227e+00
         - -1.1152525358675724e-02
         - -8.7327796045061590e-01
         - -1.5907446388003885e+00
         - 4.1028212598584846e+00
         - 4.1961748933015457e+00
         - -1.8880246311118425e+00
         - 6.3243161343901400e-01
         - -6.1567852649030730e+00
         - -1.3356594496226590e-01
         - -2.7598609116986217e+00
         - -5.5248244348408115e-01
         - -1.4233339854851609e-01
         - 8.8069589411676183e+00
         - 3.3049516498422626e-01
         - 5.2714098184632230e-01
         - 1.2057097116420082e-01
         - -9.6773323233446595e-01
         - -4.0177561812919533e+00
         - -4.0932267083603211e+00
         - -1.0072456311775549e-01
         - -2.2747469357017573e+00
         - -2.6724904314173630e+00
         - 3.0998813643518608e-01
         - -3.5433685830857495e+00
         - 8.3826846811648192e-01
         - 1.4980974064956909e-02
         - -4.0239626440039249e+00
         - -4.1280993619155204e+00
         - -6.5089764388424083e+00
         - -1.8994639945675409e+00
         - -1.0949196873361345e+01
         - 3.2456404567317737e-01
         - -6.8264420342888563e+00
         - -2.8489368383734752e+00
         - -3.4621227497772202e+00
         - 3.1092223490822910e+00
         - -2.9714777213669907e+00
         - -2.7274047577196647e-01
         - -1.9900063109119466e+00
         - 1.6816685311510300e+00
         - 2.2390998337203651e+00
         - -3.6847952857202912e+00
         - 1.4342799835686787e-02
         - -3.4359552899743162e-01
         - 4.3701881859459224e-02
         - 8.9740208346025030e-01
         - 9.1622446793620682e-01
         - 5.8281087656670050e-01
         - -7.6741224185267249e+00
         - 9.6863038579780314e-01
         - 7.2149211371204114e-03
         - -9.3165639362958119e-01
         - -1.0765383567429072e-01
         - 3.8999914839686900e-01
         - 2.3531173416622426e+00
         - -3.9247839406493417e+00
         - -1.2832536478401528e+00
         - 1.3170379314437552e+01
         - 3.5711607571611514e-02
         - 1.5157716452082837e+00
         - 1.6867803344760612e+00
         - 1.0027405741457521e+01
         - -1.3662489694806854e+00
         - -4.1105386018509398e+00
         - -2.8121469336079583e+00
         - 7.6570163149189385e-01
         - 1.6153724425978230e-01
         - -3.7605553351234500e-01
         - -1.8868775787220717e+00
         - 4.2099720333381931e+00
         - 1.9383753413417202e+00
         - 1.0267811795473567e+00
         - 2.2247278283569205e-03
         - -2.0629726568901736e+00
         - 4.1356426259568313e-02
         - 5.6969626513593941e+00
         - -8.3538621941492097e-01
         - 1.2580496455437100e+00
         - -8.2988323603146563e-01
         - -1.1820579143490598e-01
         - -1.9752747158344508e+00
         - 1.6156382694848024e+00
         - 3.2091863401046761e-01
         - -4.1052949717327580e+00
         - -4.7047419751619497e+00
         - -1.8070589925024128e-01
         - 4.4409948710280156e-01
         - 9.4337631903615122e+00
         - -1.3710927023293629e-02
         - 1.0881317902142458e+00
         - -4.3148079334375389e+00
         - -3.5385775654706331e+00
         - -3.5551359223237986e+00
         - 4.0236521172281536e+00
         - -1.6487464959713517e+01
         - 1.9033363685783724e+00
         - -1.7372431768003236e+00
         - -2.9850456647848005e+00
         - 5.4635060590859528e+00
         - -1.8638676507727163e+00
         - -1.3186944108307834e+00
         - 2.4384388439498483e-01
         - -2.0534346736453872e+00
         - 2.3016450021580397e+00
         - 1.1216783035928981e+00
         - 5.9323258464704998e-01
         - 1.3364786755311026e-01
         - -5.1557297440556642e+00
         - 6.0134746141329187e-01
         - -3.6606426656748481e-01
         - -2.7137452806287659e+00
         - 5.8100353341810385e-01
         - 8.7680260021553735e+00
         - -1.5910232136464103e-01
         - 3.3406747804856329e-01
         - 2.2353379766030406e+00
         - -2.3722715692333671e-01
         - -6.4841263408747818e-01
         - -2.2324334957663332e+00
         - 1.8196057396770406e+00
         - -1.9886064874994092e+00
         - -2.0870745630522827e-01
         - -5.2130923290591524e-01
         - -1.2964701819491216e+00
         - 6.1706384999150412e+00
         - 3.1760939567048609e+00
         - -3.5664167717204593e+00
         - -2.4972194006539347e-01
         - -8.2998246807843024e-01
         - 2.4078804991113037e-01
         - -2.2665386275857777e+00
         - -4.3136737405702907e-01
         - -3.8620077771849037e-01
         - -6.0677581623643306e-01
         - 3.9357506222021410e-01
         - 1.7611196884680960e+00
         - -1.3242034273904769e+01
         - 9.5667015594796934e-01
         - -2.6650610677520934e+00
         - -4.5387729958217865e-01
         - 6.5604797446389862e-01
         - 2.8198821088118424e+00
         - 1.6533443836254667e+00
         - 4.2498538547956599e-02
         - 4.8561104415881129e+00
         - -1.3941683085371230e+00
         - -9.2455092908269243e-01
         - -2.4299026052998349e-01
         - -6.3780664127704567e-01
         - 3.7732822328480298e-02
         - -2.0662865188249357e+00
         - 2.2879021864684352e+00
         - 1.7318285702417373e+00
         - 3.0195534038232656e+00
         - 2.5210444691017786e+00
         - 8.0456445422145062e-01
         - -1.1961597398321506e+00
         - 4.0916986201702121e+00
         - 4.4944455731531918e-01
         - 2.7736773282765039e+00
         - -1.7965474554646790e+00
         - 3.3887298819225822e+00
         - -3.1048564109658399e+00
         - -6.0614578121847351e-01
         - -1.7559043025087953e+00
         - 3.3355698309970150e-01
         - -1.5833229328016549e+00
         - 6.2937442442989600e-04
         - -2.3122115296022949e-01
         - 4.2763086210089982e+00
         - 1.1690815181761922e+00
         - 3.7962497608183177e+00
         - -3.1375137907481658e+00
         - 2.5055101042165973e-01
         - 1.3654590930188637e+00
         - 5.0069024068959733e-01
         - 5.4569894728957374e-02
         - -7.7425835411612742e-02
         - -2.5235139725235500e-02
         - -2.1941332463641481e+00
         - -9.0643565336993248e-01
         - 2.0390726216459569e+00
         - -2.7697332772086973e+00
         - -1.2220021986528884e-02
         - -1.5228819414055990e+00
         - -1.0080527501841333e-01
         - 3.0354020049528971e+00
         - 4.3748673103407465e-02
         - 2.8347825494981200e+00
         - -4.8346178252840749e-01
         - 1.1596605789295453e-01
         - -4.1163953959288584e+00
         - -7.0128147575540556e+00
         - -1.6253134781431986e+00
         - -2.0115216689503388e+00
         - 2.4117282893102243e+00
         - -1.4796919085041487e+00
         - -1.2283885834824753e+00
         - 3.2375627299920495e+00
         - 1.4916754003936203e+00
         - -7.0841249411819007e-01
         - -2.0189300202883564e+00
         - 1.8751739446997466e+00
         - 1.7590758340508252e+00
         - 5.8371498417943846e-01
         - -2.2272087769010338e+00
         - -2.1454425939126267e+00
         - 6.3784664664082136e-01
         - -2.5633723200180270e+00
         - -8.1290416074580374e-01
         - 4.5765377062303187e+00
         - 1.8117595858749804e+00
         - 1.0359285051349725e+00
         - 1.1444502682291624e+00
         - 2.2700859600985304e+00
         - 4.1856359917446539e+00
         - -8.3840979113036038e+00
         - -1.3041564577424152e+00
         - -3.2316724988837136e+00
         - 1.9662031564731610e+00
         - -3.2908052045457437e-01
         - 4.9457568057786294e-01
         - -9.5320412394404613e-02
         - 3.0308226588970468e+00
         - 4.2502238667165049e+00
         - -2.4841883120743189e+00
         - -1.4222070725527023e+00
         - -3.5237567830738237e+00
         - 1.4579768991927857e+00
         - -3.8963598632908214e-02
         - -1.3083122460916525e+00
         - -2.3448901857182844e-01
         - 2.5255509254549637e+00
         - 2.0207756281374961e-01
         - 9.1345577165385175e-02
         - 1.8573506107711657e+00
         - -7.7794510536558514e-01
         - 1.0907756017140850e+01
         - 4.4697020320645409e-01
         - 2.4306405792047130e+00
         - 5.3315439294333489e+00
         - 1.3063516582663259e+00
         - 2.0246104323297205e+00
         - 1.7564951772020763e+00
         - 3.3578609125492314e+00
         - -5.4741606078970029e-01
         - -1.7048829698792256e-01
         - -5.4263206700766820e-01
         - -1.1140167550694402e+00
         - 3.4680906626301394e-01
         - 8.4623926069245392e-01
         - 3.3859371419285154e+00
         - -1.7030868747621057e+00
         - 7.7222044642345655e-01
         - -1.0521411390681551e-01
         - -2.0089728704853753e+00
         - -1.6551444686831407e+00
         - 1.1125591747754897e+00
         - -5.3899412135687885e-01
         - -1.8946029398375726e+00
         - 1.6742180895319470e+00
         - 3.3421129907803180e+00
         - -2.4851351497168861e+00
         - 4.6754240662178587e-01
         - -2.2977389214040551e+00
         - 5.4422488614719611e-01
         - 9.7328488172150873e-01
         - -1.8049978858709661e+00
         - 1.6695086383026885e+00
         - 9.2132154818484713e-01
         - 7.1243540199567912e-01
         - 8.7299188330693767e-01
         - -2.1154753475626284e+00
         - 1.2989340529975701e+00
         - 3.4520706650325610e+00
         - 7.5646845205189595e-01
         - -2.7337317484098382e+00
         - -6.0687327542227623e+00
         - 1.9075588520947817e-02
         - -3.4034710410623235e+00
         - -5.3454585530236836e+00
         - 4.0004288759290130e-01
         - 1.4205621285828807e+00
         - 1.7858763278399900e-01
         - 1.0722425925926943e-01
         - -7.2950616118758083e-01
         - -8.2916849243267510e-01
         - -3.6240397405527496e+00
         - 1.8531218914846510e+00
         - -4.3772259308615382e+00
         - -1.2413840448450673e+00
         - -4.2772664832474776e+00
         - -4.2942387484172073e+00
         - 1.9723771543500370e+00
         - -1.2989539851221326e+00
         - 7.6152722094446155e+00
         - -1.7476380676020660e+00
         - 1.2069931383901360e+00
         - 3.9542318309310276e-01
         - 1.6407575480277714e-01
         - -8.5267218303532921e-01
         - -1.4388147452372797e+00
         - -3.3740132520577282e-01
         - 1.7877930036402334e+00
         - 3.4149738788449762e+00
         - -3.6889284744018682e+00
         - 2.6477710850991762e+00
         - 5.2123282553095396e-01
         - -1.2918052410933992e-01
         - 2.8877222737504318e+00
         - 3.3086237866710162e+00
         - -4.3997319145858285e+00
         - 4.5682587878341456e+00
         - -2.4549593592560326e-01
         - -1.3408948475989306e+00
         - -8.3407119607671376e-01
         - -3.3426408528066398e+00
         - -4.1857011944253286e-01
         - 1.1400283674432421e+00
         - 2.2070796403785620e-02
         - 2.6962732908219893e+00
         - 1.0314688563292504e-01
         - 1.3266969126663333e+00
         - -2.3207143279728610e+00
         - 1.1488352700917925e-01
         - -2.5297464588382743e+00
         - -1.3485923312959376e+00
         - -3.2765886671285744e+00
         - 3.0643514521114232e+00
         - 4.7011148027008156e+00
         - -1.1444377088567910e+00
         - -3.0005031102105728e-01
         - 1.5206750380474139e+00
         - -3.5773656902619533e-01
         - 5.0464314771973023e-02
         - -2.2096286357545418e+00
         - -1.5334926382885334e+00
         - 8.4495068303859799e+00
         - 4.8806939167061858e-01
         - 1.8471109110967134e+00
         - 3.4272819005496404e+00
         - 1.0601006156013959e-01
         - 3.2991633834471386e+00
         - 2.0646046608626074e+00
         - 8.7089079809701830e-01
         - 2.1866378598601405e-01
         - 1.3525951172302375e+00
         - -1.8355239263954493e+00
         - 8.7573318015229817e-01
         - 7.8116412296477389e+00
         - 1.7022273699788339e+00
         - 8.0101600839797416e-01
         - -5.1070604734137937e-01
         - 1.1983572005502610e+01
         - 1.8393289190545792e+00
         - -1.9051273679653895e+00
         - -5.5706296484527780e+00
         - -6.7559835692671921e-01
         - -3.8240109961869844e+00
         - -1.5687091271623164e+00
         - 1.2069789106653777e+00
         - -3.2828421608653541e-02
         - 6.3351209991350210e-01
         - 4.7891134769968924e-01
         - 8.3956780592431857e-01
         - -7.6967360821757536e-01
         - 9.8704110305797776e+00
         - 1.4235270441604597e+00
         - 3.1542494603853699e+00
         - -5.8521360427509816e-01
         - -1.7403026548436560e+00
         - 8.6900241116597492e+00
         - -2.2597301817090054e+00
         - 5.5128795003309028e-02
         - -2.0287826541701115e+00
         - 3.3394602891100456e-01
         - -5.1272253389766469e+00
         - -3.6343508447611339e+00
         - 1.3371638912276675e+00
         - -1.5476486392101152e+00
         - -1.0260118337932278e-02
         - 7.7702583639286948e-01
         - 3.4604408215575027e+00
         - 6.9353937026004164e-01
         - 2.2734933966600348e+00
         - -2.2727616407683788e+00
         - 6.0311231248695272e+00
         - -1.4720874757341873e+00
         - 2.6462802591913119e+00
         - -2.2120341758208104e+00
         - -2.2824452045882730e+00
         - 1.9467922592632876e+00
         - 1.0975439464327388e+00
         - -8.6750610819331209e-01
         - -5.9798271179628626e-01
         - 9.0768917493414736e-01
         - -3.3971097454472106e+00
         - 6.8073850033829919e-01
         - -9.0796725713339604e-02
         - 5.6317906828873241e+00
         - -9.3603206359553415e+00
         - 2.1933069583449716e+00
         - -2.6225137037975377e-01
         - 4.7744411966300004e-01
         - 6.7155193356367500e+00
         - 8.4214909706471897e-01
         - 3.4235264661870235e+00
         - -1.2450216703490047e+00
         - -3.1155384341570160e+00
         - 1.3632610935094358e+00
         - 1.5230011354591302e+00
         - -4.3286156752977174e+00
         - 2.6050896567170758e+00
         - 3.2375838706257678e+00
         - -2.9590867413438051e+00
         - 1.9272889706478762e+00
         - -8.2666016293982447e-01
         - 5.7641458368823317e-01
         - 1.1736436477765193e+00
         - 3.4193086747219144e+00
         - 6.0900908320219731e+00
         - -6.7683459511120025e-01
         - -8.8715046595261304e-01
         - 4.9975750825043408e-03
         - 1.1602979279293038e+00
         - -4.1269941669179309e+00
         - -4.9530350576941340e-01
         - -6.5781680889820182e-01
         - 5.1930535115665577e-01
         - 1.1380066487502005e-01
         - -1.2242168319352698e+00
         - 6.2732102546198421e-01
         - 2.4002323838817228e+00
         - 3.2923436161566428e+00
         - 7.9944899299343009e-01
         - 6.3911393694112473e-01
         - 5.4012153230115156e-01
         - -6.6303668768688084e-01
         - 6.9150273449320110e-01
         - 3.4206334646748391e+00
         - 5.7748791420028223e-01
         - 2.7940090648560925e+00
         - 8.0934288938753003e+00
         - 6.7265422942344566e+00
         - -1.1859316605794008e+00
         - -1.3003544381936316e-01
         - -7.1522821253259092e+00
         - -3.4791901068248761e+00
         - 2.5579997183267134e+00
         - -1.8674652039221350e+01
         - -4.0000856271897900e-01
         - 1.3467385454487957e+00
         - -1.2884563693199194e+00
         - 3.4034313886641350e+00
         - 3.0652090549500155e-01
         - 2.1881227336705167e+00
         - -3.9965802488889342e+00
         - 5.7183898946918110e-01
         - -1.3192568875811297e-01
         - 4.1074149651388616e+00
         - -7.8620280845721591e-01
         - -1.4765144613920636e-01
         - -1.7042992671581183e+00
         - 2.5392471433872781e+00
         - -1.3126352938635608e+00
         - 3.1479082958264293e-02
         - 1.1055159185375050e+00
         - 4.7433497089923060e-02
         - 3.1831521765992496e+00
         - 5.4969672401832825e-01
         - -1.6122771693119159e-01
         - 4.0158444890018403e+00
         - 1.3334890789840013e+00
         - 2.5587475970815904e-01
         - 9.9959778732098370e-01
         - -4.5552591965686453e+00
         - -2.3808483434734864e+00
         - 2.7418094430656463e+00
         - 9.3694243454880322e-01
         - -1.5394889240403642e+00
         - -2.3312880411409891e+00
         - 4.8315915421393942e+00
         - -2.6348071801027051e-01
         - 7.8500202568086530e-01
         - 8.6299890319183614e-01
         - -5.2164977636334542e-01
         - -1.9811245726442772e-02
         - -4.0419572266522739e+00
         - 1.0745830205731130e+01
         - -2.2994519017006572e+00
         - -1.2285591433577143e+00
         - 8.5340564968281141e-01
         - 3.4422315009151316e-01
         - -4.5202937483159872e-02
         - 8.7403091885628159e-01
         - 1.4817025713002701e+00
         - -3.4170148757940972e+00
         - 7.8717502872260992e-01
         - 5.8502159958924771e-01
         - -1.0170239460534747e+00
         - -4.1724479866814059e+00
         - -1.2704147941278632e-01
         - -2.6005015822237425e+01
         - -3.6100453105518038e-01
         - 6.8679608775644416e+00
         - 2.7603638214204479e-01
         - 3.2859886032675805e+00
         - 3.2324415826017527e-01
         - -3.9895323719234954e-01
         - 6.3583212363881281e-01
         - 1.9040704541820195e+00
         - -1.4720629456966623e+00
         - 2.8709760753076972e+00
         - 4.4429195664816321e+00
         - -9.4980191152275015e+00
         - -1.7187205928105009e+00
         - 4.8939772523407288e-01
         - 3.0504375628378977e+00
         - 2.5014862278594725e+00
         - 1.1640586433532274e-01
         - 1.2058140714505599e+01
         - -1.1869201620027831e-02
         - 2.0523373665794966e+00
         - 6.4477254927867389e-01
         - -3.2797178986953996e+00
         - -1.7066414114149580e+00
         - 3.9985041887276607e-01
         - -1.3457218542485208e+00
         - 2.4219920741362917e+00
         - 5.1040720625414060e-01
         - -1.3114945260540081e+00
         - -4.5017071432019886e+00
         - 3.3091515093933284e+00
         - 3.6723937246408198e+00
         - 1.7963711549014654e+00
         - -3.1648258992513639e-01
         - 2.8266915457340462e+00
         - 1.5977106811716175e+00
         - 3.6770987140508482e-01
         - -6.1356864331051142e+00
         - -6.8052341045133486e+00
         - 4.5729339508534501e+00
         - 9.4354718971182958e+00
         - 3.6620013198929655e+00
         - -1.9411703424967013e+00
         - -4.6167764709120167e+00
         - -1.7069110786877189e+00
         - -2.0331827863489269e-01
         - 1.9201752601865874e+00
         - -1.0665274642780449e+00
         - 2.5273726394378908e+00
         - 1.1464610315488297e+00
         - -4.4972477181064163e-01
         - 1.5398854289793378e+00
         - -1.1788756341721780e+00
         - -4.0576736280938230e-01
         - -4.7424643417784687e+00
         - -1.5116638173627520e-01
         - 4.8301169604399985e-01
         - 3.6601055634104833e+00
         - 1.2819378911572401e+00
         - -7.2497758407784900e+00
         - -2.9594375499923635e+00
         - 4.6065323254004724e+00
         - -3.7490550200116546e-01
         - 1.3683819490297572e-01
         - 1.8178161088678737e+00
         - -3.3829177314219443e+00
         - 3.2073504512442046e+00
         - -6.1703942968422432e-01
         - 1.4217076209598258e+00
         - 1.6612498320170292e+00
         - 8.4757553864404145e-01
         - 6.7417654561850740e-02
         - 1.3534448320702268e+00
         - -3.9736476721844030e+00
         - -3.3429397626743640e+00
         - -2.3037677497498290e+00
         - -1.0064177321000112e+00
         - 1.3811867064873804e+00
         - 2.3979459310434752e+00
         - 6.7486780560663506e+00
         - -4.2966192389065263e+00
         - 1.5079536145836105e+00
         - 7.8080941342698018e-01
         - -7.8987030754195264e-01
         - 1.9917451867273304e+00
         - 1.1121870118476731e+00
         - 1.4660282776541025e+00
         - -2.2485057390623329e+00
         - -4.4765648173448386e-01
         - 3.5554726391311664e-01
         - 3.5483670894606254e+00
         - -1.3802097324569726e+00
         - 1.2905807511765732e+00
         - 4.0496630382810688e+00
         - -1.5238707473254627e+00
         - -1.5043531056997632e+00
         - -1.0590065076827713e+00
         - -1.4349138891388585e-01
         - -2.9008365006588499e+00
         - -2.2231430888217041e-01
         - -9.1245487602407971e-01
         - 4.6787289808593135e-01
         - 3.9855203293581534e+00
         - 1.9494840521759706e+00
         - 1.4612509452898390e+01
         - 6.7993541288704606e-01
         - -1.7297946486534621e-01
         - 1.7496674851281873e+00
         - 1.3125197910434965e+00
         - -8.6546458787625866e+00
         - 1.5156536133793708e+00
         - -4.0160411568983649e+00
         - -2.2017862031633459e+00
         - 2.5977188372960858e-01
         - 4.5522635152084234e-01
         - -8.4801992732419862e-01
         - 2.2881468218941231e-01
         - 6.9952407580250817e+00
         - 2.2519719462023735e-01
         - -1.5299354554880140e-01
         - 3.3830141619825840e+00
         - -2.2696120264566249e+00
         - -1.6362588615961884e+00
         - -2.1037547305890567e-01
         - -4.2220449685177208e-01
         - -2.6074609353783229e+00
         - 7.1680687880194971e-01
         - 9.9474242487897679e-01
         - 2.4707990641145228e-01
         - -3.0857894260436023e+00
         - 2.6678817989889314e-01
         - 7.9798256039296280e+00
         - -1.2367553205683221e-01
         - 2.6159621602154841e+00
         - -9.4419293145468952e-01
         - -7.7809927636599885e-01
         - 1.9101120733501542e-01
         - 1.8664030722278369e+01
         - -4.6215409716995595e+00
         - 8.4204144309055129e-01
         - 4.8782004364661002e+00
         - 4.8754280291549748e+00
         - -9.9900345771955201e-01
         - -1.1728851961854774e+00
         - -3.0093303092113022e+00
         - -2.5145683264138341e-01
         - 1.3341736500262698e+00
         - -1.4783445687733190e+00
         - 1.7381554021826116e+00
         - 1.4601929270598835e+00
         - -2.7321898089504977e+00
         - 4.9351566225816397e+00
         - 6.9283212538057271e-01
         - -2.5894389030597054e-01
         - -1.7573153034657243e+00
         - 5.5162307758451590e-01
         - 1.1314496849910141e-01
         - 6.1522284433239314e+00
         - 2.6328421141957936e-02
         - -1.8092550850316882e-01
         - -6.2258813128444690e-01
         - 1.2502844128234263e+00
         - -1.7330832444233257e+00
         - 3.3813943466971899e+00
         - 4.0675433098433054e+00
         - -3.4378614260764522e+00
         - -3.8136644300073097e-01
         - -5.5846298889661339e-01
         - 6.6733036595342354e-01
         - 4.2010130791714779e+00
         - 3.0394767482096334e+00
         - 1.1454899938153407e-01
         - 6.6634144044031685e-01
         - -4.0294432582453621e-01
         - -4.0734130948707650e+00
         - 5.5761926250609068e+00
         - 2.5518569898948797e+00
         - 4.4229997104811059e+00
         - -8.7815965273046315e-01
         - 1.3990911596669375e+00
         - 2.3128240401315661e+00
         - -1.3049618599115603e-02
         - -1.4622321881751699e+00
         - -2.8381791797770508e+00
         - 3.1084157989090402e+00
         - 2.5213492539908851e+00
         - 5.6661345129663943e+00
         - -1.9137349694713701e+00
         - -5.9930670312670742e-01
         - -4.9137581669416019e-01
         - -6.3543413498105272e-01
         - 4.8939837618722171e-01
         - -7.1545781378833939e-03
         - 1.3287654236772278e-02
         - 1.6785724483046613e+00
         - -3.3396064142320814e-01
         - 1.4391928456695848e+00
         - 3.5170311566895318e+00
         - -1.4850392036700950e+00
         - 2.4814189180760362e+00
         - -1.0106666858941095e+01
         - 1.6156774555416011e+00
         - 4.7226105989442635e+00
         - -3.8791944739500939e-01
         - 3.3564286148884959e+00
         - 5.2633650799257232e+00
         - 6.6134444681359050e-01
         - 1.3618947781579185e+00
         - 5.7518392520713746e-01
         - -1.2307712075906685e+00
         - 4.9337442840469423e+00
         - -1.1307597802825751e+00
         - -5.7345819976501178e-01
         - 5.0770656707469086e-01
         - 1.4535437890470759e+00
         - -6.9312637566604052e-01
         - 2.8934501525127732e-01
         - 2.3713266590329471e+00
         - 2.5167976233638562e-02
         - -5.5408256325520249e+00
         - -9.0288586827401873e-01
         - -4.9996076543518431e+00
         - -7.7468923742892386e+00
         - -5.9884084106101554e+00
         - -1.4760932203183139e+00
         - -3.6927087003733590e+00
         - -7.9033256528675849e-02
         - 1.4570617438325379e+00
         - -6.0371381727862961e+00
         - -3.6672241875836908e+00
         - 5.3907049799928508e-01
         - 4.7233284804357041e+00
         - 5.0372430875557483e-01
         - 1.4217084064594372e+00
         - -5.3762680118163475e+00
         - 9.1514197851200119e-01
         - 2.4893978869331645e+00
         - 2.7867866817189748e+00
         - -5.5021925892026302e-01
         - 1.3006471611983706e+01
         - 7.4576978260932707e+00
         - 1.2834715607067476e+01
         - -7.1162013019430628e+00
         - 1.0084963862778040e+00
         - -1.4900464353646956e+00
         - -8.3121952055495161e+00
         - 4.2347274668683943e-01
         - -1.4324443565955323e+00
         - 2.5398565500222938e+00
         - 2.2704850398601009e+00
         - -6.8897025838006487e-01
         - 3.9745589525856122e+00
         - 2.0132562594178043e+00
         - -2.0426429300806319e+00
         - 1.2717840071115982e-02
         - 1.9709823988215773e+00
         - -3.7494831152397654e+00
         - -2.8210117794146181e+00
         - 2.1768560566233548e+00
         - -4.6783127123444229e-01
         - -1.3724438985935219e+00
         - 2.5207186589727302e+00
         - -2.0000203229023508e+00
         - 6.7957144604612454e+00
         - 4.7781679094351714e+00
         - -5.6131140527699550e+00
         - 1.2553945930566781e+00
         - -1.3789171396328332e+00
         - 6.3721251423052756e+00
         - 4.4722163987544263e+00
         - 7.2346904212987639e-01
         - 3.5297757021288839e-01
         - 2.2064337044611073e+00
         - -7.7244289961559709e-01
         - -6.7599128662560029e+00
         - 2.9312155107683191e+00
         - 1.6011933336931552e+00
         - -2.4432925543282371e+00
         - -2.2819372897232615e+00
         - 3.5780384051454277e+00
         - 2.7601274992728007e+00
         - -1.1656361527096872e+00
         - -1.7442642624396483e+00
         - -5.6032103634324439e+00
         - 5.1730349041762409e+00
         - -1.3237610969297645e-01
         - -1.2797814835188126e+00
         - -6.7345214513173768e-01
         - -3.4928892864715086e+00
         - -2.9679622085879476e-01
         - 2.8703533798645675e-01
         - 2.7466824032132355e+00
         - -1.3816303881061436e+00
         - 9.5347764388727152e-01
         - 1.0146746895976539e+00
         - -1.8744725429205209e+00
         - 1.2955314555330868e+00
         - 1.6569006448423806e+00
         - -6.3850888099108651e+00
         - -3.5812961140430990e+00
         - -2.2567361209244838e+00
         - -7.1661435272799556e-01
         - 4.0824194059661183e+00
         - 3.8404549685171898e+00
         - 2.6725006103176030e+00
         - -7.1324308835760653e-01
         - 4.5400922267296799e+00
         - 3.0827633753664694e+00
         - 1.2015541155852306e+01
         - -6.5047445497550860e-01
         - 3.6334100502737456e+00
         - -9.8711153126166522e+00
         - -4.5255308577278053e-01
         - -1.6592462104405601e+00
         - -6.1407833281317901e+00
         - -2.8543650951605946e+00
         - 9.1281069177377172e-01
         - 5.2546103434837335e+00
         - 1.3445934737885663e+00
         - -2.3519703671477568e+00
         - 3.9607694407115996e+00
         - -1.5854250231217049e+00
         - -2.1754004118260648e-01
         - -1.3814081655976367e+00
         - 3.2125350724011237e-01
         - 1.4399393929403181e+00
         - 9.9500876810918948e-01
         - 5.6998602822317945e+00
         - -3.3119115054930570e-01
         - -3.1315729807427370e+00
         - -6.0130915297061349e-01
         - 2.2346598961158834e+00
         - 4.3516683915333443e-01
         - -2.9763458790502184e-01
         - -5.1083637389326131e-01
         - 1.5253947707919230e-01
         - 1.8932958935334974e+00
         - 8.4509218853446166e-01
         - 1.8149251233596564e+00
         - 3.2899447422641939e+00
         - 3.6574674267588967e+00
         - 3.4116599806017534e+00
         - -4.8568940545294783e+00
         - -8.1329253523172067e+00
         - -4.0304759554586642e+00
         - -4.1029572935088927e+00
         - 3.2791573806376562e-01
         - -3.4423371933883846e+00
         - 6.0322389621254124e-01
         - -2.0493325685976949e-02
         - -1.7818294177639329e+00
         - 7.0145939732073803e-01
         - 5.0696777919372082e-01
         - 1.9616988647000624e+00
         - -1.0965773735658562e+00
         - -2.5173129225828506e+00
         - -3.0312865635294814e+00
         - 7.6696382258832563e-01
         - -5.5588017104989040e-01
         - -1.0826487557889042e+00
         - -4.7011195475400944e+00
         - -2.2741570175278509e+00
         - 4.1402444457627607e-01
         - 1.4891466477169533e+00
         - 2.6164687383843672e+00
         - -1.8571676607810303e+01
         - 1.1184618801051869e+00
         - 8.5594990497225121e-01
         - 1.4729787493452784e+01
         - -1.9304344880202184e+00
         - -6.2760932609379205e-02
         - 1.1317882865218749e+00
         - -7.4592150485414266e-01
         - -1.0793494331238833e+00
         - 9.5439153664480381e-01
         - 8.5406826874197606e-01
         - 6.6510168546128021e+00
         - 1.0793862111677388e+00
         - 2.4722312549007639e+00
         - 2.5473327235663255e+00
         - -2.9863086455833199e-01
         - 4.6218233981803125e-01
         - 6.1708744024034456e-01
         - -4.7162372590725630e+00
         - 2.7924371622382766e+00
         - -6.5619368124670541e-01
         - 3.9516604570769793e+00
         - 1.9772705129563903e+00
         - 1.3622462361857788e+00
         - 2.2727406692566374e+00
         - -6.6432437001309352e-01
         - -1.0664077909234106e+00
         - -3.3847021575133693e+00
         - 9.2811165509758975e-01
         - -9.5318912767450814e-01
         - -1.0173826003344741e+00
         - 1.5110302452723396e+00
         - 5.4933568190810422e-01
         - -3.2878634819896799e+00
         - 1.8214012696404527e+00
         - 2.0106179764145765e-01
         - 1.0002895029050176e+00
         - 4.0287230562409855e+00
         - -4.6860805151446847e+00
         - -3.0002950367068104e+00
         - -5.8928193406690010e-01
         - 2.5424620134734059e+00
         - -2.2346730528706744e+00
         - -1.1463686788115057e+00
         - 2.9906707814118252e+00
         - 1.0840591626952181e+00
         - 1.4875607421862980e+00
         - 3.2592623843344770e-01
         - 4.8943101537382621e+00
         - -6.9467720909439723e-01
         - -4.6355185392311107e+00
         - -1.0542983085474253e+00
         - -3.6826632020465624e+00
         - 7.4978984267807791e-01
         - 1.1978455134364658e+00
         - -1.4729390203093827e+01
         - -3.8081692470097139e-01
         - 1.9315345960196024e+00
         - 2.5872703827067539e+01
         - -1.0931170652115922e+00
         - -3.1189107476752009e-01
         - 6.3089113916917416e-01
         - -1.2138924155055600e+01
         - -1.2377298304901703e+00
         - -5.8366491575034807e-01
         - 1.9219559790992741e-02
         - 1.7567106874206080e+00
         - -6.3459555592640854e-02
         - -1.5847081680858000e+00
         - 1.0748721781035011e+01
         - -2.7204388167820093e-01
         - 1.6854423525845452e+00
         - -3.1805600051152885e+00
         - 1.4176226861850567e+00
         - 4.8193606095043917e-01
         - 1.4049178528020227e+00
         - 1.0428197001991357e+00
         - 1.9730062612970687e+00
         - -3.2022579758701974e-01
         - 4.2736267976355680e-01
         - -3.1286911422222424e-02
         - 1.7866149043169785e-01
         - 3.5526598187996827e-01
         - -8.5684518403124771e-02
         - 6.4176101882741570e+00
         - 1.2122732101316947e+01
         - 1.7725636511644685e-01
         - 6.0319647869904403e-02
         - 4.8442169772169406e+00
         - 1.2923348961636163e+00
         - 1.8262744899264329e+00
         - -4.0806228614763249e+00
         - 2.6102184468797445e+00
         - 1.6594315051376529e+00
         - 1.1024458583574746e+00
         - 1.5557758547211706e-01
         - 7.0324289517190663e-01
         - 1.6317233111034875e+00
         - -1.7339292284558789e+00
         - -1.3153276880132680e-02
         - 2.9386586595588797e+00
         - -7.0921049366054731e+00
         - -8.2195342383019232e-01
         - 1.6701553738666934e+00
         - -7.3290085946523287e-01
         - -2.5659473777902946e+00
         - -6.4504745802330810e-01
         - 1.1387570596725740e+00
         - 8.7801439953584843e+00
         - 2.3610335200936703e+00
         - -2.6538378587469924e+00
         - -1.4788223030937326e+01
         - -2.6913912136260811e+00
         - -6.6513475675426932e+00
         - 1.9387758571010261e+00
         - -1.8683324891012518e+01
         - -1.1351125312870254e+00
         - 1.2950157739260661e+00
         - 1.0780926489399110e+00
         - -2.8840657800804266e+00
         - 7.5880841943145971e-01
         - -3.8429888871992646e-01
         - -1.2192111180601314e+01
         - -4.1507800772145653e-01
         - -5.4960772005857237e+00
         - -1.8716351265264302e+00
         - 5.6541197001588888e+00
         - -3.1248206607677742e-01
         - 3.5636202733207529e+00
         - -8.7250578942135846e+00
         - 3.2822924675983787e+00
         - 1.7784959014922410e+00
         - 1.0553382100928516e-02
         - 7.7102980515536920e-02
         - -1.8790181731431030e+00
         - 6.4023037658344539e-01
         - -1.9071739696380445e+00
         - 1.9515897987931227e-01
         - -1.1405222653961926e+00
         - -6.2028044186932920e+00
         - -2.6286236459470422e+00
         - -1.4758713380271837e+01
         - -3.5848374627583399e+00
         - -4.5335670298413682e+00
         - -4.3006656303579387e+00
         - 1.9102782104952996e+00
         - 1.1519670995891045e+00
         - -2.2056864135565126e+00
         - -8.7253323098092608e+00
         - 7.3599275664427999e-01
         - -1.1443763452244977e+00
         - 2.1225412323287562e-01
         - -1.3373033470494020e+00
         - 2.7945234710946223e+00
         - -6.4233691159648298e-01
         - -3.9169395540894176e+00
         - -3.1920188650050640e-01
         - 3.3409580882604701e+00
         - -1.9844140323029316e+00
         - 8.3739072899302580e-01
         - 2.5671242399642282e+00
         - 6.5284244042341601e+00
         - -3.6807554652602392e-01
         - -1.6146526041326794e+00
         - 1.7849356910769523e+00
         - -1.8983086956943442e+00
         - -2.7066022044825511e+00
         - -2.9313540630558790e+00
         - -1.1992989663136930e+00
         - 1.1368695314712798e+00
         - -2.7089742901509490e+00
         - 2.5967234601663613e+01
         - -7.4377043363619677e+00
         - -2.5836479089827833e+00
         - 9.2335735251369636e-02
         - -2.2008569115807388e+00
         - -1.7710195014560468e+00
         - -3.3864835343194168e+00
         - 2.6483250325336369e+00
         - 6.7923228530378026e+00
         - -1.2141965497386722e+00
         - 3.3828611135283388e+00
         - 5.5393495822013445e+00
         - -9.3491744941963137e+00
         - -3.5069048062305319e-01
         - -1.9324800000000000e+00
         - -9.3336949950518155e-01
         - -7.1974415844397521e-01
         - -7.0305791154627428e+00
         - 1.6852078600123703e+00
         - 3.4993996741837678e+00
         - -1.0078329052494929e+01
         - -1.1618317786487595e+00
         - 3.0172943302511159e+00
         - 6.5439149508869265e-01
         - 4.7589458186863327e+00
         - -6.1968298653116416e-01
         - 2.0806801322602269e+00
         - -2.7635266141547001e+00
         - -1.6381756038510750e-01
         - -1.4079455705535593e-01
         - 2.3211847856056473e+00
         - -7.3732138251462054e-01
         - -3.8717037523992248e+00
         - 6.2112348459217370e-01
         - -5.5517012296409209e+00
         - -3.8773498873910244e+00
         - 2.4805747154175570e+00
         - 1.6801331388470473e+00
         - 1.2759407452036915e+00
         - -1.2898581751906004e+01
         - 6.0185825337133597e-02
         - -2.2559699682551368e+00
         - -5.5728407298736613e+00
         - -2.1782997383529450e+00
         - 6.7663740173895910e+00
         - 1.9895082540823634e+00
         - 1.1983832511379886e+00
         - -3.8773681464376264e-01
         - 3.7953571229735961e-01
         - 5.3417738789730107e-01
         - 3.4591104768275438e-01
         - -1.3828904035776080e+00
         - 7.4501379748755125e-01
         - -3.6692276427968595e+00
         - 3.7388890515810402e-04
         - 1.1847659591667461e+00
         - 3.9951880730731517e+00
         - -4.5503537669270483e-02
         - -7.9284457753108106e-01
         - 2.5997837625715505e+01
         - -3.4837687092504299e-01
         - 4.3378627936850633e-01
         - 1.6513016796190292e+00
         - -1.6554713405716498e+01
      -
         - 9.0135562900171873e-01
         - 5.2302591111787979e+00
         - -1.8641189716486999e+00
         - 1.7085591873700010e+00
         - 9.0890353943874652e-02
         - -2.6115793982095385e+00
         - 1.3839905985131062e+00
         - 2.3937425876756064e+00
         - 2.5758118280311746e+00
         - -7.9069614568780922e-01
         - 2.9000207714360093e+00
         - -2.7191849872129574e+00
         - 1.3894293912271716e+00
         - 2.5945175584044904e+01
         - -6.8740085725373667e-01
         - 2.6394735682377322e+00
         - -4.9534248753704189e+00
         - 7.4227854061136362e+00
         - 5.7657604470082156e+00
         - -7.9593997235989233e-01
         - 2.7876546931804609e+00
         - 1.7619626850409218e+00
         - -2.1711026449866635e+00
         - 3.8813611680252091e-01
         - -1.3590879053935129e-01
         - 8.6957807233146696e+00
         - -1.5352987479636776e-01
         - -9.7527970032105205e-01
         - 7.0245666076905555e-01
         - -9.4552317729211882e-02
         - -2.3064211978412681e+00
         - -1.2467863356843982e+00
         - 1.5144690240356973e+00
         - -1.6994409086742654e-01
         - -1.8791572435302355e+00
         - 1.6946124530885460e+00
         - -2.2120422501750316e+00
         - -2.7589409499754003e-01
         - 4.1298210631886985e+00
         - 1.0670709598007294e+01
         - -5.4457724191697903e+00
         - -2.7482340224453159e+00
         - 1.3145346626641392e+00
         - -3.6898328068201214e-01
         - -1.8635466447340001e+01
         - 7.4323268228924597e+00
         - -3.1407736794171193e-02
         - -1.9001845934400565e+00
         - -2.9862547789174410e-01
         - 1.7371636625636389e+00
         - -4.4768797032825978e+00
         - -2.2474354465527524e+00
         - 3.3864028666390924e+00
         - 2.1928805137072440e+00
         - 1.9541183683719621e+00
         - -2.4659486793396610e+00
         - -2.7885868343155795e-01
         - 1.2904042424850424e+01
         - 1.4955788936752401e+00
         - -1.4591485675747315e+00
         - -6.2299309207894349e-01
         - -8.8987183231840694e-01
         - 4.8614561170750914e+00
         - 5.0968031731201224e-01
         - 8.0669454431140331e+00
         - 2.1060683278005601e+00
         - -1.0899242032172003e+00
         - 1.6718855981658483e+00
         - 1.8300683443317767e-01
         - 1.8465858147047651e+00
         - -1.7374067943032121e+00
         - 2.9596722127518471e-01
         - -3.3694948850545883e+00
         - 3.3220494215673424e-01
         - 6.2820735874867573e-01
         - -5.6484289381793165e+00
         - -2.5478942499772179e+00
         - 2.6626571961617849e+00
         - 1.5123120322387191e+00
         - -5.2000196661997955e-01
         - -3.1346740695571329e+00
         - -2.4625435360954828e+00
         - -2.1982608932530198e-01
         - -1.2100346053966058e+00
         - 5.2913836191374630e-01
         - 2.3676684765048650e-01
         - -7.2702807614492060e-01
         - -3.2698339952011635e+00
         - 7.4654115528009068e-01
         - -8.2145732804355098e-01
         - -2.8260683264664799e+00
         - 1.0056537990634913e+01
         - -7.4492606727228394e-01
         - 2.9555649371625341e+00
         - -5.3919098424351508e-01
         - 1.1934002576605882e+00
         - 4.9188860759009445e-01
         - 1.1983419215065831e+01
         - 1.0656554427566386e+01
         - 6.6935801958596830e-01
         - -3.6391690950022433e+00
         - -1.0798567089233306e+00
         - -7.3024949610048273e-01
         - -9.2597763830520241e-01
         - 2.7345255793322774e+00
         - 1.2928806199573302e+01
         - 5.2270815108222806e+00
         - -8.3668904417576584e-01
         - -8.7639412113456017e-01
         - -2.1406787161319188e-01
         - 5.1415004167291112e-01
         - -3.3292509095726959e+00
         - 7.0165767044991014e+00
         - -1.2375069169419080e+00
         - -6.5036573396127395e-01
         - 1.6199681797556975e+00
         - 2.7867813896393989e+00
         - -2.5963007368005044e+01
         - -2.9494727347101368e-01
         - 1.1790590969595895e+00
         - -1.0015706284940498e+00
         - -2.6389212710307257e+00
         - 3.2959966793593143e-01
         - 2.0433072293674313e+00
         - -1.3728786444147090e+00
         - -4.0746049546114644e+00
         - -2.4911613608380310e+00
         - -1.6750160672896528e+00
         - -1.9214723143293963e-01
         - -2.0560751423660499e+00
         - 7.2972460646253601e-01
         - 5.6817888602177702e-01
         - -1.0687490074345659e+01
         - 1.3405658882373646e+00
         - -7.2659281354395838e-02
         - -9.1650375998763278e-01
         - 1.2018347994174905e+00
         - 1.7637071271073075e+00
         - -4.4883306226686948e+00
         - 8.4016087239835924e-01
         - 3.9606297505670938e+00
         - -1.0631045089449724e+00
         - 1.1657508147500950e+00
         - 7.0270348580896584e+00
         - 9.0760412172308425e-01
         - -2.7585018289156427e+00
         - -2.7255970701940491e-01
         - -2.3287016449231355e+00
         - -1.9425593284038407e+00
         - -2.2007393684083418e-01
         - 2.9248656864331593e+00
         - -5.3740034679749487e+00
         - -1.9894546147479486e+00
         - 7.7541533507028628e+00
         - -1.6738940878556005e-01
         - 6.7141930677820634e+00
         - 8.6746573286893991e+00
         - -1.6955561148249856e+00
         - 1.2150143931262241e+01
         - -2.5214913341615508e-01
         - -1.3768252892387089e+00
         - 1.9844603901271083e+00
         - 5.4199048208477352e-01
         - -1.2203538910277523e+00
         - 3.2976705273468299e-01
         - 5.6255490976036224e+00
         - -7.4294928212491340e-01
         - 2.6052584603766060e-01
         - -1.7637918311319680e+00
         - -1.2931291926264554e+00
         - -6.1521748072369506e+00
         - -1.6866195004938372e-01
         - -1.0667273412452252e-01
         - 1.0646504139347552e+00
         - 9.3686726459408520e-01
         - 7.2225591233105491e-01
         - 1.1666927911226299e+00
         - -6.5070603129204656e+00
         - 1.0770240120335386e+00
         - 7.7753258103193224e-02
         - -9.8691230386586892e-01
         - 1.8634420808581218e+01
         - 2.1702770990300113e+00
         - -1.7076970227390180e+00
         - 1.6756968882657284e+00
         - -9.4470457240565608e-01
         - 1.5188328785534257e+00
         - 3.2697167965817515e+00
         - 1.9947882864209607e+00
         - 1.6683158156140818e+00
         - 5.5673155059051849e-01
         - 6.5676597234869438e-01
         - -5.3795006524589848e+00
         - -1.6465731681646065e-01
         - 9.0951210527828585e-01
         - -4.7413767792555870e+00
         - -5.4773797389834442e+00
         - 1.5901171124949681e-01
         - -5.8239255215693586e-01
         - -1.8857378937726590e+00
         - -4.1382601651095134e+00
         - -6.1652890495737651e+00
         - 8.5138638258242572e-01
         - 1.1619194210244550e+00
         - -1.3511117725990136e+00
         - -7.8232850924290953e-01
         - -2.5758537870234250e+00
         - -1.9582321698022105e+00
         - -1.6771125182283517e+00
         - 1.5897015556646301e+00
         - 7.4596248633453627e-02
         - 3.9439628113197867e-01
         - -1.3755288792012579e+00
         - 5.4795787672914731e-01
         - 2.9313136009722798e+00
         - -8.1417901248297309e+00
         - -1.1399549570985630e+00
         - 7.4670607307999048e-01
         - -1.0380333731023261e+00
         - 9.9313804624679008e-02
         - -2.2944588842957456e+00
         - 2.0337985490610166e-01
         - 2.1659615949256961e+00
         - -4.0415862077808618e-01
         - -3.8351270427917794e-01
         - -1.0729563056357865e+00
         - 1.6931355543095248e+00
         - 1.3946217933440432e+00
         - -1.1581600970264594e+00
         - 2.1869845647739838e+00
         - 2.3352467860781312e+00
         - -1.8802026343967182e+00
         - 1.3757636906618866e+00
         - 1.3406270655840831e+00
         - -1.6906448112007444e+00
         - 1.6111972824487264e+00
         - 5.3803989189585604e+00
         - -2.7648948573763628e+00
         - 9.5656604673943502e-01
         - -1.0702196347345700e+00
         - 3.1631436906581074e+00
         - 5.4497853590467109e+00
         - -1.3030985053429212e+00
         - 3.7108822402139019e-01
         - -4.5951833916274043e-01
         - -1.4968792322897181e-01
         - -6.6874603891170586e-02
         - 2.3057693388323819e+00
         - -3.4319998073195919e+00
         - -2.9293973738408963e+00
         - 7.0698219497872683e-01
         - 1.7346943450232177e+00
         - 7.7606068500669756e-02
         - 7.3392371016092162e-01
         - -3.3578926334804664e+00
         - -7.3172607121741384e-01
         - 2.7805626990681176e-01
         - -2.4567988744828817e+00
         - -1.3067801272696500e-01
         - -1.3740532277095807e+00
         - -2.8816001021613760e+00
         - 8.5839990155905443e-01
         - 1.0642452480104050e+00
         - -4.9966477789723485e-01
         - 6.8887328291962557e-01
         - -2.0735094753697760e+00
         - 4.0758892035280176e+00
         - -1.6139621545339189e+00
         - 4.3405571047294682e+00
         - -2.7412419270219477e+00
         - 1.0445058676287644e-02
         - -4.4323337824851827e-01
         - 4.2488606289018680e+00
         - 2.4523688674359621e+00
         - -5.8835813192688469e-01
         - 4.4983385336516895e+00
         - -5.0347698653571887e-02
         - 6.0941713143848375e-01
         - -1.3355181789103601e+00
         - -1.6784488054682775e-01
         - 4.3889825655215486e-01
         - -6.3756851065431674e-01
         - 8.6350075082169331e-01
         - 9.0011201182344525e-01
         - -5.2277331826768592e+00
         - 2.5506058176228956e+00
         - -7.8752444763295182e-02
         - -5.0165106972682960e-01
         - -7.7070681510482031e-01
         - -2.4946965254167961e+00
         - -2.6622474180338096e-01
         - -5.5572493954407154e+00
         - 1.6472164342361824e+00
         - -1.3210117111711787e+01
         - -1.6730295579597898e+00
         - 1.8559645187508561e-01
         - 1.7645228549335319e+00
         - -1.5492647212476844e+00
         - -1.6478825957592420e+01
         - -1.3643916269496583e+00
         - -8.4105411817476627e-01
         - 1.4970279581616306e+00
         - 5.8906911816360874e-01
         - 5.3705855916418184e+00
         - -6.6811583786802302e+00
         - -9.0264173895004418e-01
         - 1.1624342752754973e+00
         - 1.0598215695834856e+00
         - 6.6829857270934072e+00
         - -1.2471207283179822e-01
         - -4.1150880735551407e+00
         - -2.5943928514379742e+01
         - 2.3534472308482419e+00
         - -2.1895612087213552e+00
         - 5.3789017658856855e+00
         - -4.2294420594636088e+00
         - -1.0775800488128677e+00
         - 3.3478746492903459e+00
         - -9.7207682094195030e-02
         - -2.2913389773893540e+00
         - 2.7616926872928405e+00
         - 1.8918412730731637e-01
         - -7.1540298199854402e-01
         - -1.4299381571181322e+00
         - 4.0753199222867549e+00
         - -1.2973197015967251e+00
         - 2.6470740498706462e+00
         - 9.1548848395921423e-01
         - -5.3795722025251038e+00
         - -9.0457714602750572e-01
         - 8.4866558605028997e-01
         - -2.8629479765147359e+00
         - 1.9429525160511594e+00
         - -6.0367966057712885e-01
         - -1.8819582061335021e+00
         - 5.3812109954930483e+00
         - -2.0035078430926476e+00
         - -1.3371033521630588e-01
         - -1.1326856606603184e+00
         - 3.3648845585834772e+00
         - 2.0254566895647930e+00
         - -4.6596808317849181e-02
         - 1.5911849152892219e+00
         - 9.7802486080744677e-01
         - 1.9707431599956931e+00
         - -3.1563785165475672e-01
         - -5.6373202202009924e+00
         - -1.5412364080005490e+00
         - 9.9783283140476620e-01
         - -1.2106162365667057e+00
         - 9.0320848422856559e-01
         - -5.3556277507472394e-01
         - 1.0716549851788892e-01
         - 4.4769467426966649e+00
         - 3.3691258871180434e+00
         - -2.5910545906193452e+00
         - -2.9993508792919608e+00
         - 1.2013687630280010e+00
         - 1.1415256764568851e+00
         - -7.0897587819336438e-01
         - -8.6873210281575162e+00
         - 3.3851310397914185e+00
         - 9.9180884881332751e+00
         - 5.7544075416017404e-01
         - -4.0330682578265620e+00
         - 1.0244954269821440e+00
         - -4.1195996458963418e+00
         - -3.2277013367303562e+00
         - 3.6332691972650459e+00
         - -8.9456965924661880e-01
         - 4.0843795697833682e+00
         - 2.5785690830601711e+00
         - 1.3955037001451917e-01
         - 1.9868907394289557e+00
         - 3.0982153594974465e-01
         - 5.5570241188069203e-01
         - 8.7156893945906061e-02
         - -2.7834449177607761e+00
         - 2.6536641082407515e+00
         - 1.7808744583908359e-01
         - -5.4234864081709606e+00
         - -3.7656734734417485e+00
         - 4.3921270547864366e-01
         - 2.8804927222405036e-01
         - -1.0601085829301011e+00
         - 3.3483741856423204e+00
         - 3.0742421711059071e+00
         - -1.5911758439584336e+00
         - 1.6106943411324628e+00
         - 8.9696169840496720e-01
         - 1.8841626537502820e+00
         - 5.4233401907810863e-01
         - -4.9211136074583042e+00
         - -1.3838360683477868e+00
         - -8.6675139052924024e+00
         - -1.3813003412770575e+00
         - -9.7393616165404162e-01
         - -2.7389896027387040e+00
         - -1.7200048056394096e-01
         - 9.4853658221844128e-01
         - -2.0580909676007750e+00
         - 1.7654213878197140e+00
         - -9.6064437084259757e-01
         - -2.9557519481706457e-01
         - -8.1379052589856382e+00
         - 6.3983739744231227e-01
         - -4.0360596237204027e-01
         - 1.3377377231908143e+00
         - 4.0528477444772060e+00
         - 3.1527726530905889e+00
         - 4.1471721854426873e+00
         - -8.1229146043705782e+00
         - 2.5874701731445340e+00
         - -7.3575060668989767e-01
         - -4.9908988470556875e-01
         - -4.2487219500906903e+00
         - 3.8261424409966172e-01
         - 1.1746755221418206e+00
         - -5.2896973000992205e+00
         - -2.2937159466864618e+00
         - 1.4973442311703586e-01
         - -6.0663729241521889e+00
         - -4.1163141531258973e-01
         - -5.2399184154571277e-01
         - 1.7514088560164018e+00
         - -4.0644029921416545e+00
         - 6.8263527549006997e-01
         - 2.3833478710782590e+00
         - -1.0952729078435581e+01
         - -3.3983685564080233e+00
         - -4.4919711222626688e+00
         - 1.3226398148425931e+00
         - -3.3662759993029212e+00
         - 1.0676454245810658e+00
         - 3.3822272583392357e+00
         - -3.1258472973208956e-01
         - -8.8444291550853971e-01
         - -1.3665559294315860e-01
         - 2.8548709181938720e-01
         - -1.1900946936930310e+00
         - 1.3045743126880871e+00
         - 2.4265238999732635e+00
         - 3.3723023505050089e+00
         - 7.4125633140722058e-01
         - 3.1990148646177738e+00
         - -4.7739345857832802e+00
         - -2.3954385060392935e-02
         - -3.3633366000832856e+00
         - -1.6522037182172394e-01
         - 8.8875806703964422e-01
         - 5.4472816127202215e+00
         - -8.5300543866408707e-01
         - -6.6953787373593210e+00
         - -1.8575210582239270e+00
         - 1.7693061785923381e+00
         - -2.8228533034892767e+00
         - -2.3389518110387626e+00
         - -8.7631955730903055e+00
         - 1.3820991423900564e+00
         - 1.2339357930122496e+00
         - -3.4942170983757208e+00
         - 6.1681548524787893e+00
         - 1.2925747266104569e+01
         - -7.5167190456066129e+00
         - -1.0478542306043135e+00
         - 8.0344382170822737e-01
         - -9.3351781690783522e+00
         - -2.2433686605514547e+00
         - 6.8361671809017599e-01
         - -1.2187656638284754e+01
         - 4.0680800003778073e+00
         - 3.6371154784027389e+00
         - 1.5608126603360659e-01
         - 1.6958678495522250e+00
         - 1.4602033151667415e-02
         - 6.7941298217835588e-01
         - 5.5383780381463694e+00
         - -2.6334662531369650e+00
         - 2.8119247748600031e+00
         - -4.8742337012321957e-01
         - 9.1270996006435356e-01
         - 3.5540111237705674e-01
         - 1.7620653250115947e+00
         - 8.6411881669508539e-01
         - 4.2324746540964187e+00
         - -5.3786811564854826e+00
         - 3.5317907157567818e+00
         - 5.0717609329562519e-01
         - 2.5829210445026920e+00
         - 4.3039985535618719e+00
         - 1.8736676835339925e+00
         - 5.3574176607116086e-01
         - -1.2372084794362359e+00
         - -4.2220531769708796e+00
         - 4.9132851411420642e-01
         - -2.1730124709840513e+00
         - -3.3330365879148487e+00
         - -1.1463469190620680e-01
         - -1.6319309966061074e-01
         - -1.0865966587026685e+00
         - 6.4126362808813369e+00
         - -8.3320880026734867e-01
         - -9.2504562189086081e-01
         - -1.1904083060530541e+00
         - -4.1188193943176596e+00
         - -5.9935517069777977e-01
         - -2.7956748421676103e+00
         - 3.4755941720324368e-01
         - 9.4104545552222391e-02
         - -1.5015824251304921e+00
         - -5.2261769929299051e-01
         - 1.1802596996630088e+00
         - 1.4005798235880269e+00
         - 1.0589905080701780e+00
         - -2.0054677604205673e-01
         - -5.3663302884099429e-01
         - -3.1671468424702818e+00
         - 3.7536978999205023e-02
         - 2.8676553233554198e+00
         - -1.1845426326783219e+00
         - 6.0851778715707017e+00
         - -1.2500906059058676e+00
         - -2.1859417768445479e+00
         - 3.7721010210836681e-01
         - -3.8383080494304331e+00
         - -2.2405219465433230e+00
         - 1.4969108149878410e+00
         - -2.0567125674951514e+00
         - 1.0657537537981552e+01
         - -1.0063980682536180e+01
         - -3.6585128823499979e+00
         - 1.5654120111708936e+00
         - -6.5687913550738841e-01
         - -3.2060431724710226e+00
         - 6.1759770589862075e+00
         - -8.7586466421836751e-01
         - -1.3229826669606465e+01
         - -2.9252201652837733e+00
         - -1.0649281554178049e+00
         - 6.9713248569547648e-01
         - -2.8439820023686959e+00
         - -8.5417888417925425e-01
         - -1.7801850934825318e+00
         - 3.5235910145706417e-01
         - 2.9982348295862620e+00
         - -1.7244461331802435e-01
         - 3.0743938542982274e-01
         - 3.4261006137815975e-01
         - 2.3788711400803102e+00
         - 2.3026320628452237e+00
         - -2.9111903191247424e-01
         - -1.7563184566862344e+00
         - 2.4401078296123657e+00
         - 3.3017867274556445e-01
         - 1.1393883924104553e+00
         - 3.6262714386810009e+00
         - -2.2009760386106318e+00
         - -1.0657774561734552e+00
         - -1.7407887365093617e+00
         - -4.0635104360533028e+00
         - -2.4781555932866328e-01
         - 1.7965377345688540e+00
         - 5.3595052442409163e-01
         - 1.5285574155748360e-01
         - 7.4877520233314154e-01
         - -7.8866590941255721e-01
         - 6.1610525375856806e+00
         - 7.4376216960441717e+00
         - 4.0791893180162155e+00
         - 1.6030442992293681e+00
         - -2.5029590861593269e+00
         - -4.0798345335588566e+00
         - -1.4973942632104109e+00
         - -3.8203062629335649e-01
         - -1.9415286203489086e+00
         - -2.2928436979825579e+00
         - -3.9364607970111010e-01
         - -2.3006392967844866e+00
         - 1.3437885180382267e+00
         - -1.9536278071299837e-01
         - 2.9326440017851181e+00
         - 2.0632238563342322e+00
         - -5.7959160000067076e+00
         - 8.2821292107107453e-02
         - 3.3663238216083400e+00
         - -5.7969458841157842e+00
         - -5.3800694805365454e+00
         - -3.2668380188296009e+00
         - 1.1426780054438384e+00
         - -1.1529874368437130e+00
         - -2.1859947076346566e+00
         - 6.5535961827103328e-01
         - -7.6109044271161974e-01
         - 1.3647670796745006e+00
         - 7.0192843993679706e+00
         - -2.7025259474551067e-01
         - 2.2545744138646071e-01
         - 3.8950460146178112e-01
         - 2.0795859927709546e+00
         - 1.3627251088893768e+00
         - 6.1647183864297013e+00
         - -3.3429053302409124e+00
         - -1.5235898256409464e+00
         - -5.6240079483260770e+00
         - 1.8621796190309789e+00
         - 8.9308779968752805e-01
         - 4.4700448030953766e-01
         - -2.5956688618255214e+01
         - -4.1069921196275718e+00
         - 6.4927170379235355e-01
         - -3.1994280915594837e+00
         - 2.0565210655785942e+00
         - 2.5884065813941866e+00
         - -5.4731047331971039e-01
         - -3.3966056013530088e+00
         - -7.6573876677136870e+00
         - -1.1617936294878128e+00
         - -5.9262718109945056e-01
         - 4.3157314897202763e+00
         - -4.3994499133645854e-01
         - 3.9602996735531697e+00
         - -8.0357427002613746e-01
         - -3.0845790841414755e-01
         - 2.4517542498139271e+00
         - 1.9864665027851096e+00
         - -1.5061037867266236e+00
         - -4.1135603445488851e+00
         - -1.8727061414044568e+00
         - 1.3746356339915053e+00
         - -2.0841006471265153e+00
         - 9.1987373496865865e-01
         - 1.8651888025799771e+01
         - -2.1802430094872678e+00
         - -1.8813018673857347e+00
         - -6.1611542709632672e-01
         - -8.3779540764585310e+00
         - -2.5345632340112898e+00
